<?xml version="1.0"?>
<opencv_storage>
<cascade>
  <stageType>BOOST</stageType>
  <featureType>HAAR</featureType>
  <height>24</height>
  <width>24</width>
  <stageParams>
    <boostType>GAB</boostType>
    <minHitRate>9.9500000476837158e-01</minHitRate>
    <maxFalseAlarm>5.0000000000000000e-01</maxFalseAlarm>
    <weightTrimRate>9.4999998807907104e-01</weightTrimRate>
    <maxDepth>1</maxDepth>
    <maxWeakCount>100</maxWeakCount></stageParams>
  <featureParams>
    <maxCatCount>0</maxCatCount>
    <featSize>1</featSize>
    <mode>BASIC</mode></featureParams>
  <stageNum>20</stageNum>
  <stages>
    <!-- stage 0 -->
    <_>
      <maxWeakCount>5</maxWeakCount>
      <stageThreshold>-1.8266139030456543e+00</stageThreshold>
      <weakClassifiers>
        <_>
          <internalNodes>
            0 -1 104 -5.6075729429721832e-02</internalNodes>
          <leafValues>
            4.7263681888580322e-01 -8.0740737915039063e-01</leafValues></_>
        <_>
          <internalNodes>
            0 -1 55 1.1528013646602631e-01</internalNodes>
          <leafValues>
            -4.5554125308990479e-01 6.4798188209533691e-01</leafValues></_>
        <_>
          <internalNodes>
            0 -1 39 -1.0561726987361908e-01</internalNodes>
          <leafValues>
            5.4188019037246704e-01 -4.9875265359878540e-01</leafValues></_>
        <_>
          <internalNodes>
            0 -1 67 -1.2603461800608784e-04</internalNodes>
          <leafValues>
            3.7724980711936951e-01 -5.8290153741836548e-01</leafValues></_>
        <_>
          <internalNodes>
            0 -1 155 -1.0170193389058113e-02</internalNodes>
          <leafValues>
            4.0829655528068542e-01 -5.8553409576416016e-01</leafValues></_></weakClassifiers></_>
    <!-- stage 1 -->
    <_>
      <maxWeakCount>6</maxWeakCount>
      <stageThreshold>-1.4432026147842407e+00</stageThreshold>
      <weakClassifiers>
        <_>
          <internalNodes>
            0 -1 144 -2.7136062271893024e-03</internalNodes>
          <leafValues>
            7.9661017656326294e-01 -5.6891494989395142e-01</leafValues></_>
        <_>
          <internalNodes>
            0 -1 190 -1.3389104977250099e-02</internalNodes>
          <leafValues>
            -9.7272628545761108e-01 1.5561918914318085e-01</leafValues></_>
        <_>
          <internalNodes>
            0 -1 97 -8.9598223567008972e-02</internalNodes>
          <leafValues>
            3.9759057760238647e-01 -5.3323042392730713e-01</leafValues></_>
        <_>
          <internalNodes>
            0 -1 15 -1.6342960298061371e-02</internalNodes>
          <leafValues>
            -9.6082115173339844e-01 2.3541814088821411e-01</leafValues></_>
        <_>
          <internalNodes>
            0 -1 7 1.1275269091129303e-02</internalNodes>
          <leafValues>
            2.5225871801376343e-01 -7.9141473770141602e-01</leafValues></_>
        <_>
          <internalNodes>
            0 -1 4 -7.2243260219693184e-03</internalNodes>
          <leafValues>
            -8.5194849967956543e-01 1.4399218559265137e-01</leafValues></_></weakClassifiers></_>
    <!-- stage 2 -->
    <_>
      <maxWeakCount>5</maxWeakCount>
      <stageThreshold>-8.1217634677886963e-01</stageThreshold>
      <weakClassifiers>
        <_>
          <internalNodes>
            0 -1 116 -2.1152854897081852e-03</internalNodes>
          <leafValues>
            8.2089549303054810e-01 -5.8753710985183716e-01</leafValues></_>
        <_>
          <internalNodes>
            0 -1 139 4.8954021185636520e-03</internalNodes>
          <leafValues>
            1.7494125664234161e-01 -9.2526340484619141e-01</leafValues></_>
        <_>
          <internalNodes>
            0 -1 2 -7.6238438487052917e-03</internalNodes>
          <leafValues>
            -7.3237329721450806e-01 2.9391431808471680e-01</leafValues></_>
        <_>
          <internalNodes>
            0 -1 196 1.3777722604572773e-02</internalNodes>
          <leafValues>
            2.2506333887577057e-01 -9.0273296833038330e-01</leafValues></_>
        <_>
          <internalNodes>
            0 -1 195 -4.4743199832737446e-03</internalNodes>
          <leafValues>
            -8.4986078739166260e-01 2.0923811197280884e-01</leafValues></_></weakClassifiers></_>
    <!-- stage 3 -->
    <_>
      <maxWeakCount>7</maxWeakCount>
      <stageThreshold>-1.1031213998794556e+00</stageThreshold>
      <weakClassifiers>
        <_>
          <internalNodes>
            0 -1 118 -9.0783275663852692e-04</internalNodes>
          <leafValues>
            8.1818181276321411e-01 -6.3246554136276245e-01</leafValues></_>
        <_>
          <internalNodes>
            0 -1 63 -2.7272369712591171e-02</internalNodes>
          <leafValues>
            -8.5964971780776978e-01 2.0247817039489746e-01</leafValues></_>
        <_>
          <internalNodes>
            0 -1 129 8.4493297617882490e-04</internalNodes>
          <leafValues>
            -3.2396459579467773e-01 8.2825899124145508e-01</leafValues></_>
        <_>
          <internalNodes>
            0 -1 114 -8.5163023322820663e-04</internalNodes>
          <leafValues>
            8.6563342809677124e-01 -2.2387637197971344e-01</leafValues></_>
        <_>
          <internalNodes>
            0 -1 114 8.3131616702303290e-04</internalNodes>
          <leafValues>
            -2.0268286764621735e-01 8.7571346759796143e-01</leafValues></_>
        <_>
          <internalNodes>
            0 -1 126 -7.8248477075248957e-04</internalNodes>
          <leafValues>
            8.7159270048141479e-01 -1.9620683789253235e-01</leafValues></_>
        <_>
          <internalNodes>
            0 -1 41 1.5860300511121750e-02</internalNodes>
          <leafValues>
            2.7359658479690552e-01 -9.3140447139739990e-01</leafValues></_></weakClassifiers></_>
    <!-- stage 4 -->
    <_>
      <maxWeakCount>5</maxWeakCount>
      <stageThreshold>-7.8757435083389282e-01</stageThreshold>
      <weakClassifiers>
        <_>
          <internalNodes>
            0 -1 146 1.9341409206390381e-03</internalNodes>
          <leafValues>
            -5.6176471710205078e-01 6.7213112115859985e-01</leafValues></_>
        <_>
          <internalNodes>
            0 -1 162 -1.2222709134221077e-02</internalNodes>
          <leafValues>
            -8.7052524089813232e-01 1.2686683237552643e-01</leafValues></_>
        <_>
          <internalNodes>
            0 -1 150 -2.1661611273884773e-02</internalNodes>
          <leafValues>
            -8.6013984680175781e-01 2.0848926901817322e-01</leafValues></_>
        <_>
          <internalNodes>
            0 -1 137 3.3015855588018894e-03</internalNodes>
          <leafValues>
            -6.0580676794052124e-01 2.8602370619773865e-01</leafValues></_>
        <_>
          <internalNodes>
            0 -1 53 9.1427098959684372e-03</internalNodes>
          <leafValues>
            2.3575402796268463e-01 -8.4718942642211914e-01</leafValues></_></weakClassifiers></_>
    <!-- stage 5 -->
    <_>
      <maxWeakCount>9</maxWeakCount>
      <stageThreshold>-1.2947345972061157e+00</stageThreshold>
      <weakClassifiers>
        <_>
          <internalNodes>
            0 -1 136 -2.4675226304680109e-03</internalNodes>
          <leafValues>
            4.9333333969116211e-01 -5.6756758689880371e-01</leafValues></_>
        <_>
          <internalNodes>
            0 -1 191 1.1472385376691818e-03</internalNodes>
          <leafValues>
            1.5795235335826874e-01 -7.6005810499191284e-01</leafValues></_>
        <_>
          <internalNodes>
            0 -1 134 1.9025348592549562e-03</internalNodes>
          <leafValues>
            1.7774182558059692e-01 -7.0730382204055786e-01</leafValues></_>
        <_>
          <internalNodes>
            0 -1 122 -6.5967842238023877e-04</internalNodes>
          <leafValues>
            2.8313505649566650e-01 -4.8713442683219910e-01</leafValues></_>
        <_>
          <internalNodes>
            0 -1 94 3.2014102907851338e-04</internalNodes>
          <leafValues>
            2.2631119191646576e-01 -6.2406224012374878e-01</leafValues></_>
        <_>
          <internalNodes>
            0 -1 50 2.8825902845710516e-03</internalNodes>
          <leafValues>
            1.8430209159851074e-01 -7.6504486799240112e-01</leafValues></_>
        <_>
          <internalNodes>
            0 -1 115 -8.2164711784571409e-04</internalNodes>
          <leafValues>
            6.3017845153808594e-01 -2.6755869388580322e-01</leafValues></_>
        <_>
          <internalNodes>
            0 -1 17 8.7447557598352432e-03</internalNodes>
          <leafValues>
            1.9053596258163452e-01 -7.4232828617095947e-01</leafValues></_>
        <_>
          <internalNodes>
            0 -1 72 5.0747790373861790e-03</internalNodes>
          <leafValues>
            1.5480576455593109e-01 -7.6479291915893555e-01</leafValues></_></weakClassifiers></_>
    <!-- stage 6 -->
    <_>
      <maxWeakCount>8</maxWeakCount>
      <stageThreshold>-1.1727827787399292e+00</stageThreshold>
      <weakClassifiers>
        <_>
          <internalNodes>
            0 -1 153 1.4775757445022464e-03</internalNodes>
          <leafValues>
            -5.7894736528396606e-01 5.7894736528396606e-01</leafValues></_>
        <_>
          <internalNodes>
            0 -1 141 -7.8987353481352329e-04</internalNodes>
          <leafValues>
            5.9162527322769165e-01 -2.6583930850028992e-01</leafValues></_>
        <_>
          <internalNodes>
            0 -1 13 4.2920606210827827e-03</internalNodes>
          <leafValues>
            -3.9599627256393433e-01 3.7500956654548645e-01</leafValues></_>
        <_>
          <internalNodes>
            0 -1 160 2.9705637134611607e-03</internalNodes>
          <leafValues>
            2.2660709917545319e-01 -7.7331101894378662e-01</leafValues></_>
        <_>
          <internalNodes>
            0 -1 83 1.0391711257398129e-03</internalNodes>
          <leafValues>
            2.5686252117156982e-01 -5.7328176498413086e-01</leafValues></_>
        <_>
          <internalNodes>
            0 -1 56 1.2342159636318684e-02</internalNodes>
          <leafValues>
            2.6638239622116089e-01 -5.4693710803985596e-01</leafValues></_>
        <_>
          <internalNodes>
            0 -1 183 1.0254527442157269e-03</internalNodes>
          <leafValues>
            1.8980450928211212e-01 -7.7169573307037354e-01</leafValues></_>
        <_>
          <internalNodes>
            0 -1 38 1.0555531829595566e-02</internalNodes>
          <leafValues>
            -2.3790653049945831e-01 7.2313410043716431e-01</leafValues></_></weakClassifiers></_>
    <!-- stage 7 -->
    <_>
      <maxWeakCount>8</maxWeakCount>
      <stageThreshold>-8.9932096004486084e-01</stageThreshold>
      <weakClassifiers>
        <_>
          <internalNodes>
            0 -1 142 -1.9091514404863119e-03</internalNodes>
          <leafValues>
            3.6263737082481384e-01 -5.7538461685180664e-01</leafValues></_>
        <_>
          <internalNodes>
            0 -1 69 -4.2233154177665710e-02</internalNodes>
          <leafValues>
            3.0803081393241882e-01 -4.1183412075042725e-01</leafValues></_>
        <_>
          <internalNodes>
            0 -1 45 1.2110536918044090e-02</internalNodes>
          <leafValues>
            -4.3263304233551025e-01 3.2891198992729187e-01</leafValues></_>
        <_>
          <internalNodes>
            0 -1 73 -1.9668469205498695e-02</internalNodes>
          <leafValues>
            -9.7524350881576538e-01 1.1963944882154465e-01</leafValues></_>
        <_>
          <internalNodes>
            0 -1 118 -8.2933402154594660e-04</internalNodes>
          <leafValues>
            5.1271551847457886e-01 -2.2992613911628723e-01</leafValues></_>
        <_>
          <internalNodes>
            0 -1 151 -1.3673668727278709e-02</internalNodes>
          <leafValues>
            2.0338107645511627e-01 -5.8882069587707520e-01</leafValues></_>
        <_>
          <internalNodes>
            0 -1 166 -1.2785565108060837e-02</internalNodes>
          <leafValues>
            -8.0794709920883179e-01 1.6449980437755585e-01</leafValues></_>
        <_>
          <internalNodes>
            0 -1 62 2.8328029438853264e-03</internalNodes>
          <leafValues>
            -2.4602644145488739e-01 5.0400388240814209e-01</leafValues></_></weakClassifiers></_>
    <!-- stage 8 -->
    <_>
      <maxWeakCount>9</maxWeakCount>
      <stageThreshold>-1.2544428110122681e+00</stageThreshold>
      <weakClassifiers>
        <_>
          <internalNodes>
            0 -1 138 1.8094854895025492e-03</internalNodes>
          <leafValues>
            -5.6259429454803467e-01 4.1025641560554504e-01</leafValues></_>
        <_>
          <internalNodes>
            0 -1 178 -4.4101411476731300e-03</internalNodes>
          <leafValues>
            -7.9911959171295166e-01 8.3935014903545380e-02</leafValues></_>
        <_>
          <internalNodes>
            0 -1 52 1.6991510055959225e-03</internalNodes>
          <leafValues>
            1.3337300717830658e-01 -6.8637514114379883e-01</leafValues></_>
        <_>
          <internalNodes>
            0 -1 25 -1.6704943031072617e-02</internalNodes>
          <leafValues>
            -6.9127255678176880e-01 1.5737013518810272e-01</leafValues></_>
        <_>
          <internalNodes>
            0 -1 192 -1.1691875755786896e-02</internalNodes>
          <leafValues>
            -9.5294332504272461e-01 9.9438212811946869e-02</leafValues></_>
        <_>
          <internalNodes>
            0 -1 199 -4.3014888651669025e-03</internalNodes>
          <leafValues>
            -6.3270360231399536e-01 1.5336203575134277e-01</leafValues></_>
        <_>
          <internalNodes>
            0 -1 164 -2.3385565727949142e-03</internalNodes>
          <leafValues>
            4.4368863105773926e-01 -2.3904153704643250e-01</leafValues></_>
        <_>
          <internalNodes>
            0 -1 89 6.0141626745462418e-03</internalNodes>
          <leafValues>
            1.3430652022361755e-01 -7.5539630651473999e-01</leafValues></_>
        <_>
          <internalNodes>
            0 -1 103 -8.2060135900974274e-04</internalNodes>
          <leafValues>
            3.9122179150581360e-01 -3.0359801650047302e-01</leafValues></_></weakClassifiers></_>
    <!-- stage 9 -->
    <_>
      <maxWeakCount>10</maxWeakCount>
      <stageThreshold>-1.3182933330535889e+00</stageThreshold>
      <weakClassifiers>
        <_>
          <internalNodes>
            0 -1 165 1.5168956015259027e-03</internalNodes>
          <leafValues>
            -5.5725193023681641e-01 2.7906978130340576e-01</leafValues></_>
        <_>
          <internalNodes>
            0 -1 175 -3.2378984615206718e-03</internalNodes>
          <leafValues>
            -7.9066509008407593e-01 9.4060182571411133e-02</leafValues></_>
        <_>
          <internalNodes>
            0 -1 58 -3.2096463255584240e-03</internalNodes>
          <leafValues>
            1.8184731900691986e-01 -4.8228359222412109e-01</leafValues></_>
        <_>
          <internalNodes>
            0 -1 107 2.6111016049981117e-03</internalNodes>
          <leafValues>
            2.1888679265975952e-01 -4.9081817269325256e-01</leafValues></_>
        <_>
          <internalNodes>
            0 -1 198 -3.2147201709449291e-03</internalNodes>
          <leafValues>
            -7.0528984069824219e-01 1.5272389352321625e-01</leafValues></_>
        <_>
          <internalNodes>
            0 -1 154 1.0366359492763877e-03</internalNodes>
          <leafValues>
            -2.0562173426151276e-01 5.6610512733459473e-01</leafValues></_>
        <_>
          <internalNodes>
            0 -1 1 4.5430893078446388e-03</internalNodes>
          <leafValues>
            1.5101166069507599e-01 -8.5187214612960815e-01</leafValues></_>
        <_>
          <internalNodes>
            0 -1 194 8.7429899722337723e-03</internalNodes>
          <leafValues>
            1.1666978895664215e-01 -6.7196106910705566e-01</leafValues></_>
        <_>
          <internalNodes>
            0 -1 77 1.2519799172878265e-01</internalNodes>
          <leafValues>
            9.7483389079570770e-02 -8.9781320095062256e-01</leafValues></_>
        <_>
          <internalNodes>
            0 -1 90 -1.9801393151283264e-01</internalNodes>
          <leafValues>
            -8.7362372875213623e-01 9.8911933600902557e-02</leafValues></_></weakClassifiers></_>
    <!-- stage 10 -->
    <_>
      <maxWeakCount>12</maxWeakCount>
      <stageThreshold>-1.2828037738800049e+00</stageThreshold>
      <weakClassifiers>
        <_>
          <internalNodes>
            0 -1 128 -5.5851368233561516e-03</internalNodes>
          <leafValues>
            -2.1354167163372040e-01 -7.2549021244049072e-01</leafValues></_>
        <_>
          <internalNodes>
            0 -1 33 -1.3186163268983364e-02</internalNodes>
          <leafValues>
            -8.4274387359619141e-01 5.7417370378971100e-02</leafValues></_>
        <_>
          <internalNodes>
            0 -1 10 -4.1433637961745262e-03</internalNodes>
          <leafValues>
            -6.6800081729888916e-01 1.3832314312458038e-01</leafValues></_>
        <_>
          <internalNodes>
            0 -1 86 -4.7317640855908394e-03</internalNodes>
          <leafValues>
            4.1840323805809021e-01 -2.3593227565288544e-01</leafValues></_>
        <_>
          <internalNodes>
            0 -1 40 -3.7303096614778042e-03</internalNodes>
          <leafValues>
            2.5504139065742493e-01 -4.0893405675888062e-01</leafValues></_>
        <_>
          <internalNodes>
            0 -1 43 -1.0913266241550446e-01</internalNodes>
          <leafValues>
            4.6695077419281006e-01 -2.2468501329421997e-01</leafValues></_>
        <_>
          <internalNodes>
            0 -1 4 -5.3462893702089787e-03</internalNodes>
          <leafValues>
            -6.4307421445846558e-01 1.4695014059543610e-01</leafValues></_>
        <_>
          <internalNodes>
            0 -1 110 -1.0136140510439873e-02</internalNodes>
          <leafValues>
            -6.3232582807540894e-01 1.5917409956455231e-01</leafValues></_>
        <_>
          <internalNodes>
            0 -1 11 4.9184369854629040e-03</internalNodes>
          <leafValues>
            1.2596438825130463e-01 -7.3469960689544678e-01</leafValues></_>
        <_>
          <internalNodes>
            0 -1 135 2.2465195506811142e-03</internalNodes>
          <leafValues>
            -2.7475810050964355e-01 4.4826823472976685e-01</leafValues></_>
        <_>
          <internalNodes>
            0 -1 124 -2.5334896054118872e-03</internalNodes>
          <leafValues>
            5.7451552152633667e-01 -1.7551644146442413e-01</leafValues></_>
        <_>
          <internalNodes>
            0 -1 0 -5.7174060493707657e-03</internalNodes>
          <leafValues>
            -7.5086879730224609e-01 1.3468317687511444e-01</leafValues></_></weakClassifiers></_>
    <!-- stage 11 -->
    <_>
      <maxWeakCount>12</maxWeakCount>
      <stageThreshold>-1.2296853065490723e+00</stageThreshold>
      <weakClassifiers>
        <_>
          <internalNodes>
            0 -1 143 -6.3559040427207947e-03</internalNodes>
          <leafValues>
            -2.1428571641445160e-01 -6.9761270284652710e-01</leafValues></_>
        <_>
          <internalNodes>
            0 -1 108 5.6203091517090797e-03</internalNodes>
          <leafValues>
            3.9509400725364685e-02 -7.9873108863830566e-01</leafValues></_>
        <_>
          <internalNodes>
            0 -1 189 -2.4909123312681913e-03</internalNodes>
          <leafValues>
            2.7768322825431824e-01 -3.1731325387954712e-01</leafValues></_>
        <_>
          <internalNodes>
            0 -1 44 -4.4273156672716141e-03</internalNodes>
          <leafValues>
            -5.8281564712524414e-01 1.5178012847900391e-01</leafValues></_>
        <_>
          <internalNodes>
            0 -1 113 1.3528726994991302e-03</internalNodes>
          <leafValues>
            -1.8127791583538055e-01 4.9337264895439148e-01</leafValues></_>
        <_>
          <internalNodes>
            0 -1 112 -8.7944202823564410e-04</internalNodes>
          <leafValues>
            4.9980533123016357e-01 -1.8473024666309357e-01</leafValues></_>
        <_>
          <internalNodes>
            0 -1 24 -5.9052798897027969e-03</internalNodes>
          <leafValues>
            -7.2850137948989868e-01 1.6638842225074768e-01</leafValues></_>
        <_>
          <internalNodes>
            0 -1 171 -1.1499451473355293e-02</internalNodes>
          <leafValues>
            -7.4235022068023682e-01 9.7231350839138031e-02</leafValues></_>
        <_>
          <internalNodes>
            0 -1 117 3.4148846752941608e-03</internalNodes>
          <leafValues>
            1.4703319966793060e-01 -6.4322888851165771e-01</leafValues></_>
        <_>
          <internalNodes>
            0 -1 65 1.9187334924936295e-02</internalNodes>
          <leafValues>
            8.5135221481323242e-02 -8.8688308000564575e-01</leafValues></_>
        <_>
          <internalNodes>
            0 -1 106 -1.5080084558576345e-03</internalNodes>
          <leafValues>
            5.7001495361328125e-01 -1.8770171701908112e-01</leafValues></_>
        <_>
          <internalNodes>
            0 -1 173 2.9182410798966885e-03</internalNodes>
          <leafValues>
            1.4280597865581512e-01 -7.7953374385833740e-01</leafValues></_></weakClassifiers></_>
    <!-- stage 12 -->
    <_>
      <maxWeakCount>13</maxWeakCount>
      <stageThreshold>-1.1154385805130005e+00</stageThreshold>
      <weakClassifiers>
        <_>
          <internalNodes>
            0 -1 16 -9.4595782458782196e-02</internalNodes>
          <leafValues>
            5.8823531866073608e-01 -5.1060819625854492e-01</leafValues></_>
        <_>
          <internalNodes>
            0 -1 35 -2.4639065377414227e-03</internalNodes>
          <leafValues>
            -8.0245220661163330e-01 7.0019483566284180e-02</leafValues></_>
        <_>
          <internalNodes>
            0 -1 101 -3.7553265690803528e-02</internalNodes>
          <leafValues>
            -1. 8.6854837834835052e-02</leafValues></_>
        <_>
          <internalNodes>
            0 -1 100 6.6026197746396065e-03</internalNodes>
          <leafValues>
            -3.8584735989570618e-01 2.1909844875335693e-01</leafValues></_>
        <_>
          <internalNodes>
            0 -1 179 -3.1028706580400467e-03</internalNodes>
          <leafValues>
            -4.6034786105155945e-01 1.8278177082538605e-01</leafValues></_>
        <_>
          <internalNodes>
            0 -1 5 -5.7930521667003632e-02</internalNodes>
          <leafValues>
            9.1551035642623901e-01 -1.1672361195087433e-01</leafValues></_>
        <_>
          <internalNodes>
            0 -1 163 -2.1437201648950577e-02</internalNodes>
          <leafValues>
            -5.3857725858688354e-01 1.4763377606868744e-01</leafValues></_>
        <_>
          <internalNodes>
            0 -1 197 1.5854814555495977e-03</internalNodes>
          <leafValues>
            9.6019223332405090e-02 -7.9144287109375000e-01</leafValues></_>
        <_>
          <internalNodes>
            0 -1 165 6.5542006632313132e-04</internalNodes>
          <leafValues>
            -2.1793004870414734e-01 4.1736584901809692e-01</leafValues></_>
        <_>
          <internalNodes>
            0 -1 165 -1.0134321637451649e-03</internalNodes>
          <leafValues>
            5.0325000286102295e-01 -1.8314440548419952e-01</leafValues></_>
        <_>
          <internalNodes>
            0 -1 184 1.5742518007755280e-03</internalNodes>
          <leafValues>
            1.0911134630441666e-01 -8.2576364278793335e-01</leafValues></_>
        <_>
          <internalNodes>
            0 -1 157 3.0227499082684517e-03</internalNodes>
          <leafValues>
            -1.9719727337360382e-01 4.3865960836410522e-01</leafValues></_>
        <_>
          <internalNodes>
            0 -1 48 5.7757003232836723e-03</internalNodes>
          <leafValues>
            1.1704492568969727e-01 -7.5099968910217285e-01</leafValues></_></weakClassifiers></_>
    <!-- stage 13 -->
    <_>
      <maxWeakCount>13</maxWeakCount>
      <stageThreshold>-1.2111018896102905e+00</stageThreshold>
      <weakClassifiers>
        <_>
          <internalNodes>
            0 -1 125 1.5969889936968684e-03</internalNodes>
          <leafValues>
            -5.5379748344421387e-01 8.2568809390068054e-02</leafValues></_>
        <_>
          <internalNodes>
            0 -1 3 1.6959449276328087e-02</internalNodes>
          <leafValues>
            2.6267841458320618e-02 -9.0728610754013062e-01</leafValues></_>
        <_>
          <internalNodes>
            0 -1 6 -7.0770204067230225e-02</internalNodes>
          <leafValues>
            -6.2549608945846558e-01 1.5031743049621582e-01</leafValues></_>
        <_>
          <internalNodes>
            0 -1 82 2.7670771814882755e-03</internalNodes>
          <leafValues>
            2.1671338379383087e-01 -3.6220228672027588e-01</leafValues></_>
        <_>
          <internalNodes>
            0 -1 109 3.8059797952882946e-04</internalNodes>
          <leafValues>
            -3.1942534446716309e-01 2.4426043033599854e-01</leafValues></_>
        <_>
          <internalNodes>
            0 -1 123 -3.3515132963657379e-02</internalNodes>
          <leafValues>
            -9.7328406572341919e-01 8.4961950778961182e-02</leafValues></_>
        <_>
          <internalNodes>
            0 -1 54 -6.6089043393731117e-03</internalNodes>
          <leafValues>
            5.4729306697845459e-01 -1.6884520649909973e-01</leafValues></_>
        <_>
          <internalNodes>
            0 -1 71 9.8003642633557320e-03</internalNodes>
          <leafValues>
            1.7008052766323090e-01 -4.9431756138801575e-01</leafValues></_>
        <_>
          <internalNodes>
            0 -1 32 -1.1051381006836891e-02</internalNodes>
          <leafValues>
            -7.3594373464584351e-01 1.1909631639719009e-01</leafValues></_>
        <_>
          <internalNodes>
            0 -1 130 1.0921901557594538e-03</internalNodes>
          <leafValues>
            -2.7435436844825745e-01 3.0526143312454224e-01</leafValues></_>
        <_>
          <internalNodes>
            0 -1 79 2.0690992474555969e-02</internalNodes>
          <leafValues>
            -3.2513058185577393e-01 2.5927719473838806e-01</leafValues></_>
        <_>
          <internalNodes>
            0 -1 91 -2.0645140111446381e-01</internalNodes>
          <leafValues>
            -7.7840054035186768e-01 1.1618211865425110e-01</leafValues></_>
        <_>
          <internalNodes>
            0 -1 193 1.3733196537941694e-03</internalNodes>
          <leafValues>
            7.4006959795951843e-02 -9.0553027391433716e-01</leafValues></_></weakClassifiers></_>
    <!-- stage 14 -->
    <_>
      <maxWeakCount>13</maxWeakCount>
      <stageThreshold>-1.1811631917953491e+00</stageThreshold>
      <weakClassifiers>
        <_>
          <internalNodes>
            0 -1 92 -3.3145865891128778e-03</internalNodes>
          <leafValues>
            -1.0052909702062607e-01 -5.8333331346511841e-01</leafValues></_>
        <_>
          <internalNodes>
            0 -1 66 -1.6874738503247499e-03</internalNodes>
          <leafValues>
            1.1267729103565216e-01 -4.4971346855163574e-01</leafValues></_>
        <_>
          <internalNodes>
            0 -1 188 -2.4288529530167580e-03</internalNodes>
          <leafValues>
            2.6483273506164551e-01 -2.9084101319313049e-01</leafValues></_>
        <_>
          <internalNodes>
            0 -1 169 -2.2257227101363242e-04</internalNodes>
          <leafValues>
            2.4475587904453278e-01 -3.7109807133674622e-01</leafValues></_>
        <_>
          <internalNodes>
            0 -1 145 -3.0641930643469095e-03</internalNodes>
          <leafValues>
            1.7876830697059631e-01 -3.7965396046638489e-01</leafValues></_>
        <_>
          <internalNodes>
            0 -1 26 -1.7661571502685547e-02</internalNodes>
          <leafValues>
            -5.9604245424270630e-01 1.3902752101421356e-01</leafValues></_>
        <_>
          <internalNodes>
            0 -1 111 5.5946394801139832e-02</internalNodes>
          <leafValues>
            6.1497680842876434e-02 -9.3001151084899902e-01</leafValues></_>
        <_>
          <internalNodes>
            0 -1 99 9.3228053301572800e-03</internalNodes>
          <leafValues>
            1.1416205763816833e-01 -5.8215260505676270e-01</leafValues></_>
        <_>
          <internalNodes>
            0 -1 42 1.3528272509574890e-02</internalNodes>
          <leafValues>
            1.2470896542072296e-01 -5.7037103176116943e-01</leafValues></_>
        <_>
          <internalNodes>
            0 -1 176 -2.7021118439733982e-03</internalNodes>
          <leafValues>
            -4.6703314781188965e-01 1.4458583295345306e-01</leafValues></_>
        <_>
          <internalNodes>
            0 -1 14 -4.9180570989847183e-02</internalNodes>
          <leafValues>
            -8.0691897869110107e-01 7.0960029959678650e-02</leafValues></_>
        <_>
          <internalNodes>
            0 -1 46 5.9862050693482161e-04</internalNodes>
          <leafValues>
            -2.4638721346855164e-01 3.0095866322517395e-01</leafValues></_>
        <_>
          <internalNodes>
            0 -1 93 -1.2161114066839218e-01</internalNodes>
          <leafValues>
            -5.6268149614334106e-01 1.3964946568012238e-01</leafValues></_></weakClassifiers></_>
    <!-- stage 15 -->
    <_>
      <maxWeakCount>12</maxWeakCount>
      <stageThreshold>-1.0235059261322021e+00</stageThreshold>
      <weakClassifiers>
        <_>
          <internalNodes>
            0 -1 105 7.0064177270978689e-04</internalNodes>
          <leafValues>
            -5.8165138959884644e-01 -1.2244898080825806e-01</leafValues></_>
        <_>
          <internalNodes>
            0 -1 70 -8.3544552326202393e-03</internalNodes>
          <leafValues>
            -7.1384227275848389e-01 6.6489614546298981e-02</leafValues></_>
        <_>
          <internalNodes>
            0 -1 174 1.5188341494649649e-03</internalNodes>
          <leafValues>
            1.0845951735973358e-01 -7.4655032157897949e-01</leafValues></_>
        <_>
          <internalNodes>
            0 -1 95 -9.8135275766253471e-04</internalNodes>
          <leafValues>
            1.4641648530960083e-01 -4.3473884463310242e-01</leafValues></_>
        <_>
          <internalNodes>
            0 -1 18 5.7739745825529099e-03</internalNodes>
          <leafValues>
            -1.5260836482048035e-01 4.8169785737991333e-01</leafValues></_>
        <_>
          <internalNodes>
            0 -1 98 1.2906553223729134e-02</internalNodes>
          <leafValues>
            9.7421176731586456e-02 -8.5710352659225464e-01</leafValues></_>
        <_>
          <internalNodes>
            0 -1 152 2.4140777532011271e-03</internalNodes>
          <leafValues>
            -2.3701781034469604e-01 3.4454005956649780e-01</leafValues></_>
        <_>
          <internalNodes>
            0 -1 74 4.1734650731086731e-02</internalNodes>
          <leafValues>
            -3.9332279562950134e-01 2.0554248988628387e-01</leafValues></_>
        <_>
          <internalNodes>
            0 -1 60 4.6513881534337997e-03</internalNodes>
          <leafValues>
            2.7617952227592468e-01 -2.9912686347961426e-01</leafValues></_>
        <_>
          <internalNodes>
            0 -1 75 2.6907909195870161e-03</internalNodes>
          <leafValues>
            1.3532005250453949e-01 -5.4765355587005615e-01</leafValues></_>
        <_>
          <internalNodes>
            0 -1 19 3.7752785719931126e-03</internalNodes>
          <leafValues>
            2.1079985797405243e-01 -3.7226951122283936e-01</leafValues></_>
        <_>
          <internalNodes>
            0 -1 20 -1.1117857694625854e-01</internalNodes>
          <leafValues>
            -8.2709598541259766e-01 7.9937480390071869e-02</leafValues></_></weakClassifiers></_>
    <!-- stage 16 -->
    <_>
      <maxWeakCount>15</maxWeakCount>
      <stageThreshold>-1.1102114915847778e+00</stageThreshold>
      <weakClassifiers>
        <_>
          <internalNodes>
            0 -1 85 -1.5068404376506805e-02</internalNodes>
          <leafValues>
            2.1875000000000000e-01 -5.2437222003936768e-01</leafValues></_>
        <_>
          <internalNodes>
            0 -1 76 6.9027822464704514e-03</internalNodes>
          <leafValues>
            3.1409706920385361e-02 -8.1597018241882324e-01</leafValues></_>
        <_>
          <internalNodes>
            0 -1 131 2.3607382178306580e-01</internalNodes>
          <leafValues>
            8.6462192237377167e-02 -1.</leafValues></_>
        <_>
          <internalNodes>
            0 -1 27 -5.5055972188711166e-03</internalNodes>
          <leafValues>
            -7.7501469850540161e-01 4.8094820231199265e-02</leafValues></_>
        <_>
          <internalNodes>
            0 -1 78 -2.2876429557800293e-01</internalNodes>
          <leafValues>
            -8.8302832841873169e-01 6.7704536020755768e-02</leafValues></_>
        <_>
          <internalNodes>
            0 -1 102 -1.3703271746635437e-01</internalNodes>
          <leafValues>
            -9.3498790264129639e-01 5.6660920381546021e-02</leafValues></_>
        <_>
          <internalNodes>
            0 -1 22 -2.5995327159762383e-03</internalNodes>
          <leafValues>
            -7.6096147298812866e-01 7.3780968785285950e-02</leafValues></_>
        <_>
          <internalNodes>
            0 -1 168 -3.3630933612585068e-03</internalNodes>
          <leafValues>
            5.4424947500228882e-01 -1.4597843587398529e-01</leafValues></_>
        <_>
          <internalNodes>
            0 -1 148 -2.6208565104752779e-03</internalNodes>
          <leafValues>
            -3.8706830143928528e-01 2.1521098911762238e-01</leafValues></_>
        <_>
          <internalNodes>
            0 -1 170 -6.5646162256598473e-03</internalNodes>
          <leafValues>
            -4.2570725083351135e-01 1.7435681819915771e-01</leafValues></_>
        <_>
          <internalNodes>
            0 -1 147 -9.7732129506766796e-04</internalNodes>
          <leafValues>
            3.5425072908401489e-01 -1.8700113892555237e-01</leafValues></_>
        <_>
          <internalNodes>
            0 -1 88 2.6414724998176098e-03</internalNodes>
          <leafValues>
            1.1680421233177185e-01 -6.0798925161361694e-01</leafValues></_>
        <_>
          <internalNodes>
            0 -1 36 5.0294632092118263e-03</internalNodes>
          <leafValues>
            1.8373905122280121e-01 -3.9479336142539978e-01</leafValues></_>
        <_>
          <internalNodes>
            0 -1 80 8.2759617362171412e-04</internalNodes>
          <leafValues>
            -1.7050141096115112e-01 4.6858769655227661e-01</leafValues></_>
        <_>
          <internalNodes>
            0 -1 181 -1.1223708279430866e-03</internalNodes>
          <leafValues>
            -4.2890387773513794e-01 1.8827508389949799e-01</leafValues></_></weakClassifiers></_>
    <!-- stage 17 -->
    <_>
      <maxWeakCount>13</maxWeakCount>
      <stageThreshold>-1.0535472631454468e+00</stageThreshold>
      <weakClassifiers>
        <_>
          <internalNodes>
            0 -1 30 6.9895561318844557e-04</internalNodes>
          <leafValues>
            -5.7950532436370850e-01 -7.4285715818405151e-02</leafValues></_>
        <_>
          <internalNodes>
            0 -1 133 -2.6352673768997192e-02</internalNodes>
          <leafValues>
            2.4197694659233093e-01 -3.2488197088241577e-01</leafValues></_>
        <_>
          <internalNodes>
            0 -1 156 -8.1168790347874165e-04</internalNodes>
          <leafValues>
            3.6964708566665649e-01 -1.8942917883396149e-01</leafValues></_>
        <_>
          <internalNodes>
            0 -1 51 -7.5415205210447311e-03</internalNodes>
          <leafValues>
            -8.4130042791366577e-01 9.1735996305942535e-02</leafValues></_>
        <_>
          <internalNodes>
            0 -1 64 4.6961678890511394e-04</internalNodes>
          <leafValues>
            -1.9210983812808990e-01 3.9985239505767822e-01</leafValues></_>
        <_>
          <internalNodes>
            0 -1 81 2.6364796794950962e-03</internalNodes>
          <leafValues>
            9.6307553350925446e-02 -6.5583688020706177e-01</leafValues></_>
        <_>
          <internalNodes>
            0 -1 149 -9.4636221183463931e-04</internalNodes>
          <leafValues>
            5.1102989912033081e-01 -1.2654481828212738e-01</leafValues></_>
        <_>
          <internalNodes>
            0 -1 61 -4.0012365207076073e-03</internalNodes>
          <leafValues>
            -3.9708539843559265e-01 2.1307435631752014e-01</leafValues></_>
        <_>
          <internalNodes>
            0 -1 172 1.1172997765243053e-03</internalNodes>
          <leafValues>
            1.3490130007266998e-01 -5.5149066448211670e-01</leafValues></_>
        <_>
          <internalNodes>
            0 -1 59 -1.7871367931365967e-01</internalNodes>
          <leafValues>
            -9.5244699716567993e-01 5.4123133420944214e-02</leafValues></_>
        <_>
          <internalNodes>
            0 -1 87 9.0083084069192410e-04</internalNodes>
          <leafValues>
            -2.2994883358478546e-01 3.2463192939758301e-01</leafValues></_>
        <_>
          <internalNodes>
            0 -1 167 -2.0436497405171394e-02</internalNodes>
          <leafValues>
            -7.3554444313049316e-01 1.0159292072057724e-01</leafValues></_>
        <_>
          <internalNodes>
            0 -1 12 -5.4349619895219803e-03</internalNodes>
          <leafValues>
            -6.6347444057464600e-01 9.4701141119003296e-02</leafValues></_></weakClassifiers></_>
    <!-- stage 18 -->
    <_>
      <maxWeakCount>12</maxWeakCount>
      <stageThreshold>-9.2764508724212646e-01</stageThreshold>
      <weakClassifiers>
        <_>
          <internalNodes>
            0 -1 37 5.4732882417738438e-03</internalNodes>
          <leafValues>
            -5.5056178569793701e-01 1.6949152573943138e-02</leafValues></_>
        <_>
          <internalNodes>
            0 -1 186 2.3795086890459061e-03</internalNodes>
          <leafValues>
            6.4104244112968445e-02 -6.1765557527542114e-01</leafValues></_>
        <_>
          <internalNodes>
            0 -1 121 3.5372686106711626e-03</internalNodes>
          <leafValues>
            -3.0184885859489441e-01 2.2632531821727753e-01</leafValues></_>
        <_>
          <internalNodes>
            0 -1 177 -2.3798826150596142e-03</internalNodes>
          <leafValues>
            3.6901745200157166e-01 -2.0289523899555206e-01</leafValues></_>
        <_>
          <internalNodes>
            0 -1 57 -2.5776110589504242e-02</internalNodes>
          <leafValues>
            -7.9325342178344727e-01 1.2316393852233887e-01</leafValues></_>
        <_>
          <internalNodes>
            0 -1 28 -2.0916506648063660e-02</internalNodes>
          <leafValues>
            2.2627949714660645e-01 -3.2144853472709656e-01</leafValues></_>
        <_>
          <internalNodes>
            0 -1 185 -6.0779321938753128e-04</internalNodes>
          <leafValues>
            -4.0287607908248901e-01 2.0115487277507782e-01</leafValues></_>
        <_>
          <internalNodes>
            0 -1 127 -1.0556457564234734e-03</internalNodes>
          <leafValues>
            5.2685755491256714e-01 -1.7409183084964752e-01</leafValues></_>
        <_>
          <internalNodes>
            0 -1 120 -5.1548546180129051e-03</internalNodes>
          <leafValues>
            2.6350528001785278e-01 -2.6817074418067932e-01</leafValues></_>
        <_>
          <internalNodes>
            0 -1 9 2.6380132883787155e-02</internalNodes>
          <leafValues>
            -2.9056990146636963e-01 3.2716697454452515e-01</leafValues></_>
        <_>
          <internalNodes>
            0 -1 21 2.4837164673954248e-03</internalNodes>
          <leafValues>
            2.6964244246482849e-01 -3.4618082642555237e-01</leafValues></_>
        <_>
          <internalNodes>
            0 -1 23 2.1058750152587891e-01</internalNodes>
          <leafValues>
            8.4081798791885376e-02 -9.3620413541793823e-01</leafValues></_></weakClassifiers></_>
    <!-- stage 19 -->
    <_>
      <maxWeakCount>18</maxWeakCount>
      <stageThreshold>-1.2613873481750488e+00</stageThreshold>
      <weakClassifiers>
        <_>
          <internalNodes>
            0 -1 182 5.7110046327579767e-05</internalNodes>
          <leafValues>
            -3.1063830852508545e-01 -7.1955716609954834e-01</leafValues></_>
        <_>
          <internalNodes>
            0 -1 47 -2.7932290686294436e-04</internalNodes>
          <leafValues>
            2.0913797616958618e-01 -2.8345784544944763e-01</leafValues></_>
        <_>
          <internalNodes>
            0 -1 8 1.0629540774971247e-03</internalNodes>
          <leafValues>
            -3.0233654379844666e-01 2.3048433661460876e-01</leafValues></_>
        <_>
          <internalNodes>
            0 -1 84 3.5105803981423378e-03</internalNodes>
          <leafValues>
            1.2597456574440002e-01 -6.8225276470184326e-01</leafValues></_>
        <_>
          <internalNodes>
            0 -1 159 6.5257033566012979e-04</internalNodes>
          <leafValues>
            -2.0189793407917023e-01 3.2308098673820496e-01</leafValues></_>
        <_>
          <internalNodes>
            0 -1 140 -2.2828117944300175e-03</internalNodes>
          <leafValues>
            2.6051852107048035e-01 -3.1757035851478577e-01</leafValues></_>
        <_>
          <internalNodes>
            0 -1 68 4.3439734727144241e-03</internalNodes>
          <leafValues>
            1.4508730173110962e-01 -4.5153173804283142e-01</leafValues></_>
        <_>
          <internalNodes>
            0 -1 49 4.6846866607666016e-03</internalNodes>
          <leafValues>
            -1.3898991048336029e-01 5.0430947542190552e-01</leafValues></_>
        <_>
          <internalNodes>
            0 -1 34 5.3485548123717308e-03</internalNodes>
          <leafValues>
            8.1057190895080566e-02 -8.7063425779342651e-01</leafValues></_>
        <_>
          <internalNodes>
            0 -1 119 -3.7720846012234688e-03</internalNodes>
          <leafValues>
            4.6723636984825134e-01 -1.5372249484062195e-01</leafValues></_>
        <_>
          <internalNodes>
            0 -1 96 1.0909673292189837e-03</internalNodes>
          <leafValues>
            1.2823678553104401e-01 -5.5672836303710938e-01</leafValues></_>
        <_>
          <internalNodes>
            0 -1 158 -3.3845715224742889e-03</internalNodes>
          <leafValues>
            5.1489382982254028e-01 -1.4443837106227875e-01</leafValues></_>
        <_>
          <internalNodes>
            0 -1 180 3.0834722565487027e-04</internalNodes>
          <leafValues>
            1.6101464629173279e-01 -4.1930428147315979e-01</leafValues></_>
        <_>
          <internalNodes>
            0 -1 29 1.5829384792596102e-03</internalNodes>
          <leafValues>
            1.4588113129138947e-01 -5.0454217195510864e-01</leafValues></_>
        <_>
          <internalNodes>
            0 -1 31 -2.4949219077825546e-03</internalNodes>
          <leafValues>
            5.4439097642898560e-01 -1.4787347614765167e-01</leafValues></_>
        <_>
          <internalNodes>
            0 -1 161 2.9653117526322603e-03</internalNodes>
          <leafValues>
            1.3607211410999298e-01 -5.7578277587890625e-01</leafValues></_>
        <_>
          <internalNodes>
            0 -1 187 6.5495921298861504e-03</internalNodes>
          <leafValues>
            -1.1393444240093231e-01 7.8829681873321533e-01</leafValues></_>
        <_>
          <internalNodes>
            0 -1 132 -3.2496824860572815e-03</internalNodes>
          <leafValues>
            -6.6505599021911621e-01 1.1702448129653931e-01</leafValues></_></weakClassifiers></_></stages>
  <features>
    <_>
      <rects>
        <_>
          0 0 1 15 -1.</_>
        <_>
          0 5 1 5 3.</_></rects>
      <tilted>0</tilted></_>
    <_>
      <rects>
        <_>
          0 0 4 3 -1.</_>
        <_>
          2 0 2 3 2.</_></rects>
      <tilted>0</tilted></_>
    <_>
      <rects>
        <_>
          0 0 2 12 -1.</_>
        <_>
          0 4 2 4 3.</_></rects>
      <tilted>0</tilted></_>
    <_>
      <rects>
        <_>
          0 0 2 10 -1.</_>
        <_>
          0 5 2 5 2.</_></rects>
      <tilted>0</tilted></_>
    <_>
      <rects>
        <_>
          0 0 2 21 -1.</_>
        <_>
          0 7 2 7 3.</_></rects>
      <tilted>0</tilted></_>
    <_>
      <rects>
        <_>
          0 0 14 5 -1.</_>
        <_>
          7 0 7 5 2.</_></rects>
      <tilted>0</tilted></_>
    <_>
      <rects>
        <_>
          0 0 24 18 -1.</_>
        <_>
          0 6 24 6 3.</_></rects>
      <tilted>0</tilted></_>
    <_>
      <rects>
        <_>
          0 1 1 21 -1.</_>
        <_>
          0 8 1 7 3.</_></rects>
      <tilted>0</tilted></_>
    <_>
      <rects>
        <_>
          0 1 6 16 -1.</_>
        <_>
          2 1 2 16 3.</_></rects>
      <tilted>0</tilted></_>
    <_>
      <rects>
        <_>
          0 1 12 12 -1.</_>
        <_>
          6 1 6 12 2.</_></rects>
      <tilted>0</tilted></_>
    <_>
      <rects>
        <_>
          0 1 24 1 -1.</_>
        <_>
          8 1 8 1 3.</_></rects>
      <tilted>0</tilted></_>
    <_>
      <rects>
        <_>
          0 3 1 12 -1.</_>
        <_>
          0 7 1 4 3.</_></rects>
      <tilted>0</tilted></_>
    <_>
      <rects>
        <_>
          0 3 1 18 -1.</_>
        <_>
          0 9 1 6 3.</_></rects>
      <tilted>0</tilted></_>
    <_>
      <rects>
        <_>
          0 3 4 17 -1.</_>
        <_>
          2 3 2 17 2.</_></rects>
      <tilted>0</tilted></_>
    <_>
      <rects>
        <_>
          0 3 14 21 -1.</_>
        <_>
          0 10 14 7 3.</_></rects>
      <tilted>0</tilted></_>
    <_>
      <rects>
        <_>
          0 4 2 18 -1.</_>
        <_>
          0 10 2 6 3.</_></rects>
      <tilted>0</tilted></_>
    <_>
      <rects>
        <_>
          0 5 8 14 -1.</_>
        <_>
          4 5 4 14 2.</_></rects>
      <tilted>0</tilted></_>
    <_>
      <rects>
        <_>
          0 6 1 18 -1.</_>
        <_>
          0 12 1 6 3.</_></rects>
      <tilted>0</tilted></_>
    <_>
      <rects>
        <_>
          0 6 3 11 -1.</_>
        <_>
          1 6 1 11 3.</_></rects>
      <tilted>0</tilted></_>
    <_>
      <rects>
        <_>
          0 6 6 18 -1.</_>
        <_>
          0 6 3 9 2.</_>
        <_>
          3 15 3 9 2.</_></rects>
      <tilted>0</tilted></_>
    <_>
      <rects>
        <_>
          0 6 12 12 -1.</_>
        <_>
          0 12 12 6 2.</_></rects>
      <tilted>0</tilted></_>
    <_>
      <rects>
        <_>
          0 7 21 1 -1.</_>
        <_>
          7 7 7 1 3.</_></rects>
      <tilted>0</tilted></_>
    <_>
      <rects>
        <_>
          0 10 1 6 -1.</_>
        <_>
          0 12 1 2 3.</_></rects>
      <tilted>0</tilted></_>
    <_>
      <rects>
        <_>
          0 11 16 12 -1.</_>
        <_>
          8 11 8 12 2.</_></rects>
      <tilted>0</tilted></_>
    <_>
      <rects>
        <_>
          0 12 1 12 -1.</_>
        <_>
          0 16 1 4 3.</_></rects>
      <tilted>0</tilted></_>
    <_>
      <rects>
        <_>
          0 14 10 10 -1.</_>
        <_>
          0 14 5 5 2.</_>
        <_>
          5 19 5 5 2.</_></rects>
      <tilted>0</tilted></_>
    <_>
      <rects>
        <_>
          0 14 11 4 -1.</_>
        <_>
          0 16 11 2 2.</_></rects>
      <tilted>0</tilted></_>
    <_>
      <rects>
        <_>
          0 16 2 6 -1.</_>
        <_>
          0 18 2 2 3.</_></rects>
      <tilted>0</tilted></_>
    <_>
      <rects>
        <_>
          0 16 22 8 -1.</_>
        <_>
          0 20 22 4 2.</_></rects>
      <tilted>0</tilted></_>
    <_>
      <rects>
        <_>
          0 17 4 6 -1.</_>
        <_>
          0 17 2 3 2.</_>
        <_>
          2 20 2 3 2.</_></rects>
      <tilted>0</tilted></_>
    <_>
      <rects>
        <_>
          0 20 1 3 -1.</_>
        <_>
          0 21 1 1 3.</_></rects>
      <tilted>0</tilted></_>
    <_>
      <rects>
        <_>
          0 21 3 3 -1.</_>
        <_>
          0 22 3 1 3.</_></rects>
      <tilted>0</tilted></_>
    <_>
      <rects>
        <_>
          0 22 21 2 -1.</_>
        <_>
          7 22 7 2 3.</_></rects>
      <tilted>0</tilted></_>
    <_>
      <rects>
        <_>
          0 22 24 2 -1.</_>
        <_>
          8 22 8 2 3.</_></rects>
      <tilted>0</tilted></_>
    <_>
      <rects>
        <_>
          1 0 6 2 -1.</_>
        <_>
          4 0 3 2 2.</_></rects>
      <tilted>0</tilted></_>
    <_>
      <rects>
        <_>
          1 2 6 2 -1.</_>
        <_>
          4 2 3 2 2.</_></rects>
      <tilted>0</tilted></_>
    <_>
      <rects>
        <_>
          1 5 4 12 -1.</_>
        <_>
          1 9 4 4 3.</_></rects>
      <tilted>0</tilted></_>
    <_>
      <rects>
        <_>
          1 7 3 7 -1.</_>
        <_>
          2 7 1 7 3.</_></rects>
      <tilted>0</tilted></_>
    <_>
      <rects>
        <_>
          1 7 3 16 -1.</_>
        <_>
          2 7 1 16 3.</_></rects>
      <tilted>0</tilted></_>
    <_>
      <rects>
        <_>
          1 8 15 16 -1.</_>
        <_>
          1 16 15 8 2.</_></rects>
      <tilted>0</tilted></_>
    <_>
      <rects>
        <_>
          1 12 12 12 -1.</_>
        <_>
          5 12 4 12 3.</_></rects>
      <tilted>0</tilted></_>
    <_>
      <rects>
        <_>
          1 13 6 8 -1.</_>
        <_>
          4 13 3 8 2.</_></rects>
      <tilted>0</tilted></_>
    <_>
      <rects>
        <_>
          1 14 12 9 -1.</_>
        <_>
          1 17 12 3 3.</_></rects>
      <tilted>0</tilted></_>
    <_>
      <rects>
        <_>
          1 15 22 8 -1.</_>
        <_>
          12 15 11 8 2.</_></rects>
      <tilted>0</tilted></_>
    <_>
      <rects>
        <_>
          1 18 2 6 -1.</_>
        <_>
          1 21 2 3 2.</_></rects>
      <tilted>0</tilted></_>
    <_>
      <rects>
        <_>
          2 0 19 8 -1.</_>
        <_>
          2 4 19 4 2.</_></rects>
      <tilted>0</tilted></_>
    <_>
      <rects>
        <_>
          2 3 2 4 -1.</_>
        <_>
          3 3 1 4 2.</_></rects>
      <tilted>0</tilted></_>
    <_>
      <rects>
        <_>
          2 6 2 18 -1.</_>
        <_>
          2 12 2 6 3.</_></rects>
      <tilted>0</tilted></_>
    <_>
      <rects>
        <_>
          2 12 6 3 -1.</_>
        <_>
          4 12 2 3 3.</_></rects>
      <tilted>0</tilted></_>
    <_>
      <rects>
        <_>
          2 14 8 3 -1.</_>
        <_>
          2 15 8 1 3.</_></rects>
      <tilted>0</tilted></_>
    <_>
      <rects>
        <_>
          2 19 3 4 -1.</_>
        <_>
          2 21 3 2 2.</_></rects>
      <tilted>0</tilted></_>
    <_>
      <rects>
        <_>
          2 21 6 3 -1.</_>
        <_>
          4 21 2 3 3.</_></rects>
      <tilted>0</tilted></_>
    <_>
      <rects>
        <_>
          2 23 6 1 -1.</_>
        <_>
          5 23 3 1 2.</_></rects>
      <tilted>0</tilted></_>
    <_>
      <rects>
        <_>
          3 0 21 1 -1.</_>
        <_>
          10 0 7 1 3.</_></rects>
      <tilted>0</tilted></_>
    <_>
      <rects>
        <_>
          3 0 17 3 -1.</_>
        <_>
          3 1 17 1 3.</_></rects>
      <tilted>0</tilted></_>
    <_>
      <rects>
        <_>
          3 1 16 14 -1.</_>
        <_>
          3 8 16 7 2.</_></rects>
      <tilted>0</tilted></_>
    <_>
      <rects>
        <_>
          3 2 2 21 -1.</_>
        <_>
          3 9 2 7 3.</_></rects>
      <tilted>0</tilted></_>
    <_>
      <rects>
        <_>
          3 6 6 8 -1.</_>
        <_>
          5 6 2 8 3.</_></rects>
      <tilted>0</tilted></_>
    <_>
      <rects>
        <_>
          3 7 9 17 -1.</_>
        <_>
          6 7 3 17 3.</_></rects>
      <tilted>0</tilted></_>
    <_>
      <rects>
        <_>
          3 11 16 12 -1.</_>
        <_>
          11 11 8 12 2.</_></rects>
      <tilted>0</tilted></_>
    <_>
      <rects>
        <_>
          3 17 18 7 -1.</_>
        <_>
          9 17 6 7 3.</_></rects>
      <tilted>0</tilted></_>
    <_>
      <rects>
        <_>
          3 20 12 4 -1.</_>
        <_>
          7 20 4 4 3.</_></rects>
      <tilted>0</tilted></_>
    <_>
      <rects>
        <_>
          4 1 6 3 -1.</_>
        <_>
          4 2 6 1 3.</_></rects>
      <tilted>0</tilted></_>
    <_>
      <rects>
        <_>
          4 1 18 12 -1.</_>
        <_>
          10 1 6 12 3.</_></rects>
      <tilted>0</tilted></_>
    <_>
      <rects>
        <_>
          4 6 2 2 -1.</_>
        <_>
          4 6 1 1 2.</_>
        <_>
          5 7 1 1 2.</_></rects>
      <tilted>0</tilted></_>
    <_>
      <rects>
        <_>
          4 7 4 12 -1.</_>
        <_>
          6 7 2 12 2.</_></rects>
      <tilted>0</tilted></_>
    <_>
      <rects>
        <_>
          4 8 6 16 -1.</_>
        <_>
          6 8 2 16 3.</_></rects>
      <tilted>0</tilted></_>
    <_>
      <rects>
        <_>
          4 9 6 7 -1.</_>
        <_>
          6 9 2 7 3.</_></rects>
      <tilted>0</tilted></_>
    <_>
      <rects>
        <_>
          4 10 2 12 -1.</_>
        <_>
          4 14 2 4 3.</_></rects>
      <tilted>0</tilted></_>
    <_>
      <rects>
        <_>
          4 14 20 10 -1.</_>
        <_>
          4 19 20 5 2.</_></rects>
      <tilted>0</tilted></_>
    <_>
      <rects>
        <_>
          4 15 6 2 -1.</_>
        <_>
          6 15 2 2 3.</_></rects>
      <tilted>0</tilted></_>
    <_>
      <rects>
        <_>
          4 20 15 3 -1.</_>
        <_>
          9 20 5 3 3.</_></rects>
      <tilted>0</tilted></_>
    <_>
      <rects>
        <_>
          5 0 18 1 -1.</_>
        <_>
          11 0 6 1 3.</_></rects>
      <tilted>0</tilted></_>
    <_>
      <rects>
        <_>
          5 0 18 2 -1.</_>
        <_>
          11 0 6 2 3.</_></rects>
      <tilted>0</tilted></_>
    <_>
      <rects>
        <_>
          5 2 15 18 -1.</_>
        <_>
          10 2 5 18 3.</_></rects>
      <tilted>0</tilted></_>
    <_>
      <rects>
        <_>
          5 3 1 6 -1.</_>
        <_>
          5 6 1 3 2.</_></rects>
      <tilted>0</tilted></_>
    <_>
      <rects>
        <_>
          5 5 2 17 -1.</_>
        <_>
          6 5 1 17 2.</_></rects>
      <tilted>0</tilted></_>
    <_>
      <rects>
        <_>
          5 5 12 13 -1.</_>
        <_>
          11 5 6 13 2.</_></rects>
      <tilted>0</tilted></_>
    <_>
      <rects>
        <_>
          5 6 16 15 -1.</_>
        <_>
          13 6 8 15 2.</_></rects>
      <tilted>0</tilted></_>
    <_>
      <rects>
        <_>
          5 7 15 5 -1.</_>
        <_>
          10 7 5 5 3.</_></rects>
      <tilted>0</tilted></_>
    <_>
      <rects>
        <_>
          5 13 1 3 -1.</_>
        <_>
          5 14 1 1 3.</_></rects>
      <tilted>0</tilted></_>
    <_>
      <rects>
        <_>
          6 0 6 1 -1.</_>
        <_>
          8 0 2 1 3.</_></rects>
      <tilted>0</tilted></_>
    <_>
      <rects>
        <_>
          6 0 12 7 -1.</_>
        <_>
          10 0 4 7 3.</_></rects>
      <tilted>0</tilted></_>
    <_>
      <rects>
        <_>
          6 2 10 9 -1.</_>
        <_>
          6 5 10 3 3.</_></rects>
      <tilted>0</tilted></_>
    <_>
      <rects>
        <_>
          6 4 5 3 -1.</_>
        <_>
          6 5 5 1 3.</_></rects>
      <tilted>0</tilted></_>
    <_>
      <rects>
        <_>
          6 6 3 8 -1.</_>
        <_>
          6 10 3 4 2.</_></rects>
      <tilted>0</tilted></_>
    <_>
      <rects>
        <_>
          6 6 11 3 -1.</_>
        <_>
          6 7 11 1 3.</_></rects>
      <tilted>0</tilted></_>
    <_>
      <rects>
        <_>
          6 14 10 2 -1.</_>
        <_>
          6 14 5 1 2.</_>
        <_>
          11 15 5 1 2.</_></rects>
      <tilted>0</tilted></_>
    <_>
      <rects>
        <_>
          6 22 4 2 -1.</_>
        <_>
          8 22 2 2 2.</_></rects>
      <tilted>0</tilted></_>
    <_>
      <rects>
        <_>
          6 23 12 1 -1.</_>
        <_>
          12 23 6 1 2.</_></rects>
      <tilted>0</tilted></_>
    <_>
      <rects>
        <_>
          7 2 14 15 -1.</_>
        <_>
          14 2 7 15 2.</_></rects>
      <tilted>0</tilted></_>
    <_>
      <rects>
        <_>
          7 4 16 12 -1.</_>
        <_>
          15 4 8 12 2.</_></rects>
      <tilted>0</tilted></_>
    <_>
      <rects>
        <_>
          7 9 6 4 -1.</_>
        <_>
          7 9 3 2 2.</_>
        <_>
          10 11 3 2 2.</_></rects>
      <tilted>0</tilted></_>
    <_>
      <rects>
        <_>
          7 11 15 10 -1.</_>
        <_>
          7 16 15 5 2.</_></rects>
      <tilted>0</tilted></_>
    <_>
      <rects>
        <_>
          7 14 9 4 -1.</_>
        <_>
          7 16 9 2 2.</_></rects>
      <tilted>0</tilted></_>
    <_>
      <rects>
        <_>
          7 14 9 6 -1.</_>
        <_>
          7 16 9 2 3.</_></rects>
      <tilted>0</tilted></_>
    <_>
      <rects>
        <_>
          7 20 1 4 -1.</_>
        <_>
          7 22 1 2 2.</_></rects>
      <tilted>0</tilted></_>
    <_>
      <rects>
        <_>
          8 0 16 24 -1.</_>
        <_>
          16 0 8 24 2.</_></rects>
      <tilted>0</tilted></_>
    <_>
      <rects>
        <_>
          8 1 2 14 -1.</_>
        <_>
          9 1 1 14 2.</_></rects>
      <tilted>0</tilted></_>
    <_>
      <rects>
        <_>
          8 3 8 4 -1.</_>
        <_>
          8 5 8 2 2.</_></rects>
      <tilted>0</tilted></_>
    <_>
      <rects>
        <_>
          8 4 4 8 -1.</_>
        <_>
          8 8 4 4 2.</_></rects>
      <tilted>0</tilted></_>
    <_>
      <rects>
        <_>
          8 4 10 6 -1.</_>
        <_>
          8 4 5 3 2.</_>
        <_>
          13 7 5 3 2.</_></rects>
      <tilted>0</tilted></_>
    <_>
      <rects>
        <_>
          8 4 12 14 -1.</_>
        <_>
          8 11 12 7 2.</_></rects>
      <tilted>0</tilted></_>
    <_>
      <rects>
        <_>
          8 7 1 6 -1.</_>
        <_>
          8 9 1 2 3.</_></rects>
      <tilted>0</tilted></_>
    <_>
      <rects>
        <_>
          8 9 16 7 -1.</_>
        <_>
          16 9 8 7 2.</_></rects>
      <tilted>0</tilted></_>
    <_>
      <rects>
        <_>
          8 13 2 2 -1.</_>
        <_>
          8 13 1 1 2.</_>
        <_>
          9 14 1 1 2.</_></rects>
      <tilted>0</tilted></_>
    <_>
      <rects>
        <_>
          8 14 2 2 -1.</_>
        <_>
          8 14 1 1 2.</_>
        <_>
          9 15 1 1 2.</_></rects>
      <tilted>0</tilted></_>
    <_>
      <rects>
        <_>
          8 14 13 6 -1.</_>
        <_>
          8 16 13 2 3.</_></rects>
      <tilted>0</tilted></_>
    <_>
      <rects>
        <_>
          9 0 15 1 -1.</_>
        <_>
          14 0 5 1 3.</_></rects>
      <tilted>0</tilted></_>
    <_>
      <rects>
        <_>
          9 0 6 2 -1.</_>
        <_>
          9 1 6 1 2.</_></rects>
      <tilted>0</tilted></_>
    <_>
      <rects>
        <_>
          9 3 8 3 -1.</_>
        <_>
          13 3 4 3 2.</_></rects>
      <tilted>0</tilted></_>
    <_>
      <rects>
        <_>
          9 6 6 14 -1.</_>
        <_>
          12 6 3 14 2.</_></rects>
      <tilted>0</tilted></_>
    <_>
      <rects>
        <_>
          9 8 2 2 -1.</_>
        <_>
          9 8 1 1 2.</_>
        <_>
          10 9 1 1 2.</_></rects>
      <tilted>0</tilted></_>
    <_>
      <rects>
        <_>
          9 9 3 1 -1.</_>
        <_>
          10 9 1 1 3.</_></rects>
      <tilted>0</tilted></_>
    <_>
      <rects>
        <_>
          9 10 2 2 -1.</_>
        <_>
          9 10 1 1 2.</_>
        <_>
          10 11 1 1 2.</_></rects>
      <tilted>0</tilted></_>
    <_>
      <rects>
        <_>
          9 11 2 1 -1.</_>
        <_>
          10 11 1 1 2.</_></rects>
      <tilted>0</tilted></_>
    <_>
      <rects>
        <_>
          9 12 1 3 -1.</_>
        <_>
          9 13 1 1 3.</_></rects>
      <tilted>0</tilted></_>
    <_>
      <rects>
        <_>
          9 14 13 4 -1.</_>
        <_>
          9 16 13 2 2.</_></rects>
      <tilted>0</tilted></_>
    <_>
      <rects>
        <_>
          9 15 2 2 -1.</_>
        <_>
          9 15 1 1 2.</_>
        <_>
          10 16 1 1 2.</_></rects>
      <tilted>0</tilted></_>
    <_>
      <rects>
        <_>
          9 22 7 2 -1.</_>
        <_>
          9 23 7 1 2.</_></rects>
      <tilted>0</tilted></_>
    <_>
      <rects>
        <_>
          9 22 14 2 -1.</_>
        <_>
          16 22 7 2 2.</_></rects>
      <tilted>0</tilted></_>
    <_>
      <rects>
        <_>
          10 3 3 6 -1.</_>
        <_>
          10 6 3 3 2.</_></rects>
      <tilted>0</tilted></_>
    <_>
      <rects>
        <_>
          10 3 4 6 -1.</_>
        <_>
          10 5 4 2 3.</_></rects>
      <tilted>0</tilted></_>
    <_>
      <rects>
        <_>
          10 4 14 6 -1.</_>
        <_>
          10 6 14 2 3.</_></rects>
      <tilted>0</tilted></_>
    <_>
      <rects>
        <_>
          10 7 3 4 -1.</_>
        <_>
          11 7 1 4 3.</_></rects>
      <tilted>0</tilted></_>
    <_>
      <rects>
        <_>
          10 8 3 1 -1.</_>
        <_>
          11 8 1 1 3.</_></rects>
      <tilted>0</tilted></_>
    <_>
      <rects>
        <_>
          10 8 2 2 -1.</_>
        <_>
          10 8 1 1 2.</_>
        <_>
          11 9 1 1 2.</_></rects>
      <tilted>0</tilted></_>
    <_>
      <rects>
        <_>
          10 12 2 1 -1.</_>
        <_>
          11 12 1 1 2.</_></rects>
      <tilted>0</tilted></_>
    <_>
      <rects>
        <_>
          10 13 2 10 -1.</_>
        <_>
          10 18 2 5 2.</_></rects>
      <tilted>0</tilted></_>
    <_>
      <rects>
        <_>
          10 14 2 2 -1.</_>
        <_>
          10 14 1 1 2.</_>
        <_>
          11 15 1 1 2.</_></rects>
      <tilted>0</tilted></_>
    <_>
      <rects>
        <_>
          10 22 14 2 -1.</_>
        <_>
          10 22 7 1 2.</_>
        <_>
          17 23 7 1 2.</_></rects>
      <tilted>0</tilted></_>
    <_>
      <rects>
        <_>
          11 2 8 22 -1.</_>
        <_>
          11 13 8 11 2.</_></rects>
      <tilted>0</tilted></_>
    <_>
      <rects>
        <_>
          11 4 2 3 -1.</_>
        <_>
          11 5 2 1 3.</_></rects>
      <tilted>0</tilted></_>
    <_>
      <rects>
        <_>
          11 13 6 10 -1.</_>
        <_>
          11 18 6 5 2.</_></rects>
      <tilted>0</tilted></_>
    <_>
      <rects>
        <_>
          12 0 6 2 -1.</_>
        <_>
          15 0 3 2 2.</_></rects>
      <tilted>0</tilted></_>
    <_>
      <rects>
        <_>
          12 5 2 10 -1.</_>
        <_>
          12 5 1 5 2.</_>
        <_>
          13 10 1 5 2.</_></rects>
      <tilted>0</tilted></_>
    <_>
      <rects>
        <_>
          12 10 1 3 -1.</_>
        <_>
          12 11 1 1 3.</_></rects>
      <tilted>0</tilted></_>
    <_>
      <rects>
        <_>
          12 10 8 12 -1.</_>
        <_>
          12 10 4 6 2.</_>
        <_>
          16 16 4 6 2.</_></rects>
      <tilted>0</tilted></_>
    <_>
      <rects>
        <_>
          12 11 2 2 -1.</_>
        <_>
          12 11 1 1 2.</_>
        <_>
          13 12 1 1 2.</_></rects>
      <tilted>0</tilted></_>
    <_>
      <rects>
        <_>
          12 22 10 2 -1.</_>
        <_>
          17 22 5 2 2.</_></rects>
      <tilted>0</tilted></_>
    <_>
      <rects>
        <_>
          13 2 9 9 -1.</_>
        <_>
          16 2 3 9 3.</_></rects>
      <tilted>0</tilted></_>
    <_>
      <rects>
        <_>
          13 7 2 2 -1.</_>
        <_>
          13 7 1 1 2.</_>
        <_>
          14 8 1 1 2.</_></rects>
      <tilted>0</tilted></_>
    <_>
      <rects>
        <_>
          13 9 1 3 -1.</_>
        <_>
          13 10 1 1 3.</_></rects>
      <tilted>0</tilted></_>
    <_>
      <rects>
        <_>
          13 9 9 4 -1.</_>
        <_>
          16 9 3 4 3.</_></rects>
      <tilted>0</tilted></_>
    <_>
      <rects>
        <_>
          13 11 1 3 -1.</_>
        <_>
          13 12 1 1 3.</_></rects>
      <tilted>0</tilted></_>
    <_>
      <rects>
        <_>
          13 12 6 2 -1.</_>
        <_>
          16 12 3 2 2.</_></rects>
      <tilted>0</tilted></_>
    <_>
      <rects>
        <_>
          13 13 2 2 -1.</_>
        <_>
          13 13 1 1 2.</_>
        <_>
          14 14 1 1 2.</_></rects>
      <tilted>0</tilted></_>
    <_>
      <rects>
        <_>
          13 15 3 1 -1.</_>
        <_>
          14 15 1 1 3.</_></rects>
      <tilted>0</tilted></_>
    <_>
      <rects>
        <_>
          13 17 3 4 -1.</_>
        <_>
          13 19 3 2 2.</_></rects>
      <tilted>0</tilted></_>
    <_>
      <rects>
        <_>
          13 21 2 2 -1.</_>
        <_>
          13 21 1 1 2.</_>
        <_>
          14 22 1 1 2.</_></rects>
      <tilted>0</tilted></_>
    <_>
      <rects>
        <_>
          14 0 10 10 -1.</_>
        <_>
          14 0 5 5 2.</_>
        <_>
          19 5 5 5 2.</_></rects>
      <tilted>0</tilted></_>
    <_>
      <rects>
        <_>
          14 2 10 14 -1.</_>
        <_>
          19 2 5 14 2.</_></rects>
      <tilted>0</tilted></_>
    <_>
      <rects>
        <_>
          14 8 3 9 -1.</_>
        <_>
          15 8 1 9 3.</_></rects>
      <tilted>0</tilted></_>
    <_>
      <rects>
        <_>
          14 9 2 2 -1.</_>
        <_>
          14 9 1 1 2.</_>
        <_>
          15 10 1 1 2.</_></rects>
      <tilted>0</tilted></_>
    <_>
      <rects>
        <_>
          14 11 2 2 -1.</_>
        <_>
          14 11 1 1 2.</_>
        <_>
          15 12 1 1 2.</_></rects>
      <tilted>0</tilted></_>
    <_>
      <rects>
        <_>
          14 11 10 12 -1.</_>
        <_>
          19 11 5 12 2.</_></rects>
      <tilted>0</tilted></_>
    <_>
      <rects>
        <_>
          14 13 3 1 -1.</_>
        <_>
          15 13 1 1 3.</_></rects>
      <tilted>0</tilted></_>
    <_>
      <rects>
        <_>
          14 13 2 3 -1.</_>
        <_>
          14 14 2 1 3.</_></rects>
      <tilted>0</tilted></_>
    <_>
      <rects>
        <_>
          14 21 5 3 -1.</_>
        <_>
          14 22 5 1 3.</_></rects>
      <tilted>0</tilted></_>
    <_>
      <rects>
        <_>
          15 1 3 2 -1.</_>
        <_>
          16 1 1 2 3.</_></rects>
      <tilted>0</tilted></_>
    <_>
      <rects>
        <_>
          15 1 6 4 -1.</_>
        <_>
          18 1 3 4 2.</_></rects>
      <tilted>0</tilted></_>
    <_>
      <rects>
        <_>
          15 2 9 2 -1.</_>
        <_>
          18 2 3 2 3.</_></rects>
      <tilted>0</tilted></_>
    <_>
      <rects>
        <_>
          15 3 9 4 -1.</_>
        <_>
          18 3 3 4 3.</_></rects>
      <tilted>0</tilted></_>
    <_>
      <rects>
        <_>
          15 4 4 17 -1.</_>
        <_>
          17 4 2 17 2.</_></rects>
      <tilted>0</tilted></_>
    <_>
      <rects>
        <_>
          15 10 3 4 -1.</_>
        <_>
          16 10 1 4 3.</_></rects>
      <tilted>0</tilted></_>
    <_>
      <rects>
        <_>
          15 11 2 2 -1.</_>
        <_>
          15 11 1 1 2.</_>
        <_>
          16 12 1 1 2.</_></rects>
      <tilted>0</tilted></_>
    <_>
      <rects>
        <_>
          16 5 6 5 -1.</_>
        <_>
          19 5 3 5 2.</_></rects>
      <tilted>0</tilted></_>
    <_>
      <rects>
        <_>
          16 9 4 11 -1.</_>
        <_>
          18 9 2 11 2.</_></rects>
      <tilted>0</tilted></_>
    <_>
      <rects>
        <_>
          16 12 2 3 -1.</_>
        <_>
          16 13 2 1 3.</_></rects>
      <tilted>0</tilted></_>
    <_>
      <rects>
        <_>
          16 21 6 2 -1.</_>
        <_>
          19 21 3 2 2.</_></rects>
      <tilted>0</tilted></_>
    <_>
      <rects>
        <_>
          17 0 4 16 -1.</_>
        <_>
          17 0 2 8 2.</_>
        <_>
          19 8 2 8 2.</_></rects>
      <tilted>0</tilted></_>
    <_>
      <rects>
        <_>
          17 6 4 9 -1.</_>
        <_>
          19 6 2 9 2.</_></rects>
      <tilted>0</tilted></_>
    <_>
      <rects>
        <_>
          18 0 4 4 -1.</_>
        <_>
          20 0 2 4 2.</_></rects>
      <tilted>0</tilted></_>
    <_>
      <rects>
        <_>
          18 16 6 5 -1.</_>
        <_>
          21 16 3 5 2.</_></rects>
      <tilted>0</tilted></_>
    <_>
      <rects>
        <_>
          18 22 4 2 -1.</_>
        <_>
          20 22 2 2 2.</_></rects>
      <tilted>0</tilted></_>
    <_>
      <rects>
        <_>
          19 0 5 4 -1.</_>
        <_>
          19 2 5 2 2.</_></rects>
      <tilted>0</tilted></_>
    <_>
      <rects>
        <_>
          19 3 4 10 -1.</_>
        <_>
          19 3 2 5 2.</_>
        <_>
          21 8 2 5 2.</_></rects>
      <tilted>0</tilted></_>
    <_>
      <rects>
        <_>
          19 9 3 12 -1.</_>
        <_>
          20 9 1 12 3.</_></rects>
      <tilted>0</tilted></_>
    <_>
      <rects>
        <_>
          19 10 4 3 -1.</_>
        <_>
          21 10 2 3 2.</_></rects>
      <tilted>0</tilted></_>
    <_>
      <rects>
        <_>
          19 13 4 3 -1.</_>
        <_>
          21 13 2 3 2.</_></rects>
      <tilted>0</tilted></_>
    <_>
      <rects>
        <_>
          20 0 4 4 -1.</_>
        <_>
          22 0 2 4 2.</_></rects>
      <tilted>0</tilted></_>
    <_>
      <rects>
        <_>
          20 5 4 4 -1.</_>
        <_>
          20 5 2 2 2.</_>
        <_>
          22 7 2 2 2.</_></rects>
      <tilted>0</tilted></_>
    <_>
      <rects>
        <_>
          20 15 4 1 -1.</_>
        <_>
          22 15 2 1 2.</_></rects>
      <tilted>0</tilted></_>
    <_>
      <rects>
        <_>
          20 17 4 5 -1.</_>
        <_>
          22 17 2 5 2.</_></rects>
      <tilted>0</tilted></_>
    <_>
      <rects>
        <_>
          20 21 4 2 -1.</_>
        <_>
          22 21 2 2 2.</_></rects>
      <tilted>0</tilted></_>
    <_>
      <rects>
        <_>
          21 0 3 6 -1.</_>
        <_>
          21 3 3 3 2.</_></rects>
      <tilted>0</tilted></_>
    <_>
      <rects>
        <_>
          21 1 2 4 -1.</_>
        <_>
          21 3 2 2 2.</_></rects>
      <tilted>0</tilted></_>
    <_>
      <rects>
        <_>
          21 5 2 8 -1.</_>
        <_>
          21 5 1 4 2.</_>
        <_>
          22 9 1 4 2.</_></rects>
      <tilted>0</tilted></_>
    <_>
      <rects>
        <_>
          22 0 2 17 -1.</_>
        <_>
          23 0 1 17 2.</_></rects>
      <tilted>0</tilted></_>
    <_>
      <rects>
        <_>
          22 2 2 20 -1.</_>
        <_>
          23 2 1 20 2.</_></rects>
      <tilted>0</tilted></_>
    <_>
      <rects>
        <_>
          22 2 2 21 -1.</_>
        <_>
          22 9 2 7 3.</_></rects>
      <tilted>0</tilted></_>
    <_>
      <rects>
        <_>
          22 5 2 14 -1.</_>
        <_>
          23 5 1 14 2.</_></rects>
      <tilted>0</tilted></_>
    <_>
      <rects>
        <_>
          22 16 2 8 -1.</_>
        <_>
          22 20 2 4 2.</_></rects>
      <tilted>0</tilted></_>
    <_>
      <rects>
        <_>
          22 19 2 4 -1.</_>
        <_>
          23 19 1 4 2.</_></rects>
      <tilted>0</tilted></_>
    <_>
      <rects>
        <_>
          23 0 1 21 -1.</_>
        <_>
          23 7 1 7 3.</_></rects>
      <tilted>0</tilted></_>
    <_>
      <rects>
        <_>
          23 1 1 18 -1.</_>
        <_>
          23 7 1 6 3.</_></rects>
      <tilted>0</tilted></_>
    <_>
      <rects>
        <_>
          23 1 1 21 -1.</_>
        <_>
          23 8 1 7 3.</_></rects>
      <tilted>0</tilted></_>
    <_>
      <rects>
        <_>
          23 2 1 4 -1.</_>
        <_>
          23 4 1 2 2.</_></rects>
      <tilted>0</tilted></_>
    <_>
      <rects>
        <_>
          23 5 1 15 -1.</_>
        <_>
          23 10 1 5 3.</_></rects>
      <tilted>0</tilted></_>
    <_>
      <rects>
        <_>
          23 9 1 15 -1.</_>
        <_>
          23 14 1 5 3.</_></rects>
      <tilted>0</tilted></_></features></cascade>
</opencv_storage>
