<?xml version="1.0"?>
<opencv_storage>
<stage13>
  <maxWeakCount>7</maxWeakCount>
  <stageThreshold>-1.6851232051849365e+00</stageThreshold>
  <weakClassifiers>
    <_>
      <internalNodes>
        0 -1 17747 3.3928126096725464e-01</internalNodes>
      <leafValues>
        -7.5850337743759155e-01 8.1250000000000000e-01</leafValues></_>
    <_>
      <internalNodes>
        0 -1 19966 2.6440005749464035e-03</internalNodes>
      <leafValues>
        1.1208807677030563e-01 -6.4030444622039795e-01</leafValues></_>
    <_>
      <internalNodes>
        0 -1 91368 8.8496729731559753e-03</internalNodes>
      <leafValues>
        2.9747959971427917e-01 -4.9395233392715454e-01</leafValues></_>
    <_>
      <internalNodes>
        0 -1 126625 -2.2982395603321493e-04</internalNodes>
      <leafValues>
        2.6965191960334778e-01 -5.1184684038162231e-01</leafValues></_>
    <_>
      <internalNodes>
        0 -1 97312 -3.3946283161640167e-02</internalNodes>
      <leafValues>
        3.6297753453254700e-01 -4.3324118852615356e-01</leafValues></_>
    <_>
      <internalNodes>
        0 -1 1137 -2.0967936143279076e-03</internalNodes>
      <leafValues>
        -8.1330865621566772e-01 1.8762180209159851e-01</leafValues></_>
    <_>
      <internalNodes>
        0 -1 99547 1.8335707485675812e-02</internalNodes>
      <leafValues>
        1.7367121577262878e-01 -7.3434537649154663e-01</leafValues></_></weakClassifiers></stage13>
</opencv_storage>
