<?xml version="1.0"?>
<opencv_storage>
<stage15>
  <maxWeakCount>7</maxWeakCount>
  <stageThreshold>-1.3829017877578735e+00</stageThreshold>
  <weakClassifiers>
    <_>
      <internalNodes>
        0 -1 83256 -2.7457186579704285e-01</internalNodes>
      <leafValues>
        8.2608693838119507e-01 -7.4683547019958496e-01</leafValues></_>
    <_>
      <internalNodes>
        0 -1 141208 3.0358674004673958e-02</internalNodes>
      <leafValues>
        -4.9216699600219727e-01 3.4784966707229614e-01</leafValues></_>
    <_>
      <internalNodes>
        0 -1 162108 1.6590672312304378e-03</internalNodes>
      <leafValues>
        1.7125838994979858e-01 -7.9486572742462158e-01</leafValues></_>
    <_>
      <internalNodes>
        0 -1 139235 -1.9059784244745970e-03</internalNodes>
      <leafValues>
        -8.5208392143249512e-01 1.4976941049098969e-01</leafValues></_>
    <_>
      <internalNodes>
        0 -1 132070 -2.5133340386673808e-04</internalNodes>
      <leafValues>
        2.7385509014129639e-01 -4.5675966143608093e-01</leafValues></_>
    <_>
      <internalNodes>
        0 -1 7442 -5.2392710931599140e-03</internalNodes>
      <leafValues>
        -9.3799555301666260e-01 1.0063351690769196e-01</leafValues></_>
    <_>
      <internalNodes>
        0 -1 159428 -1.9158758223056793e-03</internalNodes>
      <leafValues>
        1.6243757307529449e-01 -6.5842854976654053e-01</leafValues></_></weakClassifiers></stage15>
</opencv_storage>
