<?xml version="1.0"?>
<opencv_storage>
<cascade>
  <stageType>BOOST</stageType>
  <featureType>HAAR</featureType>
  <height>24</height>
  <width>24</width>
  <stageParams>
    <boostType>GAB</boostType>
    <minHitRate>9.9500000476837158e-01</minHitRate>
    <maxFalseAlarm>5.0000000000000000e-01</maxFalseAlarm>
    <weightTrimRate>9.4999998807907104e-01</weightTrimRate>
    <maxDepth>1</maxDepth>
    <maxWeakCount>100</maxWeakCount></stageParams>
  <featureParams>
    <maxCatCount>0</maxCatCount>
    <featSize>1</featSize>
    <mode>BASIC</mode></featureParams>
  <stageNum>11</stageNum>
  <stages>
    <!-- stage 0 -->
    <_>
      <maxWeakCount>3</maxWeakCount>
      <stageThreshold>-9.1841608285903931e-01</stageThreshold>
      <weakClassifiers>
        <_>
          <internalNodes>
            0 -1 4 4.6163856983184814e-01</internalNodes>
          <leafValues>
            -9.7484278678894043e-01 1.</leafValues></_>
        <_>
          <internalNodes>
            0 -1 5 4.5889931917190552e-01</internalNodes>
          <leafValues>
            -8.9183074235916138e-01 1.</leafValues></_>
        <_>
          <internalNodes>
            0 -1 17 -2.5394308567047119e-01</internalNodes>
          <leafValues>
            9.4825744628906250e-01 -9.1144138574600220e-01</leafValues></_></weakClassifiers></_>
    <!-- stage 1 -->
    <_>
      <maxWeakCount>2</maxWeakCount>
      <stageThreshold>-3.4313851594924927e-01</stageThreshold>
      <weakClassifiers>
        <_>
          <internalNodes>
            0 -1 3 6.8893927335739136e-01</internalNodes>
          <leafValues>
            -9.4936710596084595e-01 7.9310345649719238e-01</leafValues></_>
        <_>
          <internalNodes>
            0 -1 10 -2.9053840786218643e-02</internalNodes>
          <leafValues>
            6.0622859001159668e-01 -1.</leafValues></_></weakClassifiers></_>
    <!-- stage 2 -->
    <_>
      <maxWeakCount>2</maxWeakCount>
      <stageThreshold>-3.7121751904487610e-01</stageThreshold>
      <weakClassifiers>
        <_>
          <internalNodes>
            0 -1 1 8.5506224632263184e-01</internalNodes>
          <leafValues>
            -9.2592591047286987e-01 9.2000001668930054e-01</leafValues></_>
        <_>
          <internalNodes>
            0 -1 12 5.1555249840021133e-02</internalNodes>
          <leafValues>
            -9.5931524038314819e-01 5.5470842123031616e-01</leafValues></_></weakClassifiers></_>
    <!-- stage 3 -->
    <_>
      <maxWeakCount>3</maxWeakCount>
      <stageThreshold>-7.3116093873977661e-01</stageThreshold>
      <weakClassifiers>
        <_>
          <internalNodes>
            0 -1 18 1.8638454377651215e-01</internalNodes>
          <leafValues>
            -9.1250002384185791e-01 7.0370370149612427e-01</leafValues></_>
        <_>
          <internalNodes>
            0 -1 13 9.1917775571346283e-03</internalNodes>
          <leafValues>
            -6.9115251302719116e-01 8.2171320915222168e-01</leafValues></_>
        <_>
          <internalNodes>
            0 -1 21 -1.2868404388427734e-01</internalNodes>
          <leafValues>
            9.0414196252822876e-01 -6.4037418365478516e-01</leafValues></_></weakClassifiers></_>
    <!-- stage 4 -->
    <_>
      <maxWeakCount>1</maxWeakCount>
      <stageThreshold>-9.0909093618392944e-02</stageThreshold>
      <weakClassifiers>
        <_>
          <internalNodes>
            0 -1 16 -2.8988279402256012e-02</internalNodes>
          <leafValues>
            -9.0909093618392944e-02 -1.</leafValues></_></weakClassifiers></_>
    <!-- stage 5 -->
    <_>
      <maxWeakCount>2</maxWeakCount>
      <stageThreshold>-5.9026366472244263e-01</stageThreshold>
      <weakClassifiers>
        <_>
          <internalNodes>
            0 -1 20 5.5620901286602020e-02</internalNodes>
          <leafValues>
            -9.0666669607162476e-01 2.4324324727058411e-01</leafValues></_>
        <_>
          <internalNodes>
            0 -1 15 5.5386126041412354e-02</internalNodes>
          <leafValues>
            3.1640303134918213e-01 -1.</leafValues></_></weakClassifiers></_>
    <!-- stage 6 -->
    <_>
      <maxWeakCount>2</maxWeakCount>
      <stageThreshold>-5.0748062133789063e-01</stageThreshold>
      <weakClassifiers>
        <_>
          <internalNodes>
            0 -1 19 1.9734412431716919e-01</internalNodes>
          <leafValues>
            -8.7654322385787964e-01 6.0000002384185791e-01</leafValues></_>
        <_>
          <internalNodes>
            0 -1 7 9.2702116817235947e-03</internalNodes>
          <leafValues>
            3.6906257271766663e-01 -1.</leafValues></_></weakClassifiers></_>
    <!-- stage 7 -->
    <_>
      <maxWeakCount>3</maxWeakCount>
      <stageThreshold>-1.1425187587738037e+00</stageThreshold>
      <weakClassifiers>
        <_>
          <internalNodes>
            0 -1 8 1.5414535999298096e-01</internalNodes>
          <leafValues>
            -7.8409093618392944e-01 1.</leafValues></_>
        <_>
          <internalNodes>
            0 -1 2 2.9318541288375854e-01</internalNodes>
          <leafValues>
            -8.6908447742462158e-01 6.0616195201873779e-01</leafValues></_>
        <_>
          <internalNodes>
            0 -1 0 4.5071423053741455e-02</internalNodes>
          <leafValues>
            -1. 5.1065659523010254e-01</leafValues></_></weakClassifiers></_>
    <!-- stage 8 -->
    <_>
      <maxWeakCount>2</maxWeakCount>
      <stageThreshold>-7.3760163784027100e-01</stageThreshold>
      <weakClassifiers>
        <_>
          <internalNodes>
            0 -1 6 5.2873349189758301e-01</internalNodes>
          <leafValues>
            -9.3333333730697632e-01 3.5135135054588318e-01</leafValues></_>
        <_>
          <internalNodes>
            0 -1 9 -3.0506793409585953e-02</internalNodes>
          <leafValues>
            -1. 1.9573166966438293e-01</leafValues></_></weakClassifiers></_>
    <!-- stage 9 -->
    <_>
      <maxWeakCount>2</maxWeakCount>
      <stageThreshold>-5.0312167406082153e-01</stageThreshold>
      <weakClassifiers>
        <_>
          <internalNodes>
            0 -1 14 2.4407728016376495e-01</internalNodes>
          <leafValues>
            -8.3529412746429443e-01 8.8235294818878174e-01</leafValues></_>
        <_>
          <internalNodes>
            0 -1 24 8.7254511890932918e-04</internalNodes>
          <leafValues>
            3.3217245340347290e-01 -9.6806043386459351e-01</leafValues></_></weakClassifiers></_>
    <!-- stage 10 -->
    <_>
      <maxWeakCount>3</maxWeakCount>
      <stageThreshold>-9.3958097696304321e-01</stageThreshold>
      <weakClassifiers>
        <_>
          <internalNodes>
            0 -1 23 2.1512633189558983e-02</internalNodes>
          <leafValues>
            -8.1502890586853027e-01 1.</leafValues></_>
        <_>
          <internalNodes>
            0 -1 11 1.2710669636726379e-01</internalNodes>
          <leafValues>
            -7.1084606647491455e-01 8.0690592527389526e-01</leafValues></_>
        <_>
          <internalNodes>
            0 -1 22 -1.1713734129443765e-03</internalNodes>
          <leafValues>
            -1. 5.8629399538040161e-01</leafValues></_></weakClassifiers></_></stages>
  <features>
    <_>
      <rects>
        <_>
          0 0 24 6 -1.</_>
        <_>
          0 3 24 3 2.</_></rects>
      <tilted>0</tilted></_>
    <_>
      <rects>
        <_>
          0 2 24 22 -1.</_>
        <_>
          8 2 8 22 3.</_></rects>
      <tilted>0</tilted></_>
    <_>
      <rects>
        <_>
          0 2 18 12 -1.</_>
        <_>
          9 2 9 12 2.</_></rects>
      <tilted>0</tilted></_>
    <_>
      <rects>
        <_>
          0 5 24 16 -1.</_>
        <_>
          8 5 8 16 3.</_></rects>
      <tilted>0</tilted></_>
    <_>
      <rects>
        <_>
          2 0 21 22 -1.</_>
        <_>
          9 0 7 22 3.</_></rects>
      <tilted>0</tilted></_>
    <_>
      <rects>
        <_>
          3 0 21 19 -1.</_>
        <_>
          10 0 7 19 3.</_></rects>
      <tilted>0</tilted></_>
    <_>
      <rects>
        <_>
          3 2 18 15 -1.</_>
        <_>
          9 2 6 15 3.</_></rects>
      <tilted>0</tilted></_>
    <_>
      <rects>
        <_>
          3 9 19 12 -1.</_>
        <_>
          3 13 19 4 3.</_></rects>
      <tilted>0</tilted></_>
    <_>
      <rects>
        <_>
          4 4 12 5 -1.</_>
        <_>
          8 4 4 5 3.</_></rects>
      <tilted>0</tilted></_>
    <_>
      <rects>
        <_>
          4 8 14 8 -1.</_>
        <_>
          4 12 14 4 2.</_></rects>
      <tilted>0</tilted></_>
    <_>
      <rects>
        <_>
          4 20 16 4 -1.</_>
        <_>
          4 22 16 2 2.</_></rects>
      <tilted>0</tilted></_>
    <_>
      <rects>
        <_>
          5 0 9 14 -1.</_>
        <_>
          8 0 3 14 3.</_></rects>
      <tilted>0</tilted></_>
    <_>
      <rects>
        <_>
          5 0 15 6 -1.</_>
        <_>
          5 3 15 3 2.</_></rects>
      <tilted>0</tilted></_>
    <_>
      <rects>
        <_>
          5 1 14 3 -1.</_>
        <_>
          5 2 14 1 3.</_></rects>
      <tilted>0</tilted></_>
    <_>
      <rects>
        <_>
          5 2 8 21 -1.</_>
        <_>
          9 2 4 21 2.</_></rects>
      <tilted>0</tilted></_>
    <_>
      <rects>
        <_>
          5 15 19 9 -1.</_>
        <_>
          5 18 19 3 3.</_></rects>
      <tilted>0</tilted></_>
    <_>
      <rects>
        <_>
          5 20 19 4 -1.</_>
        <_>
          5 22 19 2 2.</_></rects>
      <tilted>0</tilted></_>
    <_>
      <rects>
        <_>
          6 1 18 20 -1.</_>
        <_>
          15 1 9 20 2.</_></rects>
      <tilted>0</tilted></_>
    <_>
      <rects>
        <_>
          6 7 12 7 -1.</_>
        <_>
          10 7 4 7 3.</_></rects>
      <tilted>0</tilted></_>
    <_>
      <rects>
        <_>
          6 8 12 7 -1.</_>
        <_>
          10 8 4 7 3.</_></rects>
      <tilted>0</tilted></_>
    <_>
      <rects>
        <_>
          6 9 12 2 -1.</_>
        <_>
          10 9 4 2 3.</_></rects>
      <tilted>0</tilted></_>
    <_>
      <rects>
        <_>
          10 5 8 10 -1.</_>
        <_>
          14 5 4 10 2.</_></rects>
      <tilted>0</tilted></_>
    <_>
      <rects>
        <_>
          11 7 7 9 -1.</_>
        <_>
          11 10 7 3 3.</_></rects>
      <tilted>0</tilted></_>
    <_>
      <rects>
        <_>
          11 9 6 5 -1.</_>
        <_>
          13 9 2 5 3.</_></rects>
      <tilted>0</tilted></_>
    <_>
      <rects>
        <_>
          19 0 1 6 -1.</_>
        <_>
          19 3 1 3 2.</_></rects>
      <tilted>0</tilted></_></features></cascade>
</opencv_storage>
