<?xml version="1.0"?>
<opencv_storage>
<cascade>
  <stageType>BOOST</stageType>
  <featureType>HAAR</featureType>
  <height>24</height>
  <width>24</width>
  <stageParams>
    <boostType>GAB</boostType>
    <minHitRate>9.9500000476837158e-01</minHitRate>
    <maxFalseAlarm>5.0000000000000000e-01</maxFalseAlarm>
    <weightTrimRate>9.4999998807907104e-01</weightTrimRate>
    <maxDepth>1</maxDepth>
    <maxWeakCount>100</maxWeakCount></stageParams>
  <featureParams>
    <maxCatCount>0</maxCatCount>
    <featSize>1</featSize>
    <mode>BASIC</mode></featureParams>
  <stageNum>6</stageNum>
  <stages>
    <!-- stage 0 -->
    <_>
      <maxWeakCount>1</maxWeakCount>
      <stageThreshold>6.6666668653488159e-01</stageThreshold>
      <weakClassifiers>
        <_>
          <internalNodes>
            0 -1 9 -1.2252218276262283e-01</internalNodes>
          <leafValues>
            6.6666668653488159e-01 -1.</leafValues></_></weakClassifiers></_>
    <!-- stage 1 -->
    <_>
      <maxWeakCount>1</maxWeakCount>
      <stageThreshold>5.7894736528396606e-01</stageThreshold>
      <weakClassifiers>
        <_>
          <internalNodes>
            0 -1 0 1.7572662234306335e-01</internalNodes>
          <leafValues>
            -1. 5.7894736528396606e-01</leafValues></_></weakClassifiers></_>
    <!-- stage 2 -->
    <_>
      <maxWeakCount>2</maxWeakCount>
      <stageThreshold>-2.6970094442367554e-01</stageThreshold>
      <weakClassifiers>
        <_>
          <internalNodes>
            0 -1 3 4.2095229029655457e-02</internalNodes>
          <leafValues>
            -9.2792791128158569e-01 1.</leafValues></_>
        <_>
          <internalNodes>
            0 -1 6 -2.8746191412210464e-02</internalNodes>
          <leafValues>
            6.5822696685791016e-01 -9.6346139907836914e-01</leafValues></_></weakClassifiers></_>
    <!-- stage 3 -->
    <_>
      <maxWeakCount>2</maxWeakCount>
      <stageThreshold>-1.6491504013538361e-01</stageThreshold>
      <weakClassifiers>
        <_>
          <internalNodes>
            0 -1 2 8.4683187305927277e-02</internalNodes>
          <leafValues>
            -9.2660552263259888e-01 6.9230771064758301e-01</leafValues></_>
        <_>
          <internalNodes>
            0 -1 8 -1.9471675157546997e-02</internalNodes>
          <leafValues>
            1. -8.5722273588180542e-01</leafValues></_></weakClassifiers></_>
    <!-- stage 4 -->
    <_>
      <maxWeakCount>2</maxWeakCount>
      <stageThreshold>-3.9747542142868042e-01</stageThreshold>
      <weakClassifiers>
        <_>
          <internalNodes>
            0 -1 7 8.2529168576002121e-03</internalNodes>
          <leafValues>
            -9.1071426868438721e-01 1.</leafValues></_>
        <_>
          <internalNodes>
            0 -1 5 -2.8142449446022511e-03</internalNodes>
          <leafValues>
            5.1323884725570679e-01 -9.4385826587677002e-01</leafValues></_></weakClassifiers></_>
    <!-- stage 5 -->
    <_>
      <maxWeakCount>2</maxWeakCount>
      <stageThreshold>-9.7170054912567139e-02</stageThreshold>
      <weakClassifiers>
        <_>
          <internalNodes>
            0 -1 4 -1.1553233489394188e-03</internalNodes>
          <leafValues>
            1. -8.7719297409057617e-01</leafValues></_>
        <_>
          <internalNodes>
            0 -1 1 1.1704440414905548e-01</internalNodes>
          <leafValues>
            -1. 7.8002291917800903e-01</leafValues></_></weakClassifiers></_></stages>
  <features>
    <_>
      <rects>
        <_>
          0 0 21 10 -1.</_>
        <_>
          0 5 21 5 2.</_></rects>
      <tilted>0</tilted></_>
    <_>
      <rects>
        <_>
          0 12 16 10 -1.</_>
        <_>
          8 12 8 10 2.</_></rects>
      <tilted>0</tilted></_>
    <_>
      <rects>
        <_>
          1 7 6 12 -1.</_>
        <_>
          4 7 3 12 2.</_></rects>
      <tilted>0</tilted></_>
    <_>
      <rects>
        <_>
          2 11 9 8 -1.</_>
        <_>
          5 11 3 8 3.</_></rects>
      <tilted>0</tilted></_>
    <_>
      <rects>
        <_>
          3 17 2 2 -1.</_>
        <_>
          3 17 1 1 2.</_>
        <_>
          4 18 1 1 2.</_></rects>
      <tilted>0</tilted></_>
    <_>
      <rects>
        <_>
          5 4 2 8 -1.</_>
        <_>
          5 4 1 4 2.</_>
        <_>
          6 8 1 4 2.</_></rects>
      <tilted>0</tilted></_>
    <_>
      <rects>
        <_>
          5 16 5 6 -1.</_>
        <_>
          5 19 5 3 2.</_></rects>
      <tilted>0</tilted></_>
    <_>
      <rects>
        <_>
          5 18 8 3 -1.</_>
        <_>
          5 19 8 1 3.</_></rects>
      <tilted>0</tilted></_>
    <_>
      <rects>
        <_>
          9 9 6 6 -1.</_>
        <_>
          9 11 6 2 3.</_></rects>
      <tilted>0</tilted></_>
    <_>
      <rects>
        <_>
          16 5 8 12 -1.</_>
        <_>
          20 5 4 12 2.</_></rects>
      <tilted>0</tilted></_></features></cascade>
</opencv_storage>
