<?xml version="1.0"?>
<opencv_storage>
<cascade>
  <stageType>BOOST</stageType>
  <featureType>HAAR</featureType>
  <height>24</height>
  <width>24</width>
  <stageParams>
    <boostType>GAB</boostType>
    <minHitRate>9.9500000476837158e-01</minHitRate>
    <maxFalseAlarm>5.0000000000000000e-01</maxFalseAlarm>
    <weightTrimRate>9.4999998807907104e-01</weightTrimRate>
    <maxDepth>1</maxDepth>
    <maxWeakCount>100</maxWeakCount></stageParams>
  <featureParams>
    <maxCatCount>0</maxCatCount>
    <featSize>1</featSize>
    <mode>BASIC</mode></featureParams>
  <stageNum>18</stageNum>
  <stages>
    <!-- stage 0 -->
    <_>
      <maxWeakCount>4</maxWeakCount>
      <stageThreshold>-8.6916798353195190e-01</stageThreshold>
      <weakClassifiers>
        <_>
          <internalNodes>
            0 -1 62 6.6030189394950867e-02</internalNodes>
          <leafValues>
            -6.3636362552642822e-01 8.8235294818878174e-01</leafValues></_>
        <_>
          <internalNodes>
            0 -1 98 1.9664813298732042e-03</internalNodes>
          <leafValues>
            2.8482446074485779e-01 -8.8147479295730591e-01</leafValues></_>
        <_>
          <internalNodes>
            0 -1 83 -7.3508797213435173e-03</internalNodes>
          <leafValues>
            4.0952998399734497e-01 -7.3052883148193359e-01</leafValues></_>
        <_>
          <internalNodes>
            0 -1 12 9.3885427340865135e-03</internalNodes>
          <leafValues>
            3.2304719090461731e-01 -9.2715877294540405e-01</leafValues></_></weakClassifiers></_>
    <!-- stage 1 -->
    <_>
      <maxWeakCount>5</maxWeakCount>
      <stageThreshold>-8.8134312629699707e-01</stageThreshold>
      <weakClassifiers>
        <_>
          <internalNodes>
            0 -1 66 -1.2409368529915810e-02</internalNodes>
          <leafValues>
            8.9999997615814209e-01 -6.8387097120285034e-01</leafValues></_>
        <_>
          <internalNodes>
            0 -1 42 -1.6479454934597015e-02</internalNodes>
          <leafValues>
            -1. 2.8018566966056824e-01</leafValues></_>
        <_>
          <internalNodes>
            0 -1 72 -6.0998108237981796e-03</internalNodes>
          <leafValues>
            8.7330001592636108e-01 -4.0726947784423828e-01</leafValues></_>
        <_>
          <internalNodes>
            0 -1 5 -9.1228447854518890e-03</internalNodes>
          <leafValues>
            -8.3154672384262085e-01 3.8003921508789063e-01</leafValues></_>
        <_>
          <internalNodes>
            0 -1 81 9.4195059500634670e-04</internalNodes>
          <leafValues>
            -4.5042759180068970e-01 8.1776452064514160e-01</leafValues></_></weakClassifiers></_>
    <!-- stage 2 -->
    <_>
      <maxWeakCount>5</maxWeakCount>
      <stageThreshold>-7.1212184429168701e-01</stageThreshold>
      <weakClassifiers>
        <_>
          <internalNodes>
            0 -1 61 -3.0526764690876007e-02</internalNodes>
          <leafValues>
            8.7500000000000000e-01 -6.9934642314910889e-01</leafValues></_>
        <_>
          <internalNodes>
            0 -1 52 -2.1139178425073624e-02</internalNodes>
          <leafValues>
            8.6470514535903931e-01 -4.1191962361335754e-01</leafValues></_>
        <_>
          <internalNodes>
            0 -1 74 -1.7030218616127968e-02</internalNodes>
          <leafValues>
            -9.2234092950820923e-01 3.6794766783714294e-01</leafValues></_>
        <_>
          <internalNodes>
            0 -1 33 -5.7715345174074173e-03</internalNodes>
          <leafValues>
            6.9516122341156006e-01 -4.7926756739616394e-01</leafValues></_>
        <_>
          <internalNodes>
            0 -1 76 -2.2088093683123589e-03</internalNodes>
          <leafValues>
            5.1046407222747803e-01 -5.4245752096176147e-01</leafValues></_></weakClassifiers></_>
    <!-- stage 3 -->
    <_>
      <maxWeakCount>3</maxWeakCount>
      <stageThreshold>-2.5253799557685852e-01</stageThreshold>
      <weakClassifiers>
        <_>
          <internalNodes>
            0 -1 67 -4.8665758222341537e-03</internalNodes>
          <leafValues>
            6.9491523504257202e-01 -6.3987135887145996e-01</leafValues></_>
        <_>
          <internalNodes>
            0 -1 51 1.1416586115956306e-02</internalNodes>
          <leafValues>
            2.2784042358398438e-01 -9.8591011762619019e-01</leafValues></_>
        <_>
          <internalNodes>
            0 -1 15 -6.6926861181855202e-03</internalNodes>
          <leafValues>
            -9.8520892858505249e-01 1.5949295461177826e-01</leafValues></_></weakClassifiers></_>
    <!-- stage 4 -->
    <_>
      <maxWeakCount>5</maxWeakCount>
      <stageThreshold>-7.9060518741607666e-01</stageThreshold>
      <weakClassifiers>
        <_>
          <internalNodes>
            0 -1 75 -3.7607558071613312e-02</internalNodes>
          <leafValues>
            1. -5.5752211809158325e-01</leafValues></_>
        <_>
          <internalNodes>
            0 -1 13 4.1997246444225311e-02</internalNodes>
          <leafValues>
            2.1428667008876801e-01 -1.</leafValues></_>
        <_>
          <internalNodes>
            0 -1 99 -1.1020462960004807e-02</internalNodes>
          <leafValues>
            -8.6260342597961426e-01 2.3701196908950806e-01</leafValues></_>
        <_>
          <internalNodes>
            0 -1 68 -2.6908650994300842e-02</internalNodes>
          <leafValues>
            7.2896367311477661e-01 -3.4102267026901245e-01</leafValues></_>
        <_>
          <internalNodes>
            0 -1 6 -7.0596158504486084e-02</internalNodes>
          <leafValues>
            7.6984816789627075e-01 -3.1373000144958496e-01</leafValues></_></weakClassifiers></_>
    <!-- stage 5 -->
    <_>
      <maxWeakCount>6</maxWeakCount>
      <stageThreshold>-1.0564810037612915e+00</stageThreshold>
      <weakClassifiers>
        <_>
          <internalNodes>
            0 -1 70 -1.2469379231333733e-02</internalNodes>
          <leafValues>
            6.7857140302658081e-01 -6.2420380115509033e-01</leafValues></_>
        <_>
          <internalNodes>
            0 -1 60 -2.5805072858929634e-02</internalNodes>
          <leafValues>
            7.6630234718322754e-01 -3.3272561430931091e-01</leafValues></_>
        <_>
          <internalNodes>
            0 -1 84 5.7910974137485027e-03</internalNodes>
          <leafValues>
            3.1688633561134338e-01 -7.9415005445480347e-01</leafValues></_>
        <_>
          <internalNodes>
            0 -1 3 8.5282437503337860e-03</internalNodes>
          <leafValues>
            2.7543562650680542e-01 -8.1295734643936157e-01</leafValues></_>
        <_>
          <internalNodes>
            0 -1 22 -1.2312638573348522e-02</internalNodes>
          <leafValues>
            -9.3475663661956787e-01 2.4616248905658722e-01</leafValues></_>
        <_>
          <internalNodes>
            0 -1 57 4.8584293108433485e-04</internalNodes>
          <leafValues>
            2.4288299679756165e-01 -8.6926037073135376e-01</leafValues></_></weakClassifiers></_>
    <!-- stage 6 -->
    <_>
      <maxWeakCount>4</maxWeakCount>
      <stageThreshold>-6.2441045045852661e-01</stageThreshold>
      <weakClassifiers>
        <_>
          <internalNodes>
            0 -1 71 -1.8217861652374268e-02</internalNodes>
          <leafValues>
            5.5555558204650879e-01 -5.9493672847747803e-01</leafValues></_>
        <_>
          <internalNodes>
            0 -1 77 -7.3111458914354444e-04</internalNodes>
          <leafValues>
            4.8642519116401672e-01 -4.3917417526245117e-01</leafValues></_>
        <_>
          <internalNodes>
            0 -1 45 -5.7692313566803932e-03</internalNodes>
          <leafValues>
            -1. 2.0383001863956451e-01</leafValues></_>
        <_>
          <internalNodes>
            0 -1 91 -1.6012702137231827e-02</internalNodes>
          <leafValues>
            -1. 2.0587040483951569e-01</leafValues></_></weakClassifiers></_>
    <!-- stage 7 -->
    <_>
      <maxWeakCount>4</maxWeakCount>
      <stageThreshold>-7.6071089506149292e-01</stageThreshold>
      <weakClassifiers>
        <_>
          <internalNodes>
            0 -1 54 -5.3864512592554092e-02</internalNodes>
          <leafValues>
            7.5000000000000000e-01 -5.6969696283340454e-01</leafValues></_>
        <_>
          <internalNodes>
            0 -1 100 1.2118863873183727e-02</internalNodes>
          <leafValues>
            1.4309614896774292e-01 -1.</leafValues></_>
        <_>
          <internalNodes>
            0 -1 96 8.9998040348291397e-03</internalNodes>
          <leafValues>
            1.5388685464859009e-01 -8.9158535003662109e-01</leafValues></_>
        <_>
          <internalNodes>
            0 -1 36 -1.0958710685372353e-02</internalNodes>
          <leafValues>
            5.5747532844543457e-01 -3.7078297138214111e-01</leafValues></_></weakClassifiers></_>
    <!-- stage 8 -->
    <_>
      <maxWeakCount>3</maxWeakCount>
      <stageThreshold>-4.8324021697044373e-01</stageThreshold>
      <weakClassifiers>
        <_>
          <internalNodes>
            0 -1 59 -3.0929723754525185e-02</internalNodes>
          <leafValues>
            2.4731183052062988e-01 -6.5342962741851807e-01</leafValues></_>
        <_>
          <internalNodes>
            0 -1 11 -7.9766884446144104e-03</internalNodes>
          <leafValues>
            -8.9743846654891968e-01 1.8602359294891357e-01</leafValues></_>
        <_>
          <internalNodes>
            0 -1 19 6.2375184148550034e-02</internalNodes>
          <leafValues>
            1.6688641905784607e-01 -9.1103971004486084e-01</leafValues></_></weakClassifiers></_>
    <!-- stage 9 -->
    <_>
      <maxWeakCount>7</maxWeakCount>
      <stageThreshold>-9.8480635881423950e-01</stageThreshold>
      <weakClassifiers>
        <_>
          <internalNodes>
            0 -1 30 -7.4103679507970810e-03</internalNodes>
          <leafValues>
            5.7446807622909546e-01 -5.7275539636611938e-01</leafValues></_>
        <_>
          <internalNodes>
            0 -1 101 -6.2267733737826347e-03</internalNodes>
          <leafValues>
            -8.3421140909194946e-01 1.7298400402069092e-01</leafValues></_>
        <_>
          <internalNodes>
            0 -1 85 -6.2282895669341087e-04</internalNodes>
          <leafValues>
            2.2324158251285553e-01 -7.6532828807830811e-01</leafValues></_>
        <_>
          <internalNodes>
            0 -1 14 -7.6338034123182297e-03</internalNodes>
          <leafValues>
            -8.5085409879684448e-01 1.9959037005901337e-01</leafValues></_>
        <_>
          <internalNodes>
            0 -1 39 -7.0433355867862701e-03</internalNodes>
          <leafValues>
            -9.0018206834793091e-01 2.3086149990558624e-01</leafValues></_>
        <_>
          <internalNodes>
            0 -1 47 -6.1061838641762733e-03</internalNodes>
          <leafValues>
            -8.4107756614685059e-01 1.9266074895858765e-01</leafValues></_>
        <_>
          <internalNodes>
            0 -1 69 -4.9603022634983063e-03</internalNodes>
          <leafValues>
            7.9681253433227539e-01 -3.0034559965133667e-01</leafValues></_></weakClassifiers></_>
    <!-- stage 10 -->
    <_>
      <maxWeakCount>5</maxWeakCount>
      <stageThreshold>-5.3496265411376953e-01</stageThreshold>
      <weakClassifiers>
        <_>
          <internalNodes>
            0 -1 40 -4.7204181551933289e-02</internalNodes>
          <leafValues>
            6.9696968793869019e-01 -5.3709197044372559e-01</leafValues></_>
        <_>
          <internalNodes>
            0 -1 35 -4.9203569069504738e-03</internalNodes>
          <leafValues>
            3.9645430445671082e-01 -4.3224856257438660e-01</leafValues></_>
        <_>
          <internalNodes>
            0 -1 97 2.8970134444534779e-03</internalNodes>
          <leafValues>
            2.2083769738674164e-01 -1.</leafValues></_>
        <_>
          <internalNodes>
            0 -1 87 -5.9231137856841087e-03</internalNodes>
          <leafValues>
            -8.2285141944885254e-01 1.8165111541748047e-01</leafValues></_>
        <_>
          <internalNodes>
            0 -1 20 -7.6177492737770081e-03</internalNodes>
          <leafValues>
            -7.9681378602981567e-01 2.2115549445152283e-01</leafValues></_></weakClassifiers></_>
    <!-- stage 11 -->
    <_>
      <maxWeakCount>7</maxWeakCount>
      <stageThreshold>-7.7715694904327393e-01</stageThreshold>
      <weakClassifiers>
        <_>
          <internalNodes>
            0 -1 38 -4.3802730739116669e-02</internalNodes>
          <leafValues>
            6.1904764175415039e-01 -5.6097561120986938e-01</leafValues></_>
        <_>
          <internalNodes>
            0 -1 78 -2.0430348813533783e-03</internalNodes>
          <leafValues>
            5.4190635681152344e-01 -3.4247523546218872e-01</leafValues></_>
        <_>
          <internalNodes>
            0 -1 73 9.1620571911334991e-03</internalNodes>
          <leafValues>
            1.9444307684898376e-01 -7.9317110776901245e-01</leafValues></_>
        <_>
          <internalNodes>
            0 -1 8 -6.3533079810440540e-03</internalNodes>
          <leafValues>
            -1. 1.2471539527177811e-01</leafValues></_>
        <_>
          <internalNodes>
            0 -1 89 6.1293516773730516e-04</internalNodes>
          <leafValues>
            -5.4511243104934692e-01 2.7625760436058044e-01</leafValues></_>
        <_>
          <internalNodes>
            0 -1 55 6.5403491258621216e-02</internalNodes>
          <leafValues>
            -2.2632355988025665e-01 7.9352670907974243e-01</leafValues></_>
        <_>
          <internalNodes>
            0 -1 79 -1.0268341749906540e-02</internalNodes>
          <leafValues>
            6.1064696311950684e-01 -2.4279865622520447e-01</leafValues></_></weakClassifiers></_>
    <!-- stage 12 -->
    <_>
      <maxWeakCount>7</maxWeakCount>
      <stageThreshold>-1.2142586708068848e+00</stageThreshold>
      <weakClassifiers>
        <_>
          <internalNodes>
            0 -1 48 -5.1290363073348999e-02</internalNodes>
          <leafValues>
            6.9230771064758301e-01 -5.5891239643096924e-01</leafValues></_>
        <_>
          <internalNodes>
            0 -1 1 -9.7489468753337860e-03</internalNodes>
          <leafValues>
            -6.9280290603637695e-01 2.1785362064838409e-01</leafValues></_>
        <_>
          <internalNodes>
            0 -1 43 -4.5034408569335938e-02</internalNodes>
          <leafValues>
            7.8933018445968628e-01 -2.3792579770088196e-01</leafValues></_>
        <_>
          <internalNodes>
            0 -1 50 -2.1156616508960724e-02</internalNodes>
          <leafValues>
            4.3662753701210022e-01 -4.0115872025489807e-01</leafValues></_>
        <_>
          <internalNodes>
            0 -1 26 1.6822766046971083e-03</internalNodes>
          <leafValues>
            -2.4940262734889984e-01 5.8554667234420776e-01</leafValues></_>
        <_>
          <internalNodes>
            0 -1 0 5.8187693357467651e-03</internalNodes>
          <leafValues>
            2.2492910921573639e-01 -9.6281725168228149e-01</leafValues></_>
        <_>
          <internalNodes>
            0 -1 86 1.1794455349445343e-03</internalNodes>
          <leafValues>
            -3.2624137401580811e-01 5.5176299810409546e-01</leafValues></_></weakClassifiers></_>
    <!-- stage 13 -->
    <_>
      <maxWeakCount>8</maxWeakCount>
      <stageThreshold>-7.1579813957214355e-01</stageThreshold>
      <weakClassifiers>
        <_>
          <internalNodes>
            0 -1 32 -1.4877566136419773e-02</internalNodes>
          <leafValues>
            2.9629629850387573e-01 -5.5063289403915405e-01</leafValues></_>
        <_>
          <internalNodes>
            0 -1 24 -5.2103465422987938e-03</internalNodes>
          <leafValues>
            -6.7708033323287964e-01 1.7623412609100342e-01</leafValues></_>
        <_>
          <internalNodes>
            0 -1 41 -1.0320886969566345e-02</internalNodes>
          <leafValues>
            -9.6958190202713013e-01 1.2374073266983032e-01</leafValues></_>
        <_>
          <internalNodes>
            0 -1 82 5.8594541624188423e-03</internalNodes>
          <leafValues>
            -4.1265219449996948e-01 4.3560734391212463e-01</leafValues></_>
        <_>
          <internalNodes>
            0 -1 37 7.2775813750922680e-03</internalNodes>
          <leafValues>
            -1.7491121590137482e-01 8.6057972908020020e-01</leafValues></_>
        <_>
          <internalNodes>
            0 -1 46 -1.5702994540333748e-02</internalNodes>
          <leafValues>
            -9.4700020551681519e-01 1.7398560047149658e-01</leafValues></_>
        <_>
          <internalNodes>
            0 -1 58 -1.7899993690662086e-04</internalNodes>
          <leafValues>
            3.2234901189804077e-01 -6.2051016092300415e-01</leafValues></_>
        <_>
          <internalNodes>
            0 -1 80 -8.1503558903932571e-03</internalNodes>
          <leafValues>
            8.2012498378753662e-01 -2.7931165695190430e-01</leafValues></_></weakClassifiers></_>
    <!-- stage 14 -->
    <_>
      <maxWeakCount>8</maxWeakCount>
      <stageThreshold>-9.4300979375839233e-01</stageThreshold>
      <weakClassifiers>
        <_>
          <internalNodes>
            0 -1 53 -1.2729627080261707e-02</internalNodes>
          <leafValues>
            6.1290323734283447e-01 -5.2212387323379517e-01</leafValues></_>
        <_>
          <internalNodes>
            0 -1 29 2.8081314638257027e-02</internalNodes>
          <leafValues>
            8.9459560811519623e-02 -8.2947117090225220e-01</leafValues></_>
        <_>
          <internalNodes>
            0 -1 56 -4.3697436922229826e-04</internalNodes>
          <leafValues>
            3.5722821950912476e-01 -3.8274437189102173e-01</leafValues></_>
        <_>
          <internalNodes>
            0 -1 65 -2.7808123268187046e-03</internalNodes>
          <leafValues>
            -6.1972379684448242e-01 2.4243442714214325e-01</leafValues></_>
        <_>
          <internalNodes>
            0 -1 95 2.9410100542008877e-03</internalNodes>
          <leafValues>
            1.8516403436660767e-01 -7.4149751663208008e-01</leafValues></_>
        <_>
          <internalNodes>
            0 -1 94 1.9601421081461012e-04</internalNodes>
          <leafValues>
            -3.5891321301460266e-01 4.0279528498649597e-01</leafValues></_>
        <_>
          <internalNodes>
            0 -1 17 8.1660808064043522e-04</internalNodes>
          <leafValues>
            -3.5627388954162598e-01 4.0305760502815247e-01</leafValues></_>
        <_>
          <internalNodes>
            0 -1 77 -5.1163753960281610e-04</internalNodes>
          <leafValues>
            3.4964114427566528e-01 -4.1265496611595154e-01</leafValues></_></weakClassifiers></_>
    <!-- stage 15 -->
    <_>
      <maxWeakCount>7</maxWeakCount>
      <stageThreshold>-9.3313574790954590e-01</stageThreshold>
      <weakClassifiers>
        <_>
          <internalNodes>
            0 -1 31 -2.5780975818634033e-01</internalNodes>
          <leafValues>
            3.1914892792701721e-01 -5.3560370206832886e-01</leafValues></_>
        <_>
          <internalNodes>
            0 -1 23 1.8593735992908478e-02</internalNodes>
          <leafValues>
            1.1471685767173767e-01 -8.4918975830078125e-01</leafValues></_>
        <_>
          <internalNodes>
            0 -1 2 4.8006966244429350e-04</internalNodes>
          <leafValues>
            -4.3667113780975342e-01 3.0069619417190552e-01</leafValues></_>
        <_>
          <internalNodes>
            0 -1 25 1.8078370019793510e-02</internalNodes>
          <leafValues>
            1.4679943025112152e-01 -9.3457984924316406e-01</leafValues></_>
        <_>
          <internalNodes>
            0 -1 9 -4.8257750459015369e-03</internalNodes>
          <leafValues>
            -9.7323018312454224e-01 1.2486253678798676e-01</leafValues></_>
        <_>
          <internalNodes>
            0 -1 63 -1.0220438241958618e-02</internalNodes>
          <leafValues>
            5.5458486080169678e-01 -2.7371010184288025e-01</leafValues></_>
        <_>
          <internalNodes>
            0 -1 21 1.1167254706379026e-04</internalNodes>
          <leafValues>
            -5.5781263113021851e-01 2.6146271824836731e-01</leafValues></_></weakClassifiers></_>
    <!-- stage 16 -->
    <_>
      <maxWeakCount>7</maxWeakCount>
      <stageThreshold>-1.0856060981750488e+00</stageThreshold>
      <weakClassifiers>
        <_>
          <internalNodes>
            0 -1 18 -1.9360631704330444e-02</internalNodes>
          <leafValues>
            3.4615385532379150e-01 -5.5345910787582397e-01</leafValues></_>
        <_>
          <internalNodes>
            0 -1 4 1.7532393336296082e-02</internalNodes>
          <leafValues>
            1.3143575191497803e-01 -9.4831115007400513e-01</leafValues></_>
        <_>
          <internalNodes>
            0 -1 88 1.2076701968908310e-02</internalNodes>
          <leafValues>
            1.1174284666776657e-01 -9.0925985574722290e-01</leafValues></_>
        <_>
          <internalNodes>
            0 -1 64 5.8095497079193592e-03</internalNodes>
          <leafValues>
            1.5291780233383179e-01 -7.9937833547592163e-01</leafValues></_>
        <_>
          <internalNodes>
            0 -1 28 -3.6145634949207306e-02</internalNodes>
          <leafValues>
            -9.0278154611587524e-01 1.2934905290603638e-01</leafValues></_>
        <_>
          <internalNodes>
            0 -1 93 -1.4082177949603647e-04</internalNodes>
          <leafValues>
            4.0405568480491638e-01 -3.3705303072929382e-01</leafValues></_>
        <_>
          <internalNodes>
            0 -1 10 -2.2106380201876163e-03</internalNodes>
          <leafValues>
            3.0046337842941284e-01 -5.1521277427673340e-01</leafValues></_></weakClassifiers></_>
    <!-- stage 17 -->
    <_>
      <maxWeakCount>8</maxWeakCount>
      <stageThreshold>-1.1581563949584961e+00</stageThreshold>
      <weakClassifiers>
        <_>
          <internalNodes>
            0 -1 49 -7.4102003127336502e-03</internalNodes>
          <leafValues>
            4.7999998927116394e-01 -5.6875002384185791e-01</leafValues></_>
        <_>
          <internalNodes>
            0 -1 92 -1.3156683184206486e-02</internalNodes>
          <leafValues>
            -7.8950214385986328e-01 1.4708779752254486e-01</leafValues></_>
        <_>
          <internalNodes>
            0 -1 90 1.5179767506197095e-03</internalNodes>
          <leafValues>
            -3.1144964694976807e-01 6.0932910442352295e-01</leafValues></_>
        <_>
          <internalNodes>
            0 -1 7 4.8498790711164474e-03</internalNodes>
          <leafValues>
            1.9056718051433563e-01 -9.2124414443969727e-01</leafValues></_>
        <_>
          <internalNodes>
            0 -1 27 1.3462362810969353e-02</internalNodes>
          <leafValues>
            -2.5561636686325073e-01 6.6038054227828979e-01</leafValues></_>
        <_>
          <internalNodes>
            0 -1 34 -1.1892162729054689e-03</internalNodes>
          <leafValues>
            5.5741566419601440e-01 -3.3778563141822815e-01</leafValues></_>
        <_>
          <internalNodes>
            0 -1 44 -5.6187089532613754e-02</internalNodes>
          <leafValues>
            7.1701931953430176e-01 -2.4673905968666077e-01</leafValues></_>
        <_>
          <internalNodes>
            0 -1 16 3.6770291626453400e-03</internalNodes>
          <leafValues>
            2.2452932596206665e-01 -9.1162949800491333e-01</leafValues></_></weakClassifiers></_></stages>
  <features>
    <_>
      <rects>
        <_>
          0 0 2 6 -1.</_>
        <_>
          0 3 2 3 2.</_></rects>
      <tilted>0</tilted></_>
    <_>
      <rects>
        <_>
          0 0 2 21 -1.</_>
        <_>
          0 7 2 7 3.</_></rects>
      <tilted>0</tilted></_>
    <_>
      <rects>
        <_>
          0 0 8 3 -1.</_>
        <_>
          4 0 4 3 2.</_></rects>
      <tilted>0</tilted></_>
    <_>
      <rects>
        <_>
          0 2 4 8 -1.</_>
        <_>
          0 6 4 4 2.</_></rects>
      <tilted>0</tilted></_>
    <_>
      <rects>
        <_>
          0 3 4 21 -1.</_>
        <_>
          2 3 2 21 2.</_></rects>
      <tilted>0</tilted></_>
    <_>
      <rects>
        <_>
          0 4 21 2 -1.</_>
        <_>
          7 4 7 2 3.</_></rects>
      <tilted>0</tilted></_>
    <_>
      <rects>
        <_>
          0 5 21 9 -1.</_>
        <_>
          7 5 7 9 3.</_></rects>
      <tilted>0</tilted></_>
    <_>
      <rects>
        <_>
          0 7 2 6 -1.</_>
        <_>
          0 9 2 2 3.</_></rects>
      <tilted>0</tilted></_>
    <_>
      <rects>
        <_>
          0 9 1 15 -1.</_>
        <_>
          0 14 1 5 3.</_></rects>
      <tilted>0</tilted></_>
    <_>
      <rects>
        <_>
          0 14 1 9 -1.</_>
        <_>
          0 17 1 3 3.</_></rects>
      <tilted>0</tilted></_>
    <_>
      <rects>
        <_>
          0 20 13 4 -1.</_>
        <_>
          0 22 13 2 2.</_></rects>
      <tilted>0</tilted></_>
    <_>
      <rects>
        <_>
          0 21 18 2 -1.</_>
        <_>
          6 21 6 2 3.</_></rects>
      <tilted>0</tilted></_>
    <_>
      <rects>
        <_>
          1 0 6 8 -1.</_>
        <_>
          1 0 3 4 2.</_>
        <_>
          4 4 3 4 2.</_></rects>
      <tilted>0</tilted></_>
    <_>
      <rects>
        <_>
          1 0 21 4 -1.</_>
        <_>
          8 0 7 4 3.</_></rects>
      <tilted>0</tilted></_>
    <_>
      <rects>
        <_>
          1 1 18 3 -1.</_>
        <_>
          7 1 6 3 3.</_></rects>
      <tilted>0</tilted></_>
    <_>
      <rects>
        <_>
          1 1 21 1 -1.</_>
        <_>
          8 1 7 1 3.</_></rects>
      <tilted>0</tilted></_>
    <_>
      <rects>
        <_>
          1 3 1 8 -1.</_>
        <_>
          1 7 1 4 2.</_></rects>
      <tilted>0</tilted></_>
    <_>
      <rects>
        <_>
          1 3 7 3 -1.</_>
        <_>
          1 4 7 1 3.</_></rects>
      <tilted>0</tilted></_>
    <_>
      <rects>
        <_>
          1 7 15 3 -1.</_>
        <_>
          1 8 15 1 3.</_></rects>
      <tilted>0</tilted></_>
    <_>
      <rects>
        <_>
          1 15 21 9 -1.</_>
        <_>
          8 15 7 9 3.</_></rects>
      <tilted>0</tilted></_>
    <_>
      <rects>
        <_>
          1 17 21 6 -1.</_>
        <_>
          8 17 7 6 3.</_></rects>
      <tilted>0</tilted></_>
    <_>
      <rects>
        <_>
          2 1 21 4 -1.</_>
        <_>
          9 1 7 4 3.</_></rects>
      <tilted>0</tilted></_>
    <_>
      <rects>
        <_>
          2 19 16 4 -1.</_>
        <_>
          2 19 8 2 2.</_>
        <_>
          10 21 8 2 2.</_></rects>
      <tilted>0</tilted></_>
    <_>
      <rects>
        <_>
          3 0 4 21 -1.</_>
        <_>
          5 0 2 21 2.</_></rects>
      <tilted>0</tilted></_>
    <_>
      <rects>
        <_>
          3 0 13 6 -1.</_>
        <_>
          3 2 13 2 3.</_></rects>
      <tilted>0</tilted></_>
    <_>
      <rects>
        <_>
          3 1 10 6 -1.</_>
        <_>
          3 1 5 3 2.</_>
        <_>
          8 4 5 3 2.</_></rects>
      <tilted>0</tilted></_>
    <_>
      <rects>
        <_>
          3 13 4 2 -1.</_>
        <_>
          3 13 2 1 2.</_>
        <_>
          5 14 2 1 2.</_></rects>
      <tilted>0</tilted></_>
    <_>
      <rects>
        <_>
          4 9 6 10 -1.</_>
        <_>
          4 9 3 5 2.</_>
        <_>
          7 14 3 5 2.</_></rects>
      <tilted>0</tilted></_>
    <_>
      <rects>
        <_>
          5 0 12 10 -1.</_>
        <_>
          5 0 6 5 2.</_>
        <_>
          11 5 6 5 2.</_></rects>
      <tilted>0</tilted></_>
    <_>
      <rects>
        <_>
          5 2 15 7 -1.</_>
        <_>
          10 2 5 7 3.</_></rects>
      <tilted>0</tilted></_>
    <_>
      <rects>
        <_>
          5 10 6 3 -1.</_>
        <_>
          5 11 6 1 3.</_></rects>
      <tilted>0</tilted></_>
    <_>
      <rects>
        <_>
          6 0 18 24 -1.</_>
        <_>
          15 0 9 24 2.</_></rects>
      <tilted>0</tilted></_>
    <_>
      <rects>
        <_>
          6 4 3 12 -1.</_>
        <_>
          7 4 1 12 3.</_></rects>
      <tilted>0</tilted></_>
    <_>
      <rects>
        <_>
          6 5 3 14 -1.</_>
        <_>
          7 5 1 14 3.</_></rects>
      <tilted>0</tilted></_>
    <_>
      <rects>
        <_>
          6 8 3 2 -1.</_>
        <_>
          7 8 1 2 3.</_></rects>
      <tilted>0</tilted></_>
    <_>
      <rects>
        <_>
          6 8 3 6 -1.</_>
        <_>
          6 10 3 2 3.</_></rects>
      <tilted>0</tilted></_>
    <_>
      <rects>
        <_>
          6 8 3 9 -1.</_>
        <_>
          6 11 3 3 3.</_></rects>
      <tilted>0</tilted></_>
    <_>
      <rects>
        <_>
          6 10 4 4 -1.</_>
        <_>
          6 10 2 2 2.</_>
        <_>
          8 12 2 2 2.</_></rects>
      <tilted>0</tilted></_>
    <_>
      <rects>
        <_>
          6 10 11 6 -1.</_>
        <_>
          6 12 11 2 3.</_></rects>
      <tilted>0</tilted></_>
    <_>
      <rects>
        <_>
          6 11 1 10 -1.</_>
        <_>
          6 16 1 5 2.</_></rects>
      <tilted>0</tilted></_>
    <_>
      <rects>
        <_>
          6 11 7 6 -1.</_>
        <_>
          6 13 7 2 3.</_></rects>
      <tilted>0</tilted></_>
    <_>
      <rects>
        <_>
          6 17 5 6 -1.</_>
        <_>
          6 19 5 2 3.</_></rects>
      <tilted>0</tilted></_>
    <_>
      <rects>
        <_>
          6 18 12 6 -1.</_>
        <_>
          10 18 4 6 3.</_></rects>
      <tilted>0</tilted></_>
    <_>
      <rects>
        <_>
          7 8 9 9 -1.</_>
        <_>
          7 11 9 3 3.</_></rects>
      <tilted>0</tilted></_>
    <_>
      <rects>
        <_>
          7 10 15 4 -1.</_>
        <_>
          12 10 5 4 3.</_></rects>
      <tilted>0</tilted></_>
    <_>
      <rects>
        <_>
          7 20 15 1 -1.</_>
        <_>
          12 20 5 1 3.</_></rects>
      <tilted>0</tilted></_>
    <_>
      <rects>
        <_>
          7 20 10 4 -1.</_>
        <_>
          7 22 10 2 2.</_></rects>
      <tilted>0</tilted></_>
    <_>
      <rects>
        <_>
          8 2 12 3 -1.</_>
        <_>
          12 2 4 3 3.</_></rects>
      <tilted>0</tilted></_>
    <_>
      <rects>
        <_>
          8 5 6 6 -1.</_>
        <_>
          8 7 6 2 3.</_></rects>
      <tilted>0</tilted></_>
    <_>
      <rects>
        <_>
          8 7 14 2 -1.</_>
        <_>
          8 7 7 1 2.</_>
        <_>
          15 8 7 1 2.</_></rects>
      <tilted>0</tilted></_>
    <_>
      <rects>
        <_>
          8 11 6 9 -1.</_>
        <_>
          8 14 6 3 3.</_></rects>
      <tilted>0</tilted></_>
    <_>
      <rects>
        <_>
          8 20 9 4 -1.</_>
        <_>
          11 20 3 4 3.</_></rects>
      <tilted>0</tilted></_>
    <_>
      <rects>
        <_>
          9 6 5 6 -1.</_>
        <_>
          9 8 5 2 3.</_></rects>
      <tilted>0</tilted></_>
    <_>
      <rects>
        <_>
          9 8 1 9 -1.</_>
        <_>
          9 11 1 3 3.</_></rects>
      <tilted>0</tilted></_>
    <_>
      <rects>
        <_>
          9 9 8 3 -1.</_>
        <_>
          13 9 4 3 2.</_></rects>
      <tilted>0</tilted></_>
    <_>
      <rects>
        <_>
          9 9 6 6 -1.</_>
        <_>
          9 11 6 2 3.</_></rects>
      <tilted>0</tilted></_>
    <_>
      <rects>
        <_>
          9 17 3 6 -1.</_>
        <_>
          9 20 3 3 2.</_></rects>
      <tilted>0</tilted></_>
    <_>
      <rects>
        <_>
          9 20 4 4 -1.</_>
        <_>
          9 22 4 2 2.</_></rects>
      <tilted>0</tilted></_>
    <_>
      <rects>
        <_>
          9 20 5 4 -1.</_>
        <_>
          9 22 5 2 2.</_></rects>
      <tilted>0</tilted></_>
    <_>
      <rects>
        <_>
          10 2 3 12 -1.</_>
        <_>
          10 6 3 4 3.</_></rects>
      <tilted>0</tilted></_>
    <_>
      <rects>
        <_>
          10 6 3 6 -1.</_>
        <_>
          10 8 3 2 3.</_></rects>
      <tilted>0</tilted></_>
    <_>
      <rects>
        <_>
          10 6 8 6 -1.</_>
        <_>
          10 6 4 3 2.</_>
        <_>
          14 9 4 3 2.</_></rects>
      <tilted>0</tilted></_>
    <_>
      <rects>
        <_>
          10 7 4 9 -1.</_>
        <_>
          10 10 4 3 3.</_></rects>
      <tilted>0</tilted></_>
    <_>
      <rects>
        <_>
          10 7 5 3 -1.</_>
        <_>
          10 8 5 1 3.</_></rects>
      <tilted>0</tilted></_>
    <_>
      <rects>
        <_>
          10 17 6 6 -1.</_>
        <_>
          10 17 3 3 2.</_>
        <_>
          13 20 3 3 2.</_></rects>
      <tilted>0</tilted></_>
    <_>
      <rects>
        <_>
          11 0 3 6 -1.</_>
        <_>
          11 3 3 3 2.</_></rects>
      <tilted>0</tilted></_>
    <_>
      <rects>
        <_>
          11 5 2 6 -1.</_>
        <_>
          11 7 2 2 3.</_></rects>
      <tilted>0</tilted></_>
    <_>
      <rects>
        <_>
          11 7 2 3 -1.</_>
        <_>
          11 8 2 1 3.</_></rects>
      <tilted>0</tilted></_>
    <_>
      <rects>
        <_>
          11 8 6 6 -1.</_>
        <_>
          13 8 2 6 3.</_></rects>
      <tilted>0</tilted></_>
    <_>
      <rects>
        <_>
          11 10 4 2 -1.</_>
        <_>
          11 10 2 1 2.</_>
        <_>
          13 11 2 1 2.</_></rects>
      <tilted>0</tilted></_>
    <_>
      <rects>
        <_>
          11 10 6 1 -1.</_>
        <_>
          14 10 3 1 2.</_></rects>
      <tilted>0</tilted></_>
    <_>
      <rects>
        <_>
          11 11 9 1 -1.</_>
        <_>
          14 11 3 1 3.</_></rects>
      <tilted>0</tilted></_>
    <_>
      <rects>
        <_>
          11 12 1 6 -1.</_>
        <_>
          11 14 1 2 3.</_></rects>
      <tilted>0</tilted></_>
    <_>
      <rects>
        <_>
          12 0 12 2 -1.</_>
        <_>
          16 0 4 2 3.</_></rects>
      <tilted>0</tilted></_>
    <_>
      <rects>
        <_>
          12 1 12 5 -1.</_>
        <_>
          16 1 4 5 3.</_></rects>
      <tilted>0</tilted></_>
    <_>
      <rects>
        <_>
          12 8 4 5 -1.</_>
        <_>
          14 8 2 5 2.</_></rects>
      <tilted>0</tilted></_>
    <_>
      <rects>
        <_>
          12 11 6 1 -1.</_>
        <_>
          14 11 2 1 3.</_></rects>
      <tilted>0</tilted></_>
    <_>
      <rects>
        <_>
          12 13 3 1 -1.</_>
        <_>
          13 13 1 1 3.</_></rects>
      <tilted>0</tilted></_>
    <_>
      <rects>
        <_>
          12 13 1 3 -1.</_>
        <_>
          12 14 1 1 3.</_></rects>
      <tilted>0</tilted></_>
    <_>
      <rects>
        <_>
          13 0 1 14 -1.</_>
        <_>
          13 7 1 7 2.</_></rects>
      <tilted>0</tilted></_>
    <_>
      <rects>
        <_>
          13 8 4 3 -1.</_>
        <_>
          13 9 4 1 3.</_></rects>
      <tilted>0</tilted></_>
    <_>
      <rects>
        <_>
          13 11 2 2 -1.</_>
        <_>
          13 11 1 1 2.</_>
        <_>
          14 12 1 1 2.</_></rects>
      <tilted>0</tilted></_>
    <_>
      <rects>
        <_>
          13 12 8 9 -1.</_>
        <_>
          13 15 8 3 3.</_></rects>
      <tilted>0</tilted></_>
    <_>
      <rects>
        <_>
          14 0 2 24 -1.</_>
        <_>
          14 8 2 8 3.</_></rects>
      <tilted>0</tilted></_>
    <_>
      <rects>
        <_>
          14 11 10 8 -1.</_>
        <_>
          14 11 5 4 2.</_>
        <_>
          19 15 5 4 2.</_></rects>
      <tilted>0</tilted></_>
    <_>
      <rects>
        <_>
          15 1 1 21 -1.</_>
        <_>
          15 8 1 7 3.</_></rects>
      <tilted>0</tilted></_>
    <_>
      <rects>
        <_>
          15 7 1 3 -1.</_>
        <_>
          15 8 1 1 3.</_></rects>
      <tilted>0</tilted></_>
    <_>
      <rects>
        <_>
          15 7 9 10 -1.</_>
        <_>
          18 7 3 10 3.</_></rects>
      <tilted>0</tilted></_>
    <_>
      <rects>
        <_>
          15 8 8 16 -1.</_>
        <_>
          15 8 4 8 2.</_>
        <_>
          19 16 4 8 2.</_></rects>
      <tilted>0</tilted></_>
    <_>
      <rects>
        <_>
          15 9 4 3 -1.</_>
        <_>
          17 9 2 3 2.</_></rects>
      <tilted>0</tilted></_>
    <_>
      <rects>
        <_>
          15 11 2 3 -1.</_>
        <_>
          15 12 2 1 3.</_></rects>
      <tilted>0</tilted></_>
    <_>
      <rects>
        <_>
          15 19 9 5 -1.</_>
        <_>
          18 19 3 5 3.</_></rects>
      <tilted>0</tilted></_>
    <_>
      <rects>
        <_>
          16 8 8 5 -1.</_>
        <_>
          20 8 4 5 2.</_></rects>
      <tilted>0</tilted></_>
    <_>
      <rects>
        <_>
          17 1 2 1 -1.</_>
        <_>
          18 1 1 1 2.</_></rects>
      <tilted>0</tilted></_>
    <_>
      <rects>
        <_>
          19 20 1 3 -1.</_>
        <_>
          19 21 1 1 3.</_></rects>
      <tilted>0</tilted></_>
    <_>
      <rects>
        <_>
          20 0 4 3 -1.</_>
        <_>
          22 0 2 3 2.</_></rects>
      <tilted>0</tilted></_>
    <_>
      <rects>
        <_>
          20 0 4 6 -1.</_>
        <_>
          20 3 4 3 2.</_></rects>
      <tilted>0</tilted></_>
    <_>
      <rects>
        <_>
          20 20 2 4 -1.</_>
        <_>
          20 22 2 2 2.</_></rects>
      <tilted>0</tilted></_>
    <_>
      <rects>
        <_>
          21 11 1 12 -1.</_>
        <_>
          21 17 1 6 2.</_></rects>
      <tilted>0</tilted></_>
    <_>
      <rects>
        <_>
          21 12 3 12 -1.</_>
        <_>
          21 16 3 4 3.</_></rects>
      <tilted>0</tilted></_>
    <_>
      <rects>
        <_>
          22 3 2 10 -1.</_>
        <_>
          22 8 2 5 2.</_></rects>
      <tilted>0</tilted></_>
    <_>
      <rects>
        <_>
          23 0 1 21 -1.</_>
        <_>
          23 7 1 7 3.</_></rects>
      <tilted>0</tilted></_></features></cascade>
</opencv_storage>
