<?xml version="1.0"?>
<opencv_storage>
<cascade>
  <stageType>BOOST</stageType>
  <featureType>HAAR</featureType>
  <height>24</height>
  <width>24</width>
  <stageParams>
    <boostType>GAB</boostType>
    <minHitRate>9.9500000476837158e-01</minHitRate>
    <maxFalseAlarm>5.0000000000000000e-01</maxFalseAlarm>
    <weightTrimRate>9.4999998807907104e-01</weightTrimRate>
    <maxDepth>1</maxDepth>
    <maxWeakCount>100</maxWeakCount></stageParams>
  <featureParams>
    <maxCatCount>0</maxCatCount>
    <featSize>1</featSize>
    <mode>BASIC</mode></featureParams>
  <stageNum>20</stageNum>
  <stages>
    <!-- stage 0 -->
    <_>
      <maxWeakCount>3</maxWeakCount>
      <stageThreshold>-8.7856751680374146e-01</stageThreshold>
      <weakClassifiers>
        <_>
          <internalNodes>
            0 -1 46 -1.1422458291053772e-01</internalNodes>
          <leafValues>
            9.6240603923797607e-01 -8.3703702688217163e-01</leafValues></_>
        <_>
          <internalNodes>
            0 -1 34 -5.6681945919990540e-02</internalNodes>
          <leafValues>
            8.9012902975082397e-01 -6.4462518692016602e-01</leafValues></_>
        <_>
          <internalNodes>
            0 -1 73 6.3946540467441082e-04</internalNodes>
          <leafValues>
            6.0309469699859619e-01 -9.6919506788253784e-01</leafValues></_></weakClassifiers></_>
    <!-- stage 1 -->
    <_>
      <maxWeakCount>3</maxWeakCount>
      <stageThreshold>-9.1359311342239380e-01</stageThreshold>
      <weakClassifiers>
        <_>
          <internalNodes>
            0 -1 5 1.6524985432624817e-01</internalNodes>
          <leafValues>
            -8.3206105232238770e-01 9.3333333730697632e-01</leafValues></_>
        <_>
          <internalNodes>
            0 -1 31 6.3079923391342163e-02</internalNodes>
          <leafValues>
            -6.2095493078231812e-01 8.3248937129974365e-01</leafValues></_>
        <_>
          <internalNodes>
            0 -1 14 -2.5731665082275867e-03</internalNodes>
          <leafValues>
            -9.9039995670318604e-01 5.3942292928695679e-01</leafValues></_></weakClassifiers></_>
    <!-- stage 2 -->
    <_>
      <maxWeakCount>3</maxWeakCount>
      <stageThreshold>-6.2737697362899780e-01</stageThreshold>
      <weakClassifiers>
        <_>
          <internalNodes>
            0 -1 7 2.2318625450134277e-01</internalNodes>
          <leafValues>
            -7.5572520494461060e-01 8.9629632234573364e-01</leafValues></_>
        <_>
          <internalNodes>
            0 -1 33 2.4868007004261017e-01</internalNodes>
          <leafValues>
            -5.1586127281188965e-01 9.6669173240661621e-01</leafValues></_>
        <_>
          <internalNodes>
            0 -1 61 -1.6258750110864639e-03</internalNodes>
          <leafValues>
            -9.3309676647186279e-01 6.4420950412750244e-01</leafValues></_></weakClassifiers></_>
    <!-- stage 3 -->
    <_>
      <maxWeakCount>2</maxWeakCount>
      <stageThreshold>-2.5197602808475494e-02</stageThreshold>
      <weakClassifiers>
        <_>
          <internalNodes>
            0 -1 8 2.3591119050979614e-01</internalNodes>
          <leafValues>
            -5.6756758689880371e-01 8.9723318815231323e-01</leafValues></_>
        <_>
          <internalNodes>
            0 -1 22 -7.0663182996213436e-03</internalNodes>
          <leafValues>
            -9.2243081331253052e-01 6.0795831680297852e-01</leafValues></_></weakClassifiers></_>
    <!-- stage 4 -->
    <_>
      <maxWeakCount>4</maxWeakCount>
      <stageThreshold>-5.1857233047485352e-01</stageThreshold>
      <weakClassifiers>
        <_>
          <internalNodes>
            0 -1 67 -1.4248168095946312e-02</internalNodes>
          <leafValues>
            -9.0804594755172729e-01 7.0700639486312866e-01</leafValues></_>
        <_>
          <internalNodes>
            0 -1 36 2.8388929367065430e-01</internalNodes>
          <leafValues>
            -5.2448642253875732e-01 8.5683757066726685e-01</leafValues></_>
        <_>
          <internalNodes>
            0 -1 27 -4.0347343310713768e-03</internalNodes>
          <leafValues>
            -9.7599875926971436e-01 4.7806584835052490e-01</leafValues></_>
        <_>
          <internalNodes>
            0 -1 19 -1.6639517853036523e-03</internalNodes>
          <leafValues>
            -9.0710824728012085e-01 4.3589419126510620e-01</leafValues></_></weakClassifiers></_>
    <!-- stage 5 -->
    <_>
      <maxWeakCount>3</maxWeakCount>
      <stageThreshold>2.4960923194885254e-01</stageThreshold>
      <weakClassifiers>
        <_>
          <internalNodes>
            0 -1 32 8.1061571836471558e-02</internalNodes>
          <leafValues>
            -5.5371898412704468e-01 7.5000000000000000e-01</leafValues></_>
        <_>
          <internalNodes>
            0 -1 62 2.7984180487692356e-03</internalNodes>
          <leafValues>
            5.0076270103454590e-01 -8.8579308986663818e-01</leafValues></_>
        <_>
          <internalNodes>
            0 -1 0 -3.1517944298684597e-03</internalNodes>
          <leafValues>
            -1. 3.8540232181549072e-01</leafValues></_></weakClassifiers></_>
    <!-- stage 6 -->
    <_>
      <maxWeakCount>1</maxWeakCount>
      <stageThreshold>6.8847352266311646e-01</stageThreshold>
      <weakClassifiers>
        <_>
          <internalNodes>
            0 -1 35 -4.2113419622182846e-03</internalNodes>
          <leafValues>
            -9.7500002384185791e-01 6.8847352266311646e-01</leafValues></_></weakClassifiers></_>
    <!-- stage 7 -->
    <_>
      <maxWeakCount>4</maxWeakCount>
      <stageThreshold>-1.6990366578102112e-01</stageThreshold>
      <weakClassifiers>
        <_>
          <internalNodes>
            0 -1 11 -4.0686924010515213e-02</internalNodes>
          <leafValues>
            7.5609755516052246e-01 -6.4912283420562744e-01</leafValues></_>
        <_>
          <internalNodes>
            0 -1 20 -2.8765702154487371e-03</internalNodes>
          <leafValues>
            -9.7348535060882568e-01 4.8645633459091187e-01</leafValues></_>
        <_>
          <internalNodes>
            0 -1 55 2.7765139937400818e-02</internalNodes>
          <leafValues>
            -3.7854674458503723e-01 9.3897688388824463e-01</leafValues></_>
        <_>
          <internalNodes>
            0 -1 29 1.1076040100306273e-03</internalNodes>
          <leafValues>
            3.7130954861640930e-01 -9.3359953165054321e-01</leafValues></_></weakClassifiers></_>
    <!-- stage 8 -->
    <_>
      <maxWeakCount>3</maxWeakCount>
      <stageThreshold>1.4432454109191895e-01</stageThreshold>
      <weakClassifiers>
        <_>
          <internalNodes>
            0 -1 21 8.9451875537633896e-03</internalNodes>
          <leafValues>
            6.3141995668411255e-01 -9.4285714626312256e-01</leafValues></_>
        <_>
          <internalNodes>
            0 -1 9 -2.5399490259587765e-03</internalNodes>
          <leafValues>
            -9.7066885232925415e-01 3.5856801271438599e-01</leafValues></_>
        <_>
          <internalNodes>
            0 -1 3 3.6829373240470886e-01</internalNodes>
          <leafValues>
            -4.7724980115890503e-01 7.2861367464065552e-01</leafValues></_></weakClassifiers></_>
    <!-- stage 9 -->
    <_>
      <maxWeakCount>4</maxWeakCount>
      <stageThreshold>-8.6893850564956665e-01</stageThreshold>
      <weakClassifiers>
        <_>
          <internalNodes>
            0 -1 39 -1.5914227813482285e-02</internalNodes>
          <leafValues>
            6.6874998807907104e-01 -8.7654322385787964e-01</leafValues></_>
        <_>
          <internalNodes>
            0 -1 43 -1.2421171413734555e-03</internalNodes>
          <leafValues>
            6.1842107772827148e-01 -5.9295088052749634e-01</leafValues></_>
        <_>
          <internalNodes>
            0 -1 78 -1.4222291065379977e-04</internalNodes>
          <leafValues>
            5.6836569309234619e-01 -5.7898932695388794e-01</leafValues></_>
        <_>
          <internalNodes>
            0 -1 49 7.7320327982306480e-03</internalNodes>
          <leafValues>
            -3.6574831604957581e-01 8.1771224737167358e-01</leafValues></_></weakClassifiers></_>
    <!-- stage 10 -->
    <_>
      <maxWeakCount>3</maxWeakCount>
      <stageThreshold>6.5023638308048248e-02</stageThreshold>
      <weakClassifiers>
        <_>
          <internalNodes>
            0 -1 16 -8.2843257114291191e-03</internalNodes>
          <leafValues>
            -1. 5.8139532804489136e-01</leafValues></_>
        <_>
          <internalNodes>
            0 -1 6 -9.7144849132746458e-04</internalNodes>
          <leafValues>
            -7.5823950767517090e-01 4.2468872666358948e-01</leafValues></_>
        <_>
          <internalNodes>
            0 -1 30 3.6938225384801626e-03</internalNodes>
          <leafValues>
            3.5966888070106506e-01 -9.4106048345565796e-01</leafValues></_></weakClassifiers></_>
    <!-- stage 11 -->
    <_>
      <maxWeakCount>6</maxWeakCount>
      <stageThreshold>-3.7325185537338257e-01</stageThreshold>
      <weakClassifiers>
        <_>
          <internalNodes>
            0 -1 64 -2.8598224744200706e-03</internalNodes>
          <leafValues>
            -8.7301588058471680e-01 5.8579879999160767e-01</leafValues></_>
        <_>
          <internalNodes>
            0 -1 24 5.9771671658381820e-04</internalNodes>
          <leafValues>
            4.3022224307060242e-01 -8.5119825601577759e-01</leafValues></_>
        <_>
          <internalNodes>
            0 -1 77 -1.1407051933929324e-03</internalNodes>
          <leafValues>
            -8.1344610452651978e-01 3.2673600316047668e-01</leafValues></_>
        <_>
          <internalNodes>
            0 -1 37 -4.0686484426259995e-02</internalNodes>
          <leafValues>
            7.4519777297973633e-01 -4.2534247040748596e-01</leafValues></_>
        <_>
          <internalNodes>
            0 -1 51 7.1812175214290619e-02</internalNodes>
          <leafValues>
            -5.7672756910324097e-01 5.0985193252563477e-01</leafValues></_>
        <_>
          <internalNodes>
            0 -1 50 -4.2281666537746787e-04</internalNodes>
          <leafValues>
            7.4487584829330444e-01 -3.8885882496833801e-01</leafValues></_></weakClassifiers></_>
    <!-- stage 12 -->
    <_>
      <maxWeakCount>4</maxWeakCount>
      <stageThreshold>7.4830137193202972e-02</stageThreshold>
      <weakClassifiers>
        <_>
          <internalNodes>
            0 -1 72 -2.5982307270169258e-03</internalNodes>
          <leafValues>
            -7.8666669130325317e-01 6.1963188648223877e-01</leafValues></_>
        <_>
          <internalNodes>
            0 -1 74 -2.4661566130816936e-03</internalNodes>
          <leafValues>
            -9.6783131361007690e-01 3.2997554540634155e-01</leafValues></_>
        <_>
          <internalNodes>
            0 -1 59 -3.8427745457738638e-03</internalNodes>
          <leafValues>
            -9.1853725910186768e-01 2.4018357694149017e-01</leafValues></_>
        <_>
          <internalNodes>
            0 -1 66 -1.4793969457969069e-03</internalNodes>
          <leafValues>
            -9.1544169187545776e-01 2.9133766889572144e-01</leafValues></_></weakClassifiers></_>
    <!-- stage 13 -->
    <_>
      <maxWeakCount>4</maxWeakCount>
      <stageThreshold>1.9324878230690956e-02</stageThreshold>
      <weakClassifiers>
        <_>
          <internalNodes>
            0 -1 71 -6.0467654839158058e-03</internalNodes>
          <leafValues>
            -9.3333333730697632e-01 5.8357769250869751e-01</leafValues></_>
        <_>
          <internalNodes>
            0 -1 69 2.6449661163496785e-05</internalNodes>
          <leafValues>
            -7.4414592981338501e-01 3.9072737097740173e-01</leafValues></_>
        <_>
          <internalNodes>
            0 -1 53 -3.1487457454204559e-02</internalNodes>
          <leafValues>
            2.9072445631027222e-01 -8.7562084197998047e-01</leafValues></_>
        <_>
          <internalNodes>
            0 -1 15 -2.8205139096826315e-03</internalNodes>
          <leafValues>
            -8.4843766689300537e-01 2.7120640873908997e-01</leafValues></_></weakClassifiers></_>
    <!-- stage 14 -->
    <_>
      <maxWeakCount>7</maxWeakCount>
      <stageThreshold>-7.1093827486038208e-01</stageThreshold>
      <weakClassifiers>
        <_>
          <internalNodes>
            0 -1 57 -1.0339609580114484e-03</internalNodes>
          <leafValues>
            -5.7142859697341919e-01 6.0252368450164795e-01</leafValues></_>
        <_>
          <internalNodes>
            0 -1 18 -1.1108226608484983e-03</internalNodes>
          <leafValues>
            -8.3932238817214966e-01 3.0409875512123108e-01</leafValues></_>
        <_>
          <internalNodes>
            0 -1 80 -5.2536814473569393e-04</internalNodes>
          <leafValues>
            -7.5628042221069336e-01 2.8172802925109863e-01</leafValues></_>
        <_>
          <internalNodes>
            0 -1 40 -8.4455811884254217e-04</internalNodes>
          <leafValues>
            -7.7607637643814087e-01 2.4854281544685364e-01</leafValues></_>
        <_>
          <internalNodes>
            0 -1 52 1.6219844110310078e-03</internalNodes>
          <leafValues>
            2.5618571043014526e-01 -8.2233858108520508e-01</leafValues></_>
        <_>
          <internalNodes>
            0 -1 56 -5.5297790095210075e-03</internalNodes>
          <leafValues>
            -8.5915160179138184e-01 1.7080950736999512e-01</leafValues></_>
        <_>
          <internalNodes>
            0 -1 60 -2.8296210803091526e-03</internalNodes>
          <leafValues>
            6.0146206617355347e-01 -3.7625533342361450e-01</leafValues></_></weakClassifiers></_>
    <!-- stage 15 -->
    <_>
      <maxWeakCount>5</maxWeakCount>
      <stageThreshold>-1.9439637660980225e-01</stageThreshold>
      <weakClassifiers>
        <_>
          <internalNodes>
            0 -1 65 8.7342027109116316e-04</internalNodes>
          <leafValues>
            -5.1807230710983276e-01 5.8490568399429321e-01</leafValues></_>
        <_>
          <internalNodes>
            0 -1 70 2.5563186034560204e-02</internalNodes>
          <leafValues>
            3.4033611416816711e-01 -9.5411378145217896e-01</leafValues></_>
        <_>
          <internalNodes>
            0 -1 44 -4.1704541072249413e-03</internalNodes>
          <leafValues>
            7.6362085342407227e-01 -3.3380949497222900e-01</leafValues></_>
        <_>
          <internalNodes>
            0 -1 25 1.5804717550054193e-03</internalNodes>
          <leafValues>
            -7.8383702039718628e-01 2.9547098278999329e-01</leafValues></_>
        <_>
          <internalNodes>
            0 -1 79 2.5380311999469995e-03</internalNodes>
          <leafValues>
            2.1315027773380280e-01 -9.2450290918350220e-01</leafValues></_></weakClassifiers></_>
    <!-- stage 16 -->
    <_>
      <maxWeakCount>5</maxWeakCount>
      <stageThreshold>-2.4005885422229767e-01</stageThreshold>
      <weakClassifiers>
        <_>
          <internalNodes>
            0 -1 13 -1.6381613677367568e-03</internalNodes>
          <leafValues>
            -8.0327868461608887e-01 5.6470590829849243e-01</leafValues></_>
        <_>
          <internalNodes>
            0 -1 2 1.0352462995797396e-03</internalNodes>
          <leafValues>
            -6.8045032024383545e-01 4.4423770904541016e-01</leafValues></_>
        <_>
          <internalNodes>
            0 -1 75 -1.1786967515945435e-03</internalNodes>
          <leafValues>
            -8.3395534753799438e-01 3.4454950690269470e-01</leafValues></_>
        <_>
          <internalNodes>
            0 -1 47 -2.4957176297903061e-02</internalNodes>
          <leafValues>
            5.2728354930877686e-01 -5.3655576705932617e-01</leafValues></_>
        <_>
          <internalNodes>
            0 -1 12 -6.2849966343492270e-04</internalNodes>
          <leafValues>
            -7.5285094976425171e-01 3.2808637619018555e-01</leafValues></_></weakClassifiers></_>
    <!-- stage 17 -->
    <_>
      <maxWeakCount>5</maxWeakCount>
      <stageThreshold>-1.5943415462970734e-01</stageThreshold>
      <weakClassifiers>
        <_>
          <internalNodes>
            0 -1 45 -9.7009830642491579e-04</internalNodes>
          <leafValues>
            -6.4179104566574097e-01 5.5688625574111938e-01</leafValues></_>
        <_>
          <internalNodes>
            0 -1 4 -1.1094640940427780e-03</internalNodes>
          <leafValues>
            -7.9625809192657471e-01 3.0415511131286621e-01</leafValues></_>
        <_>
          <internalNodes>
            0 -1 54 2.3825891315937042e-02</internalNodes>
          <leafValues>
            -5.7364147901535034e-01 3.3936405181884766e-01</leafValues></_>
        <_>
          <internalNodes>
            0 -1 10 -1.8461656291037798e-03</internalNodes>
          <leafValues>
            -7.7637565135955811e-01 2.6480275392532349e-01</leafValues></_>
        <_>
          <internalNodes>
            0 -1 41 -5.5100880563259125e-03</internalNodes>
          <leafValues>
            6.1521333456039429e-01 -3.3539861440658569e-01</leafValues></_></weakClassifiers></_>
    <!-- stage 18 -->
    <_>
      <maxWeakCount>7</maxWeakCount>
      <stageThreshold>-7.1652799844741821e-01</stageThreshold>
      <weakClassifiers>
        <_>
          <internalNodes>
            0 -1 1 -8.2562013994902372e-04</internalNodes>
          <leafValues>
            -6.1643832921981812e-01 5.7317072153091431e-01</leafValues></_>
        <_>
          <internalNodes>
            0 -1 42 -2.6478491723537445e-02</internalNodes>
          <leafValues>
            4.5886975526809692e-01 -5.3403210639953613e-01</leafValues></_>
        <_>
          <internalNodes>
            0 -1 63 -3.3527280902490020e-04</internalNodes>
          <leafValues>
            5.4223787784576416e-01 -4.5790198445320129e-01</leafValues></_>
        <_>
          <internalNodes>
            0 -1 76 -1.1392467422410846e-03</internalNodes>
          <leafValues>
            -7.7641272544860840e-01 2.8308278322219849e-01</leafValues></_>
        <_>
          <internalNodes>
            0 -1 17 -1.1212120298296213e-03</internalNodes>
          <leafValues>
            -7.5265288352966309e-01 2.4542623758316040e-01</leafValues></_>
        <_>
          <internalNodes>
            0 -1 48 -7.1079377084970474e-03</internalNodes>
          <leafValues>
            7.1322071552276611e-01 -3.5472127795219421e-01</leafValues></_>
        <_>
          <internalNodes>
            0 -1 26 -1.4461647719144821e-02</internalNodes>
          <leafValues>
            5.1786935329437256e-01 -4.7155243158340454e-01</leafValues></_></weakClassifiers></_>
    <!-- stage 19 -->
    <_>
      <maxWeakCount>5</maxWeakCount>
      <stageThreshold>-1.7928831279277802e-01</stageThreshold>
      <weakClassifiers>
        <_>
          <internalNodes>
            0 -1 23 2.1473695524036884e-03</internalNodes>
          <leafValues>
            5.0276243686676025e-01 -1.</leafValues></_>
        <_>
          <internalNodes>
            0 -1 38 -3.0278748273849487e-01</internalNodes>
          <leafValues>
            -8.5132199525833130e-01 3.2515820860862732e-01</leafValues></_>
        <_>
          <internalNodes>
            0 -1 68 -1.5896670520305634e-03</internalNodes>
          <leafValues>
            -7.2415065765380859e-01 2.3179224133491516e-01</leafValues></_>
        <_>
          <internalNodes>
            0 -1 28 -2.2909026592969894e-03</internalNodes>
          <leafValues>
            -7.6825612783432007e-01 2.8280040621757507e-01</leafValues></_>
        <_>
          <internalNodes>
            0 -1 58 7.6591428369283676e-03</internalNodes>
          <leafValues>
            -3.4532138705253601e-01 7.1447443962097168e-01</leafValues></_></weakClassifiers></_></stages>
  <features>
    <_>
      <rects>
        <_>
          0 0 1 15 -1.</_>
        <_>
          0 5 1 5 3.</_></rects>
      <tilted>0</tilted></_>
    <_>
      <rects>
        <_>
          0 0 9 1 -1.</_>
        <_>
          3 0 3 1 3.</_></rects>
      <tilted>0</tilted></_>
    <_>
      <rects>
        <_>
          0 0 4 6 -1.</_>
        <_>
          0 3 4 3 2.</_></rects>
      <tilted>0</tilted></_>
    <_>
      <rects>
        <_>
          0 0 21 20 -1.</_>
        <_>
          7 0 7 20 3.</_></rects>
      <tilted>0</tilted></_>
    <_>
      <rects>
        <_>
          0 1 1 15 -1.</_>
        <_>
          0 6 1 5 3.</_></rects>
      <tilted>0</tilted></_>
    <_>
      <rects>
        <_>
          0 4 24 13 -1.</_>
        <_>
          8 4 8 13 3.</_></rects>
      <tilted>0</tilted></_>
    <_>
      <rects>
        <_>
          0 5 1 18 -1.</_>
        <_>
          0 11 1 6 3.</_></rects>
      <tilted>0</tilted></_>
    <_>
      <rects>
        <_>
          0 5 24 15 -1.</_>
        <_>
          8 5 8 15 3.</_></rects>
      <tilted>0</tilted></_>
    <_>
      <rects>
        <_>
          0 6 24 10 -1.</_>
        <_>
          8 6 8 10 3.</_></rects>
      <tilted>0</tilted></_>
    <_>
      <rects>
        <_>
          0 8 1 15 -1.</_>
        <_>
          0 13 1 5 3.</_></rects>
      <tilted>0</tilted></_>
    <_>
      <rects>
        <_>
          0 8 2 12 -1.</_>
        <_>
          0 12 2 4 3.</_></rects>
      <tilted>0</tilted></_>
    <_>
      <rects>
        <_>
          0 8 14 16 -1.</_>
        <_>
          0 8 7 8 2.</_>
        <_>
          7 16 7 8 2.</_></rects>
      <tilted>0</tilted></_>
    <_>
      <rects>
        <_>
          0 9 2 15 -1.</_>
        <_>
          0 14 2 5 3.</_></rects>
      <tilted>0</tilted></_>
    <_>
      <rects>
        <_>
          0 12 2 12 -1.</_>
        <_>
          0 16 2 4 3.</_></rects>
      <tilted>0</tilted></_>
    <_>
      <rects>
        <_>
          0 14 2 6 -1.</_>
        <_>
          0 16 2 2 3.</_></rects>
      <tilted>0</tilted></_>
    <_>
      <rects>
        <_>
          0 15 4 9 -1.</_>
        <_>
          0 18 4 3 3.</_></rects>
      <tilted>0</tilted></_>
    <_>
      <rects>
        <_>
          0 17 4 6 -1.</_>
        <_>
          0 20 4 3 2.</_></rects>
      <tilted>0</tilted></_>
    <_>
      <rects>
        <_>
          0 20 9 2 -1.</_>
        <_>
          3 20 3 2 3.</_></rects>
      <tilted>0</tilted></_>
    <_>
      <rects>
        <_>
          0 20 18 1 -1.</_>
        <_>
          6 20 6 1 3.</_></rects>
      <tilted>0</tilted></_>
    <_>
      <rects>
        <_>
          0 21 9 3 -1.</_>
        <_>
          3 21 3 3 3.</_></rects>
      <tilted>0</tilted></_>
    <_>
      <rects>
        <_>
          0 22 15 2 -1.</_>
        <_>
          5 22 5 2 3.</_></rects>
      <tilted>0</tilted></_>
    <_>
      <rects>
        <_>
          0 23 24 1 -1.</_>
        <_>
          8 23 8 1 3.</_></rects>
      <tilted>0</tilted></_>
    <_>
      <rects>
        <_>
          1 1 4 21 -1.</_>
        <_>
          1 8 4 7 3.</_></rects>
      <tilted>0</tilted></_>
    <_>
      <rects>
        <_>
          1 2 1 6 -1.</_>
        <_>
          1 5 1 3 2.</_></rects>
      <tilted>0</tilted></_>
    <_>
      <rects>
        <_>
          1 4 4 1 -1.</_>
        <_>
          3 4 2 1 2.</_></rects>
      <tilted>0</tilted></_>
    <_>
      <rects>
        <_>
          2 0 3 24 -1.</_>
        <_>
          2 8 3 8 3.</_></rects>
      <tilted>0</tilted></_>
    <_>
      <rects>
        <_>
          2 8 12 6 -1.</_>
        <_>
          6 8 4 6 3.</_></rects>
      <tilted>0</tilted></_>
    <_>
      <rects>
        <_>
          3 0 18 1 -1.</_>
        <_>
          9 0 6 1 3.</_></rects>
      <tilted>0</tilted></_>
    <_>
      <rects>
        <_>
          3 19 20 2 -1.</_>
        <_>
          3 19 10 1 2.</_>
        <_>
          13 20 10 1 2.</_></rects>
      <tilted>0</tilted></_>
    <_>
      <rects>
        <_>
          4 0 6 1 -1.</_>
        <_>
          7 0 3 1 2.</_></rects>
      <tilted>0</tilted></_>
    <_>
      <rects>
        <_>
          4 0 15 1 -1.</_>
        <_>
          9 0 5 1 3.</_></rects>
      <tilted>0</tilted></_>
    <_>
      <rects>
        <_>
          5 0 10 12 -1.</_>
        <_>
          5 6 10 6 2.</_></rects>
      <tilted>0</tilted></_>
    <_>
      <rects>
        <_>
          5 0 12 12 -1.</_>
        <_>
          5 6 12 6 2.</_></rects>
      <tilted>0</tilted></_>
    <_>
      <rects>
        <_>
          5 0 14 21 -1.</_>
        <_>
          5 7 14 7 3.</_></rects>
      <tilted>0</tilted></_>
    <_>
      <rects>
        <_>
          5 7 17 16 -1.</_>
        <_>
          5 15 17 8 2.</_></rects>
      <tilted>0</tilted></_>
    <_>
      <rects>
        <_>
          5 21 18 2 -1.</_>
        <_>
          11 21 6 2 3.</_></rects>
      <tilted>0</tilted></_>
    <_>
      <rects>
        <_>
          6 0 12 21 -1.</_>
        <_>
          6 7 12 7 3.</_></rects>
      <tilted>0</tilted></_>
    <_>
      <rects>
        <_>
          6 1 16 12 -1.</_>
        <_>
          6 5 16 4 3.</_></rects>
      <tilted>0</tilted></_>
    <_>
      <rects>
        <_>
          6 5 12 18 -1.</_>
        <_>
          6 14 12 9 2.</_></rects>
      <tilted>0</tilted></_>
    <_>
      <rects>
        <_>
          6 8 10 16 -1.</_>
        <_>
          6 16 10 8 2.</_></rects>
      <tilted>0</tilted></_>
    <_>
      <rects>
        <_>
          7 0 15 1 -1.</_>
        <_>
          12 0 5 1 3.</_></rects>
      <tilted>0</tilted></_>
    <_>
      <rects>
        <_>
          7 4 6 11 -1.</_>
        <_>
          9 4 2 11 3.</_></rects>
      <tilted>0</tilted></_>
    <_>
      <rects>
        <_>
          7 9 11 15 -1.</_>
        <_>
          7 14 11 5 3.</_></rects>
      <tilted>0</tilted></_>
    <_>
      <rects>
        <_>
          7 11 9 9 -1.</_>
        <_>
          7 14 9 3 3.</_></rects>
      <tilted>0</tilted></_>
    <_>
      <rects>
        <_>
          7 13 8 3 -1.</_>
        <_>
          7 14 8 1 3.</_></rects>
      <tilted>0</tilted></_>
    <_>
      <rects>
        <_>
          8 0 15 1 -1.</_>
        <_>
          13 0 5 1 3.</_></rects>
      <tilted>0</tilted></_>
    <_>
      <rects>
        <_>
          8 7 16 11 -1.</_>
        <_>
          16 7 8 11 2.</_></rects>
      <tilted>0</tilted></_>
    <_>
      <rects>
        <_>
          8 9 8 12 -1.</_>
        <_>
          8 13 8 4 3.</_></rects>
      <tilted>0</tilted></_>
    <_>
      <rects>
        <_>
          8 11 3 6 -1.</_>
        <_>
          8 13 3 2 3.</_></rects>
      <tilted>0</tilted></_>
    <_>
      <rects>
        <_>
          8 12 6 2 -1.</_>
        <_>
          11 12 3 2 2.</_></rects>
      <tilted>0</tilted></_>
    <_>
      <rects>
        <_>
          9 6 1 9 -1.</_>
        <_>
          9 9 1 3 3.</_></rects>
      <tilted>0</tilted></_>
    <_>
      <rects>
        <_>
          9 7 14 14 -1.</_>
        <_>
          9 7 7 7 2.</_>
        <_>
          16 14 7 7 2.</_></rects>
      <tilted>0</tilted></_>
    <_>
      <rects>
        <_>
          10 0 12 1 -1.</_>
        <_>
          14 0 4 1 3.</_></rects>
      <tilted>0</tilted></_>
    <_>
      <rects>
        <_>
          10 9 12 8 -1.</_>
        <_>
          16 9 6 8 2.</_></rects>
      <tilted>0</tilted></_>
    <_>
      <rects>
        <_>
          11 6 6 18 -1.</_>
        <_>
          11 6 3 9 2.</_>
        <_>
          14 15 3 9 2.</_></rects>
      <tilted>0</tilted></_>
    <_>
      <rects>
        <_>
          11 9 6 8 -1.</_>
        <_>
          11 9 3 4 2.</_>
        <_>
          14 13 3 4 2.</_></rects>
      <tilted>0</tilted></_>
    <_>
      <rects>
        <_>
          11 19 12 4 -1.</_>
        <_>
          15 19 4 4 3.</_></rects>
      <tilted>0</tilted></_>
    <_>
      <rects>
        <_>
          12 0 12 1 -1.</_>
        <_>
          16 0 4 1 3.</_></rects>
      <tilted>0</tilted></_>
    <_>
      <rects>
        <_>
          12 11 4 4 -1.</_>
        <_>
          12 11 2 2 2.</_>
        <_>
          14 13 2 2 2.</_></rects>
      <tilted>0</tilted></_>
    <_>
      <rects>
        <_>
          12 21 12 3 -1.</_>
        <_>
          16 21 4 3 3.</_></rects>
      <tilted>0</tilted></_>
    <_>
      <rects>
        <_>
          13 11 6 1 -1.</_>
        <_>
          15 11 2 1 3.</_></rects>
      <tilted>0</tilted></_>
    <_>
      <rects>
        <_>
          13 20 9 1 -1.</_>
        <_>
          16 20 3 1 3.</_></rects>
      <tilted>0</tilted></_>
    <_>
      <rects>
        <_>
          13 21 9 2 -1.</_>
        <_>
          16 21 3 2 3.</_></rects>
      <tilted>0</tilted></_>
    <_>
      <rects>
        <_>
          13 22 11 2 -1.</_>
        <_>
          13 23 11 1 2.</_></rects>
      <tilted>0</tilted></_>
    <_>
      <rects>
        <_>
          14 21 8 1 -1.</_>
        <_>
          18 21 4 1 2.</_></rects>
      <tilted>0</tilted></_>
    <_>
      <rects>
        <_>
          16 0 3 6 -1.</_>
        <_>
          16 3 3 3 2.</_></rects>
      <tilted>0</tilted></_>
    <_>
      <rects>
        <_>
          17 0 6 1 -1.</_>
        <_>
          20 0 3 1 2.</_></rects>
      <tilted>0</tilted></_>
    <_>
      <rects>
        <_>
          18 0 4 24 -1.</_>
        <_>
          18 8 4 8 3.</_></rects>
      <tilted>0</tilted></_>
    <_>
      <rects>
        <_>
          18 14 2 9 -1.</_>
        <_>
          18 17 2 3 3.</_></rects>
      <tilted>0</tilted></_>
    <_>
      <rects>
        <_>
          21 0 2 4 -1.</_>
        <_>
          21 2 2 2 2.</_></rects>
      <tilted>0</tilted></_>
    <_>
      <rects>
        <_>
          21 1 3 21 -1.</_>
        <_>
          21 8 3 7 3.</_></rects>
      <tilted>0</tilted></_>
    <_>
      <rects>
        <_>
          21 2 3 15 -1.</_>
        <_>
          21 7 3 5 3.</_></rects>
      <tilted>0</tilted></_>
    <_>
      <rects>
        <_>
          22 0 2 12 -1.</_>
        <_>
          22 4 2 4 3.</_></rects>
      <tilted>0</tilted></_>
    <_>
      <rects>
        <_>
          22 2 2 6 -1.</_>
        <_>
          23 2 1 6 2.</_></rects>
      <tilted>0</tilted></_>
    <_>
      <rects>
        <_>
          22 4 1 18 -1.</_>
        <_>
          22 10 1 6 3.</_></rects>
      <tilted>0</tilted></_>
    <_>
      <rects>
        <_>
          22 5 2 12 -1.</_>
        <_>
          22 9 2 4 3.</_></rects>
      <tilted>0</tilted></_>
    <_>
      <rects>
        <_>
          22 8 2 15 -1.</_>
        <_>
          22 13 2 5 3.</_></rects>
      <tilted>0</tilted></_>
    <_>
      <rects>
        <_>
          22 12 2 12 -1.</_>
        <_>
          22 16 2 4 3.</_></rects>
      <tilted>0</tilted></_>
    <_>
      <rects>
        <_>
          22 16 2 8 -1.</_>
        <_>
          23 16 1 8 2.</_></rects>
      <tilted>0</tilted></_>
    <_>
      <rects>
        <_>
          23 7 1 8 -1.</_>
        <_>
          23 11 1 4 2.</_></rects>
      <tilted>0</tilted></_>
    <_>
      <rects>
        <_>
          23 7 1 15 -1.</_>
        <_>
          23 12 1 5 3.</_></rects>
      <tilted>0</tilted></_></features></cascade>
</opencv_storage>
