<?xml version="1.0"?>
<opencv_storage>
<cascade>
  <stageType>BOOST</stageType>
  <featureType>HAAR</featureType>
  <height>24</height>
  <width>24</width>
  <stageParams>
    <boostType>GAB</boostType>
    <minHitRate>9.9500000476837158e-01</minHitRate>
    <maxFalseAlarm>5.0000000000000000e-01</maxFalseAlarm>
    <weightTrimRate>9.4999998807907104e-01</weightTrimRate>
    <maxDepth>1</maxDepth>
    <maxWeakCount>100</maxWeakCount></stageParams>
  <featureParams>
    <maxCatCount>0</maxCatCount>
    <featSize>1</featSize>
    <mode>BASIC</mode></featureParams>
  <stageNum>12</stageNum>
  <stages>
    <!-- stage 0 -->
    <_>
      <maxWeakCount>1</maxWeakCount>
      <stageThreshold>1.</stageThreshold>
      <weakClassifiers>
        <_>
          <internalNodes>
            0 -1 2 5.7917380332946777e-01</internalNodes>
          <leafValues>
            -1. 1.</leafValues></_></weakClassifiers></_>
    <!-- stage 1 -->
    <_>
      <maxWeakCount>2</maxWeakCount>
      <stageThreshold>-2.7978849411010742e-01</stageThreshold>
      <weakClassifiers>
        <_>
          <internalNodes>
            0 -1 10 6.3319712877273560e-02</internalNodes>
          <leafValues>
            -9.2888891696929932e-01 6.6336631774902344e-01</leafValues></_>
        <_>
          <internalNodes>
            0 -1 11 -2.9261702671647072e-02</internalNodes>
          <leafValues>
            6.4910042285919189e-01 -9.2520815134048462e-01</leafValues></_></weakClassifiers></_>
    <!-- stage 2 -->
    <_>
      <maxWeakCount>3</maxWeakCount>
      <stageThreshold>-1.1417636871337891e+00</stageThreshold>
      <weakClassifiers>
        <_>
          <internalNodes>
            0 -1 19 5.4303258657455444e-02</internalNodes>
          <leafValues>
            -8.0876493453979492e-01 8.1333333253860474e-01</leafValues></_>
        <_>
          <internalNodes>
            0 -1 21 -8.4772795438766479e-02</internalNodes>
          <leafValues>
            5.7450538873672485e-01 -7.9342424869537354e-01</leafValues></_>
        <_>
          <internalNodes>
            0 -1 24 3.9449092000722885e-03</internalNodes>
          <leafValues>
            4.6042549610137939e-01 -9.8195046186447144e-01</leafValues></_></weakClassifiers></_>
    <!-- stage 3 -->
    <_>
      <maxWeakCount>2</maxWeakCount>
      <stageThreshold>-4.9094307422637939e-01</stageThreshold>
      <weakClassifiers>
        <_>
          <internalNodes>
            0 -1 5 7.1098744869232178e-01</internalNodes>
          <leafValues>
            -8.7234044075012207e-01 6.9230771064758301e-01</leafValues></_>
        <_>
          <internalNodes>
            0 -1 9 4.1540251113474369e-03</internalNodes>
          <leafValues>
            3.8139733672142029e-01 -9.6617949008941650e-01</leafValues></_></weakClassifiers></_>
    <!-- stage 4 -->
    <_>
      <maxWeakCount>2</maxWeakCount>
      <stageThreshold>-3.6828479170799255e-01</stageThreshold>
      <weakClassifiers>
        <_>
          <internalNodes>
            0 -1 16 4.6947789192199707e-01</internalNodes>
          <leafValues>
            -7.7865612506866455e-01 7.5342464447021484e-01</leafValues></_>
        <_>
          <internalNodes>
            0 -1 23 -2.1401927806437016e-03</internalNodes>
          <leafValues>
            -9.7801160812377930e-01 4.1037133336067200e-01</leafValues></_></weakClassifiers></_>
    <!-- stage 5 -->
    <_>
      <maxWeakCount>2</maxWeakCount>
      <stageThreshold>-2.3987407982349396e-01</stageThreshold>
      <weakClassifiers>
        <_>
          <internalNodes>
            0 -1 13 7.4205267429351807e-01</internalNodes>
          <leafValues>
            -6.8115943670272827e-01 9.2000001668930054e-01</leafValues></_>
        <_>
          <internalNodes>
            0 -1 0 -4.7391466796398163e-03</internalNodes>
          <leafValues>
            -9.9026203155517578e-01 4.4128534197807312e-01</leafValues></_></weakClassifiers></_>
    <!-- stage 6 -->
    <_>
      <maxWeakCount>4</maxWeakCount>
      <stageThreshold>-1.2031952142715454e+00</stageThreshold>
      <weakClassifiers>
        <_>
          <internalNodes>
            0 -1 3 4.4682747684419155e-03</internalNodes>
          <leafValues>
            1.5189872682094574e-01 -9.8809522390365601e-01</leafValues></_>
        <_>
          <internalNodes>
            0 -1 25 -2.0833639428019524e-03</internalNodes>
          <leafValues>
            -9.4795078039169312e-01 2.8341862559318542e-01</leafValues></_>
        <_>
          <internalNodes>
            0 -1 15 -6.1067402362823486e-02</internalNodes>
          <leafValues>
            4.4860893487930298e-01 -8.3081418275833130e-01</leafValues></_>
        <_>
          <internalNodes>
            0 -1 6 -3.6175921559333801e-03</internalNodes>
          <leafValues>
            -1. 4.2367103695869446e-01</leafValues></_></weakClassifiers></_>
    <!-- stage 7 -->
    <_>
      <maxWeakCount>2</maxWeakCount>
      <stageThreshold>-5.2206605672836304e-01</stageThreshold>
      <weakClassifiers>
        <_>
          <internalNodes>
            0 -1 17 3.7473738193511963e-02</internalNodes>
          <leafValues>
            -8.3636361360549927e-01 3.9622640609741211e-01</leafValues></_>
        <_>
          <internalNodes>
            0 -1 22 -1.9962009973824024e-03</internalNodes>
          <leafValues>
            -9.1829246282577515e-01 3.6832565069198608e-01</leafValues></_></weakClassifiers></_>
    <!-- stage 8 -->
    <_>
      <maxWeakCount>2</maxWeakCount>
      <stageThreshold>-3.0468386411666870e-01</stageThreshold>
      <weakClassifiers>
        <_>
          <internalNodes>
            0 -1 14 3.4203112125396729e-01</internalNodes>
          <leafValues>
            -6.3508772850036621e-01 9.5121949911117554e-01</leafValues></_>
        <_>
          <internalNodes>
            0 -1 8 2.3388995323330164e-03</internalNodes>
          <leafValues>
            3.3040386438369751e-01 -1.</leafValues></_></weakClassifiers></_>
    <!-- stage 9 -->
    <_>
      <maxWeakCount>2</maxWeakCount>
      <stageThreshold>-5.2910989522933960e-01</stageThreshold>
      <weakClassifiers>
        <_>
          <internalNodes>
            0 -1 18 1.5742782503366470e-02</internalNodes>
          <leafValues>
            -8.4615385532379150e-01 4.2857143282890320e-01</leafValues></_>
        <_>
          <internalNodes>
            0 -1 4 1.6579816117882729e-02</internalNodes>
          <leafValues>
            3.3425337076187134e-01 -9.5768129825592041e-01</leafValues></_></weakClassifiers></_>
    <!-- stage 10 -->
    <_>
      <maxWeakCount>2</maxWeakCount>
      <stageThreshold>-2.3393622040748596e-01</stageThreshold>
      <weakClassifiers>
        <_>
          <internalNodes>
            0 -1 20 -2.7305271476507187e-02</internalNodes>
          <leafValues>
            8.0392158031463623e-01 -6.6545456647872925e-01</leafValues></_>
        <_>
          <internalNodes>
            0 -1 1 -2.1247223485261202e-03</internalNodes>
          <leafValues>
            -9.7928494215011597e-01 4.3151831626892090e-01</leafValues></_></weakClassifiers></_>
    <!-- stage 11 -->
    <_>
      <maxWeakCount>2</maxWeakCount>
      <stageThreshold>-3.0215862393379211e-01</stageThreshold>
      <weakClassifiers>
        <_>
          <internalNodes>
            0 -1 12 7.2578871250152588e-01</internalNodes>
          <leafValues>
            -6.3120567798614502e-01 8.1818181276321411e-01</leafValues></_>
        <_>
          <internalNodes>
            0 -1 7 -6.6697509028017521e-03</internalNodes>
          <leafValues>
            -1. 3.2904705405235291e-01</leafValues></_></weakClassifiers></_></stages>
  <features>
    <_>
      <rects>
        <_>
          0 0 2 24 -1.</_>
        <_>
          0 8 2 8 3.</_></rects>
      <tilted>0</tilted></_>
    <_>
      <rects>
        <_>
          0 0 12 1 -1.</_>
        <_>
          4 0 4 1 3.</_></rects>
      <tilted>0</tilted></_>
    <_>
      <rects>
        <_>
          0 0 24 18 -1.</_>
        <_>
          8 0 8 18 3.</_></rects>
      <tilted>0</tilted></_>
    <_>
      <rects>
        <_>
          0 1 1 21 -1.</_>
        <_>
          0 8 1 7 3.</_></rects>
      <tilted>0</tilted></_>
    <_>
      <rects>
        <_>
          0 4 10 15 -1.</_>
        <_>
          0 9 10 5 3.</_></rects>
      <tilted>0</tilted></_>
    <_>
      <rects>
        <_>
          0 5 24 14 -1.</_>
        <_>
          8 5 8 14 3.</_></rects>
      <tilted>0</tilted></_>
    <_>
      <rects>
        <_>
          0 9 4 7 -1.</_>
        <_>
          2 9 2 7 2.</_></rects>
      <tilted>0</tilted></_>
    <_>
      <rects>
        <_>
          1 0 3 18 -1.</_>
        <_>
          1 6 3 6 3.</_></rects>
      <tilted>0</tilted></_>
    <_>
      <rects>
        <_>
          1 1 6 2 -1.</_>
        <_>
          4 1 3 2 2.</_></rects>
      <tilted>0</tilted></_>
    <_>
      <rects>
        <_>
          2 0 21 1 -1.</_>
        <_>
          9 0 7 1 3.</_></rects>
      <tilted>0</tilted></_>
    <_>
      <rects>
        <_>
          2 0 17 6 -1.</_>
        <_>
          2 3 17 3 2.</_></rects>
      <tilted>0</tilted></_>
    <_>
      <rects>
        <_>
          2 19 17 4 -1.</_>
        <_>
          2 21 17 2 2.</_></rects>
      <tilted>0</tilted></_>
    <_>
      <rects>
        <_>
          3 3 18 16 -1.</_>
        <_>
          9 3 6 16 3.</_></rects>
      <tilted>0</tilted></_>
    <_>
      <rects>
        <_>
          3 3 18 18 -1.</_>
        <_>
          9 3 6 18 3.</_></rects>
      <tilted>0</tilted></_>
    <_>
      <rects>
        <_>
          4 3 10 19 -1.</_>
        <_>
          9 3 5 19 2.</_></rects>
      <tilted>0</tilted></_>
    <_>
      <rects>
        <_>
          4 18 19 6 -1.</_>
        <_>
          4 21 19 3 2.</_></rects>
      <tilted>0</tilted></_>
    <_>
      <rects>
        <_>
          5 2 15 18 -1.</_>
        <_>
          10 2 5 18 3.</_></rects>
      <tilted>0</tilted></_>
    <_>
      <rects>
        <_>
          5 9 6 4 -1.</_>
        <_>
          8 9 3 4 2.</_></rects>
      <tilted>0</tilted></_>
    <_>
      <rects>
        <_>
          6 1 12 6 -1.</_>
        <_>
          6 3 12 2 3.</_></rects>
      <tilted>0</tilted></_>
    <_>
      <rects>
        <_>
          6 8 6 6 -1.</_>
        <_>
          9 8 3 6 2.</_></rects>
      <tilted>0</tilted></_>
    <_>
      <rects>
        <_>
          10 20 6 4 -1.</_>
        <_>
          10 22 6 2 2.</_></rects>
      <tilted>0</tilted></_>
    <_>
      <rects>
        <_>
          11 9 8 7 -1.</_>
        <_>
          15 9 4 7 2.</_></rects>
      <tilted>0</tilted></_>
    <_>
      <rects>
        <_>
          17 10 6 3 -1.</_>
        <_>
          19 10 2 3 3.</_></rects>
      <tilted>0</tilted></_>
    <_>
      <rects>
        <_>
          18 9 4 4 -1.</_>
        <_>
          20 9 2 4 2.</_></rects>
      <tilted>0</tilted></_>
    <_>
      <rects>
        <_>
          18 15 6 6 -1.</_>
        <_>
          18 18 6 3 2.</_></rects>
      <tilted>0</tilted></_>
    <_>
      <rects>
        <_>
          20 0 2 8 -1.</_>
        <_>
          20 4 2 4 2.</_></rects>
      <tilted>0</tilted></_></features></cascade>
</opencv_storage>
