<?xml version="1.0"?>
<opencv_storage>
<cascade>
  <stageType>BOOST</stageType>
  <featureType>HAAR</featureType>
  <height>24</height>
  <width>24</width>
  <stageParams>
    <boostType>GAB</boostType>
    <minHitRate>9.9500000476837158e-01</minHitRate>
    <maxFalseAlarm>5.0000000000000000e-01</maxFalseAlarm>
    <weightTrimRate>9.4999998807907104e-01</weightTrimRate>
    <maxDepth>1</maxDepth>
    <maxWeakCount>100</maxWeakCount></stageParams>
  <featureParams>
    <maxCatCount>0</maxCatCount>
    <featSize>1</featSize>
    <mode>BASIC</mode></featureParams>
  <stageNum>15</stageNum>
  <stages>
    <!-- stage 0 -->
    <_>
      <maxWeakCount>1</maxWeakCount>
      <stageThreshold>9.7183096408843994e-01</stageThreshold>
      <weakClassifiers>
        <_>
          <internalNodes>
            0 -1 3 3.4856370091438293e-01</internalNodes>
          <leafValues>
            -1. 9.7183096408843994e-01</leafValues></_></weakClassifiers></_>
    <!-- stage 1 -->
    <_>
      <maxWeakCount>2</maxWeakCount>
      <stageThreshold>-3.2736340165138245e-01</stageThreshold>
      <weakClassifiers>
        <_>
          <internalNodes>
            0 -1 19 7.9165976494550705e-03</internalNodes>
          <leafValues>
            -7.5999999046325684e-01 9.0476191043853760e-01</leafValues></_>
        <_>
          <internalNodes>
            0 -1 24 -8.6171608418226242e-03</internalNodes>
          <leafValues>
            -9.6875762939453125e-01 4.3263661861419678e-01</leafValues></_></weakClassifiers></_>
    <!-- stage 2 -->
    <_>
      <maxWeakCount>2</maxWeakCount>
      <stageThreshold>-2.9983642697334290e-01</stageThreshold>
      <weakClassifiers>
        <_>
          <internalNodes>
            0 -1 17 -2.6990519836544991e-03</internalNodes>
          <leafValues>
            9.0243899822235107e-01 -7.5298804044723511e-01</leafValues></_>
        <_>
          <internalNodes>
            0 -1 32 -3.9347698912024498e-03</internalNodes>
          <leafValues>
            -1. 4.5315161347389221e-01</leafValues></_></weakClassifiers></_>
    <!-- stage 3 -->
    <_>
      <maxWeakCount>2</maxWeakCount>
      <stageThreshold>-3.2159182429313660e-01</stageThreshold>
      <weakClassifiers>
        <_>
          <internalNodes>
            0 -1 12 2.4162258952856064e-02</internalNodes>
          <leafValues>
            -7.2549021244049072e-01 8.9189189672470093e-01</leafValues></_>
        <_>
          <internalNodes>
            0 -1 6 -4.3167714029550552e-03</internalNodes>
          <leafValues>
            -1. 4.0389835834503174e-01</leafValues></_></weakClassifiers></_>
    <!-- stage 4 -->
    <_>
      <maxWeakCount>3</maxWeakCount>
      <stageThreshold>-8.8041812181472778e-01</stageThreshold>
      <weakClassifiers>
        <_>
          <internalNodes>
            0 -1 16 -3.1041791662573814e-03</internalNodes>
          <leafValues>
            6.2264150381088257e-01 -7.7405858039855957e-01</leafValues></_>
        <_>
          <internalNodes>
            0 -1 15 -4.0932660922408104e-03</internalNodes>
          <leafValues>
            8.4992492198944092e-01 -5.7565575838088989e-01</leafValues></_>
        <_>
          <internalNodes>
            0 -1 34 6.8392693065106869e-03</internalNodes>
          <leafValues>
            5.0382226705551147e-01 -9.2740386724472046e-01</leafValues></_></weakClassifiers></_>
    <!-- stage 5 -->
    <_>
      <maxWeakCount>3</maxWeakCount>
      <stageThreshold>-1.2512776851654053e+00</stageThreshold>
      <weakClassifiers>
        <_>
          <internalNodes>
            0 -1 21 -7.7262134291231632e-03</internalNodes>
          <leafValues>
            8.5000002384185791e-01 -7.3809522390365601e-01</leafValues></_>
        <_>
          <internalNodes>
            0 -1 36 -2.4281893856823444e-03</internalNodes>
          <leafValues>
            -9.2952978610992432e-01 4.5057976245880127e-01</leafValues></_>
        <_>
          <internalNodes>
            0 -1 5 9.5980679616332054e-03</internalNodes>
          <leafValues>
            4.1634732484817505e-01 -9.7137844562530518e-01</leafValues></_></weakClassifiers></_>
    <!-- stage 6 -->
    <_>
      <maxWeakCount>2</maxWeakCount>
      <stageThreshold>-3.8225752115249634e-01</stageThreshold>
      <weakClassifiers>
        <_>
          <internalNodes>
            0 -1 13 -8.2377891521900892e-04</internalNodes>
          <leafValues>
            6.8000000715255737e-01 -7.6859503984451294e-01</leafValues></_>
        <_>
          <internalNodes>
            0 -1 35 -1.8971522804349661e-03</internalNodes>
          <leafValues>
            -9.6249967813491821e-01 3.8633751869201660e-01</leafValues></_></weakClassifiers></_>
    <!-- stage 7 -->
    <_>
      <maxWeakCount>4</maxWeakCount>
      <stageThreshold>-1.6986315250396729e+00</stageThreshold>
      <weakClassifiers>
        <_>
          <internalNodes>
            0 -1 18 1.3807533308863640e-02</internalNodes>
          <leafValues>
            -7.0542633533477783e-01 8.8235294818878174e-01</leafValues></_>
        <_>
          <internalNodes>
            0 -1 25 -7.7051453292369843e-02</internalNodes>
          <leafValues>
            4.1901150345802307e-01 -8.3913266658782959e-01</leafValues></_>
        <_>
          <internalNodes>
            0 -1 2 -8.3635784685611725e-03</internalNodes>
          <leafValues>
            -9.2225134372711182e-01 3.5060444474220276e-01</leafValues></_>
        <_>
          <internalNodes>
            0 -1 20 -4.6680597588419914e-03</internalNodes>
          <leafValues>
            8.6831289529800415e-01 -5.0467687845230103e-01</leafValues></_></weakClassifiers></_>
    <!-- stage 8 -->
    <_>
      <maxWeakCount>3</maxWeakCount>
      <stageThreshold>-8.8257890939712524e-01</stageThreshold>
      <weakClassifiers>
        <_>
          <internalNodes>
            0 -1 10 1.1437864741310477e-03</internalNodes>
          <leafValues>
            -7.2332018613815308e-01 7.9487180709838867e-01</leafValues></_>
        <_>
          <internalNodes>
            0 -1 22 -2.0494111813604832e-03</internalNodes>
          <leafValues>
            7.6432240009307861e-01 -5.6337946653366089e-01</leafValues></_>
        <_>
          <internalNodes>
            0 -1 31 -2.2752697113901377e-03</internalNodes>
          <leafValues>
            -9.2358112335205078e-01 4.4226950407028198e-01</leafValues></_></weakClassifiers></_>
    <!-- stage 9 -->
    <_>
      <maxWeakCount>3</maxWeakCount>
      <stageThreshold>-9.0825116634368896e-01</stageThreshold>
      <weakClassifiers>
        <_>
          <internalNodes>
            0 -1 18 1.3128014281392097e-02</internalNodes>
          <leafValues>
            -7.0656371116638184e-01 9.3939393758773804e-01</leafValues></_>
        <_>
          <internalNodes>
            0 -1 8 -1.0563809424638748e-02</internalNodes>
          <leafValues>
            6.5626871585845947e-01 -5.8984023332595825e-01</leafValues></_>
        <_>
          <internalNodes>
            0 -1 29 -1.1737728491425514e-02</internalNodes>
          <leafValues>
            3.8815280795097351e-01 -9.7064870595932007e-01</leafValues></_></weakClassifiers></_>
    <!-- stage 10 -->
    <_>
      <maxWeakCount>3</maxWeakCount>
      <stageThreshold>-8.0366957187652588e-01</stageThreshold>
      <weakClassifiers>
        <_>
          <internalNodes>
            0 -1 11 -4.7442130744457245e-03</internalNodes>
          <leafValues>
            8.4210526943206787e-01 -7.2440946102142334e-01</leafValues></_>
        <_>
          <internalNodes>
            0 -1 14 -1.5215843450278044e-03</internalNodes>
          <leafValues>
            7.9630130529403687e-01 -5.4171055555343628e-01</leafValues></_>
        <_>
          <internalNodes>
            0 -1 7 -1.4561608433723450e-02</internalNodes>
          <leafValues>
            -8.5931444168090820e-01 4.6245041489601135e-01</leafValues></_></weakClassifiers></_>
    <!-- stage 11 -->
    <_>
      <maxWeakCount>3</maxWeakCount>
      <stageThreshold>-1.2625324726104736e+00</stageThreshold>
      <weakClassifiers>
        <_>
          <internalNodes>
            0 -1 23 -5.6028068065643311e-03</internalNodes>
          <leafValues>
            8.4210526943206787e-01 -7.2440946102142334e-01</leafValues></_>
        <_>
          <internalNodes>
            0 -1 4 -1.5443213284015656e-02</internalNodes>
          <leafValues>
            4.0468138456344604e-01 -9.2710822820663452e-01</leafValues></_>
        <_>
          <internalNodes>
            0 -1 30 3.3606414217501879e-03</internalNodes>
          <leafValues>
            3.8898518681526184e-01 -9.6996766328811646e-01</leafValues></_></weakClassifiers></_>
    <!-- stage 12 -->
    <_>
      <maxWeakCount>3</maxWeakCount>
      <stageThreshold>-4.0291315317153931e-01</stageThreshold>
      <weakClassifiers>
        <_>
          <internalNodes>
            0 -1 8 -1.0078689083456993e-02</internalNodes>
          <leafValues>
            4.2028984427452087e-01 -8.1165921688079834e-01</leafValues></_>
        <_>
          <internalNodes>
            0 -1 33 -3.3746138215065002e-03</internalNodes>
          <leafValues>
            -9.6254467964172363e-01 2.0721580088138580e-01</leafValues></_>
        <_>
          <internalNodes>
            0 -1 1 -4.8033134080469608e-03</internalNodes>
          <leafValues>
            -1. 2.0153024792671204e-01</leafValues></_></weakClassifiers></_>
    <!-- stage 13 -->
    <_>
      <maxWeakCount>2</maxWeakCount>
      <stageThreshold>-3.5998108983039856e-01</stageThreshold>
      <weakClassifiers>
        <_>
          <internalNodes>
            0 -1 28 1.3917263131588697e-03</internalNodes>
          <leafValues>
            -7.1774190664291382e-01 5.9090906381607056e-01</leafValues></_>
        <_>
          <internalNodes>
            0 -1 0 5.3672935813665390e-02</internalNodes>
          <leafValues>
            -9.4483983516693115e-01 3.5776081681251526e-01</leafValues></_></weakClassifiers></_>
    <!-- stage 14 -->
    <_>
      <maxWeakCount>3</maxWeakCount>
      <stageThreshold>-8.8206458091735840e-01</stageThreshold>
      <weakClassifiers>
        <_>
          <internalNodes>
            0 -1 26 -3.4002964384853840e-03</internalNodes>
          <leafValues>
            6.7441862821578979e-01 -7.2690761089324951e-01</leafValues></_>
        <_>
          <internalNodes>
            0 -1 27 -3.1273183412849903e-03</internalNodes>
          <leafValues>
            7.7008014917373657e-01 -5.4140692949295044e-01</leafValues></_>
        <_>
          <internalNodes>
            0 -1 9 -2.5505803525447845e-02</internalNodes>
          <leafValues>
            -9.2523705959320068e-01 4.1707906126976013e-01</leafValues></_></weakClassifiers></_></stages>
  <features>
    <_>
      <rects>
        <_>
          0 0 10 24 -1.</_>
        <_>
          0 8 10 8 3.</_></rects>
      <tilted>0</tilted></_>
    <_>
      <rects>
        <_>
          0 6 4 18 -1.</_>
        <_>
          0 12 4 6 3.</_></rects>
      <tilted>0</tilted></_>
    <_>
      <rects>
        <_>
          0 10 6 13 -1.</_>
        <_>
          2 10 2 13 3.</_></rects>
      <tilted>0</tilted></_>
    <_>
      <rects>
        <_>
          1 0 21 20 -1.</_>
        <_>
          8 0 7 20 3.</_></rects>
      <tilted>0</tilted></_>
    <_>
      <rects>
        <_>
          1 10 9 7 -1.</_>
        <_>
          4 10 3 7 3.</_></rects>
      <tilted>0</tilted></_>
    <_>
      <rects>
        <_>
          2 3 2 21 -1.</_>
        <_>
          2 10 2 7 3.</_></rects>
      <tilted>0</tilted></_>
    <_>
      <rects>
        <_>
          2 3 3 21 -1.</_>
        <_>
          2 10 3 7 3.</_></rects>
      <tilted>0</tilted></_>
    <_>
      <rects>
        <_>
          3 0 20 12 -1.</_>
        <_>
          3 4 20 4 3.</_></rects>
      <tilted>0</tilted></_>
    <_>
      <rects>
        <_>
          3 11 6 3 -1.</_>
        <_>
          5 11 2 3 3.</_></rects>
      <tilted>0</tilted></_>
    <_>
      <rects>
        <_>
          4 12 13 12 -1.</_>
        <_>
          4 16 13 4 3.</_></rects>
      <tilted>0</tilted></_>
    <_>
      <rects>
        <_>
          7 10 2 2 -1.</_>
        <_>
          7 10 1 1 2.</_>
        <_>
          8 11 1 1 2.</_></rects>
      <tilted>0</tilted></_>
    <_>
      <rects>
        <_>
          8 8 3 2 -1.</_>
        <_>
          9 8 1 2 3.</_></rects>
      <tilted>0</tilted></_>
    <_>
      <rects>
        <_>
          8 8 6 2 -1.</_>
        <_>
          10 8 2 2 3.</_></rects>
      <tilted>0</tilted></_>
    <_>
      <rects>
        <_>
          8 12 2 1 -1.</_>
        <_>
          9 12 1 1 2.</_></rects>
      <tilted>0</tilted></_>
    <_>
      <rects>
        <_>
          8 14 3 1 -1.</_>
        <_>
          9 14 1 1 3.</_></rects>
      <tilted>0</tilted></_>
    <_>
      <rects>
        <_>
          9 9 3 2 -1.</_>
        <_>
          10 9 1 2 3.</_></rects>
      <tilted>0</tilted></_>
    <_>
      <rects>
        <_>
          9 12 3 2 -1.</_>
        <_>
          10 12 1 2 3.</_></rects>
      <tilted>0</tilted></_>
    <_>
      <rects>
        <_>
          10 6 3 2 -1.</_>
        <_>
          11 6 1 2 3.</_></rects>
      <tilted>0</tilted></_>
    <_>
      <rects>
        <_>
          10 9 3 2 -1.</_>
        <_>
          11 9 1 2 3.</_></rects>
      <tilted>0</tilted></_>
    <_>
      <rects>
        <_>
          10 9 3 3 -1.</_>
        <_>
          11 9 1 3 3.</_></rects>
      <tilted>0</tilted></_>
    <_>
      <rects>
        <_>
          10 16 3 3 -1.</_>
        <_>
          11 16 1 3 3.</_></rects>
      <tilted>0</tilted></_>
    <_>
      <rects>
        <_>
          11 5 3 5 -1.</_>
        <_>
          12 5 1 5 3.</_></rects>
      <tilted>0</tilted></_>
    <_>
      <rects>
        <_>
          11 12 3 1 -1.</_>
        <_>
          12 12 1 1 3.</_></rects>
      <tilted>0</tilted></_>
    <_>
      <rects>
        <_>
          11 13 3 2 -1.</_>
        <_>
          12 13 1 2 3.</_></rects>
      <tilted>0</tilted></_>
    <_>
      <rects>
        <_>
          12 0 12 4 -1.</_>
        <_>
          16 0 4 4 3.</_></rects>
      <tilted>0</tilted></_>
    <_>
      <rects>
        <_>
          12 0 12 19 -1.</_>
        <_>
          16 0 4 19 3.</_></rects>
      <tilted>0</tilted></_>
    <_>
      <rects>
        <_>
          12 14 3 3 -1.</_>
        <_>
          13 14 1 3 3.</_></rects>
      <tilted>0</tilted></_>
    <_>
      <rects>
        <_>
          12 15 2 6 -1.</_>
        <_>
          12 15 1 3 2.</_>
        <_>
          13 18 1 3 2.</_></rects>
      <tilted>0</tilted></_>
    <_>
      <rects>
        <_>
          13 8 2 3 -1.</_>
        <_>
          14 8 1 3 2.</_></rects>
      <tilted>0</tilted></_>
    <_>
      <rects>
        <_>
          14 10 4 14 -1.</_>
        <_>
          14 17 4 7 2.</_></rects>
      <tilted>0</tilted></_>
    <_>
      <rects>
        <_>
          18 1 6 20 -1.</_>
        <_>
          18 1 3 10 2.</_>
        <_>
          21 11 3 10 2.</_></rects>
      <tilted>0</tilted></_>
    <_>
      <rects>
        <_>
          18 10 4 3 -1.</_>
        <_>
          20 10 2 3 2.</_></rects>
      <tilted>0</tilted></_>
    <_>
      <rects>
        <_>
          19 0 3 24 -1.</_>
        <_>
          19 8 3 8 3.</_></rects>
      <tilted>0</tilted></_>
    <_>
      <rects>
        <_>
          19 4 4 16 -1.</_>
        <_>
          19 4 2 8 2.</_>
        <_>
          21 12 2 8 2.</_></rects>
      <tilted>0</tilted></_>
    <_>
      <rects>
        <_>
          20 2 3 18 -1.</_>
        <_>
          20 8 3 6 3.</_></rects>
      <tilted>0</tilted></_>
    <_>
      <rects>
        <_>
          20 3 3 15 -1.</_>
        <_>
          20 8 3 5 3.</_></rects>
      <tilted>0</tilted></_>
    <_>
      <rects>
        <_>
          20 3 4 15 -1.</_>
        <_>
          20 8 4 5 3.</_></rects>
      <tilted>0</tilted></_></features></cascade>
</opencv_storage>
