<?xml version="1.0"?>
<opencv_storage>
<cascade>
  <stageType>BOOST</stageType>
  <featureType>HAAR</featureType>
  <height>24</height>
  <width>24</width>
  <stageParams>
    <boostType>GAB</boostType>
    <minHitRate>9.9500000476837158e-01</minHitRate>
    <maxFalseAlarm>5.0000000000000000e-01</maxFalseAlarm>
    <weightTrimRate>9.4999998807907104e-01</weightTrimRate>
    <maxDepth>1</maxDepth>
    <maxWeakCount>100</maxWeakCount></stageParams>
  <featureParams>
    <maxCatCount>0</maxCatCount>
    <featSize>1</featSize>
    <mode>BASIC</mode></featureParams>
  <stageNum>14</stageNum>
  <stages>
    <!-- stage 0 -->
    <_>
      <maxWeakCount>1</maxWeakCount>
      <stageThreshold>1.</stageThreshold>
      <weakClassifiers>
        <_>
          <internalNodes>
            0 -1 16 -1.0184128582477570e-01</internalNodes>
          <leafValues>
            1. -1.</leafValues></_></weakClassifiers></_>
    <!-- stage 1 -->
    <_>
      <maxWeakCount>2</maxWeakCount>
      <stageThreshold>-2.9038628935813904e-01</stageThreshold>
      <weakClassifiers>
        <_>
          <internalNodes>
            0 -1 19 1.0556389391422272e-01</internalNodes>
          <leafValues>
            -9.7647058963775635e-01 6.8888890743255615e-01</leafValues></_>
        <_>
          <internalNodes>
            0 -1 8 1.3927388191223145e-01</internalNodes>
          <leafValues>
            -9.3044936656951904e-01 6.8608433008193970e-01</leafValues></_></weakClassifiers></_>
    <!-- stage 2 -->
    <_>
      <maxWeakCount>2</maxWeakCount>
      <stageThreshold>-3.3887514472007751e-01</stageThreshold>
      <weakClassifiers>
        <_>
          <internalNodes>
            0 -1 4 1.4393907971680164e-02</internalNodes>
          <leafValues>
            -9.7468352317810059e-01 4.9019607901573181e-01</leafValues></_>
        <_>
          <internalNodes>
            0 -1 14 9.7659029066562653e-02</internalNodes>
          <leafValues>
            -8.2907122373580933e-01 6.3846576213836670e-01</leafValues></_></weakClassifiers></_>
    <!-- stage 3 -->
    <_>
      <maxWeakCount>2</maxWeakCount>
      <stageThreshold>-3.2250824570655823e-01</stageThreshold>
      <weakClassifiers>
        <_>
          <internalNodes>
            0 -1 11 2.9247573111206293e-03</internalNodes>
          <leafValues>
            5.0000000000000000e-01 -8.0000001192092896e-01</leafValues></_>
        <_>
          <internalNodes>
            0 -1 20 -1.1406584084033966e-01</internalNodes>
          <leafValues>
            5.7070142030715942e-01 -8.2250821590423584e-01</leafValues></_></weakClassifiers></_>
    <!-- stage 4 -->
    <_>
      <maxWeakCount>2</maxWeakCount>
      <stageThreshold>-5.0998020172119141e-01</stageThreshold>
      <weakClassifiers>
        <_>
          <internalNodes>
            0 -1 6 -1.7519149696454406e-04</internalNodes>
          <leafValues>
            -7.9069769382476807e-01 3.6363637447357178e-01</leafValues></_>
        <_>
          <internalNodes>
            0 -1 24 2.8993774321861565e-04</internalNodes>
          <leafValues>
            4.6521216630935669e-01 -8.7361657619476318e-01</leafValues></_></weakClassifiers></_>
    <!-- stage 5 -->
    <_>
      <maxWeakCount>1</maxWeakCount>
      <stageThreshold>1.3043478131294250e-01</stageThreshold>
      <weakClassifiers>
        <_>
          <internalNodes>
            0 -1 18 -3.2346867024898529e-02</internalNodes>
          <leafValues>
            1.3043478131294250e-01 -1.</leafValues></_></weakClassifiers></_>
    <!-- stage 6 -->
    <_>
      <maxWeakCount>2</maxWeakCount>
      <stageThreshold>-2.3158328235149384e-01</stageThreshold>
      <weakClassifiers>
        <_>
          <internalNodes>
            0 -1 15 -2.3838556371629238e-03</internalNodes>
          <leafValues>
            8.2608693838119507e-01 -6.6355139017105103e-01</leafValues></_>
        <_>
          <internalNodes>
            0 -1 22 -5.2373216021806002e-04</internalNodes>
          <leafValues>
            -1. 4.3196812272071838e-01</leafValues></_></weakClassifiers></_>
    <!-- stage 7 -->
    <_>
      <maxWeakCount>2</maxWeakCount>
      <stageThreshold>-5.9880185127258301e-01</stageThreshold>
      <weakClassifiers>
        <_>
          <internalNodes>
            0 -1 5 -2.3337333914241754e-05</internalNodes>
          <leafValues>
            1.6129031777381897e-01 -9.1176468133926392e-01</leafValues></_>
        <_>
          <internalNodes>
            0 -1 2 -6.8083849328104407e-05</internalNodes>
          <leafValues>
            -1. 3.1296285986900330e-01</leafValues></_></weakClassifiers></_>
    <!-- stage 8 -->
    <_>
      <maxWeakCount>2</maxWeakCount>
      <stageThreshold>-6.2811452150344849e-01</stageThreshold>
      <weakClassifiers>
        <_>
          <internalNodes>
            0 -1 1 -1.5101331518962979e-04</internalNodes>
          <leafValues>
            3.3333334326744080e-01 -9.2105263471603394e-01</leafValues></_>
        <_>
          <internalNodes>
            0 -1 23 -3.0122778844088316e-04</internalNodes>
          <leafValues>
            -9.6144789457321167e-01 2.9573497176170349e-01</leafValues></_></weakClassifiers></_>
    <!-- stage 9 -->
    <_>
      <maxWeakCount>4</maxWeakCount>
      <stageThreshold>-8.6623251438140869e-01</stageThreshold>
      <weakClassifiers>
        <_>
          <internalNodes>
            0 -1 7 1.6774289309978485e-02</internalNodes>
          <leafValues>
            -8.9473682641983032e-01 2.9629629850387573e-01</leafValues></_>
        <_>
          <internalNodes>
            0 -1 17 5.1323212683200836e-02</internalNodes>
          <leafValues>
            -9.6216785907745361e-01 3.6232009530067444e-01</leafValues></_>
        <_>
          <internalNodes>
            0 -1 2 6.2043691286817193e-05</internalNodes>
          <leafValues>
            5.2764469385147095e-01 -8.0326867103576660e-01</leafValues></_>
        <_>
          <internalNodes>
            0 -1 3 -8.8923276052810252e-05</internalNodes>
          <leafValues>
            -9.6431171894073486e-01 4.6945291757583618e-01</leafValues></_></weakClassifiers></_>
    <!-- stage 10 -->
    <_>
      <maxWeakCount>2</maxWeakCount>
      <stageThreshold>-1.5731295943260193e-01</stageThreshold>
      <weakClassifiers>
        <_>
          <internalNodes>
            0 -1 10 -2.0988117903470993e-03</internalNodes>
          <leafValues>
            1. -6.3963961601257324e-01</leafValues></_>
        <_>
          <internalNodes>
            0 -1 13 5.2520347526296973e-04</internalNodes>
          <leafValues>
            4.8232668638229370e-01 -9.3471056222915649e-01</leafValues></_></weakClassifiers></_>
    <!-- stage 11 -->
    <_>
      <maxWeakCount>2</maxWeakCount>
      <stageThreshold>-4.8023658990859985e-01</stageThreshold>
      <weakClassifiers>
        <_>
          <internalNodes>
            0 -1 13 -1.5541620086878538e-04</internalNodes>
          <leafValues>
            -8.5365855693817139e-01 3.7500000000000000e-01</leafValues></_>
        <_>
          <internalNodes>
            0 -1 0 -1.6686714661773294e-04</internalNodes>
          <leafValues>
            5.3317308425903320e-01 -8.5523658990859985e-01</leafValues></_></weakClassifiers></_>
    <!-- stage 12 -->
    <_>
      <maxWeakCount>3</maxWeakCount>
      <stageThreshold>-5.0429409742355347e-01</stageThreshold>
      <weakClassifiers>
        <_>
          <internalNodes>
            0 -1 12 6.4214470330625772e-04</internalNodes>
          <leafValues>
            1.3432836532592773e-01 -9.6825397014617920e-01</leafValues></_>
        <_>
          <internalNodes>
            0 -1 9 1.0733665840234607e-04</internalNodes>
          <leafValues>
            2.4296036362648010e-01 -9.5180416107177734e-01</leafValues></_>
        <_>
          <internalNodes>
            0 -1 26 -1.8229850684292614e-04</internalNodes>
          <leafValues>
            -1. 3.1318169832229614e-01</leafValues></_></weakClassifiers></_>
    <!-- stage 13 -->
    <_>
      <maxWeakCount>2</maxWeakCount>
      <stageThreshold>-3.5271209478378296e-01</stageThreshold>
      <weakClassifiers>
        <_>
          <internalNodes>
            0 -1 21 9.3726710474584252e-05</internalNodes>
          <leafValues>
            -6.8000000715255737e-01 5.3333336114883423e-01</leafValues></_>
        <_>
          <internalNodes>
            0 -1 25 -3.7342403084039688e-04</internalNodes>
          <leafValues>
            -1. 3.2728788256645203e-01</leafValues></_></weakClassifiers></_></stages>
  <features>
    <_>
      <rects>
        <_>
          0 0 1 14 -1.</_>
        <_>
          0 7 1 7 2.</_></rects>
      <tilted>0</tilted></_>
    <_>
      <rects>
        <_>
          0 0 2 8 -1.</_>
        <_>
          0 4 2 4 2.</_></rects>
      <tilted>0</tilted></_>
    <_>
      <rects>
        <_>
          0 1 1 2 -1.</_>
        <_>
          0 2 1 1 2.</_></rects>
      <tilted>0</tilted></_>
    <_>
      <rects>
        <_>
          0 10 1 3 -1.</_>
        <_>
          0 11 1 1 3.</_></rects>
      <tilted>0</tilted></_>
    <_>
      <rects>
        <_>
          0 12 12 1 -1.</_>
        <_>
          6 12 6 1 2.</_></rects>
      <tilted>0</tilted></_>
    <_>
      <rects>
        <_>
          1 1 1 8 -1.</_>
        <_>
          1 5 1 4 2.</_></rects>
      <tilted>0</tilted></_>
    <_>
      <rects>
        <_>
          2 22 17 2 -1.</_>
        <_>
          2 23 17 1 2.</_></rects>
      <tilted>0</tilted></_>
    <_>
      <rects>
        <_>
          3 2 4 16 -1.</_>
        <_>
          5 2 2 16 2.</_></rects>
      <tilted>0</tilted></_>
    <_>
      <rects>
        <_>
          3 6 20 18 -1.</_>
        <_>
          3 12 20 6 3.</_></rects>
      <tilted>0</tilted></_>
    <_>
      <rects>
        <_>
          4 1 3 2 -1.</_>
        <_>
          4 2 3 1 2.</_></rects>
      <tilted>0</tilted></_>
    <_>
      <rects>
        <_>
          5 11 8 3 -1.</_>
        <_>
          5 12 8 1 3.</_></rects>
      <tilted>0</tilted></_>
    <_>
      <rects>
        <_>
          6 7 6 8 -1.</_>
        <_>
          6 7 3 4 2.</_>
        <_>
          9 11 3 4 2.</_></rects>
      <tilted>0</tilted></_>
    <_>
      <rects>
        <_>
          9 0 9 3 -1.</_>
        <_>
          12 0 3 3 3.</_></rects>
      <tilted>0</tilted></_>
    <_>
      <rects>
        <_>
          9 1 15 1 -1.</_>
        <_>
          14 1 5 1 3.</_></rects>
      <tilted>0</tilted></_>
    <_>
      <rects>
        <_>
          10 0 2 24 -1.</_>
        <_>
          10 8 2 8 3.</_></rects>
      <tilted>0</tilted></_>
    <_>
      <rects>
        <_>
          10 8 3 10 -1.</_>
        <_>
          11 8 1 10 3.</_></rects>
      <tilted>0</tilted></_>
    <_>
      <rects>
        <_>
          10 8 14 10 -1.</_>
        <_>
          17 8 7 10 2.</_></rects>
      <tilted>0</tilted></_>
    <_>
      <rects>
        <_>
          11 1 12 10 -1.</_>
        <_>
          11 6 12 5 2.</_></rects>
      <tilted>0</tilted></_>
    <_>
      <rects>
        <_>
          11 13 3 10 -1.</_>
        <_>
          11 18 3 5 2.</_></rects>
      <tilted>0</tilted></_>
    <_>
      <rects>
        <_>
          12 0 3 24 -1.</_>
        <_>
          12 8 3 8 3.</_></rects>
      <tilted>0</tilted></_>
    <_>
      <rects>
        <_>
          14 4 10 14 -1.</_>
        <_>
          19 4 5 14 2.</_></rects>
      <tilted>0</tilted></_>
    <_>
      <rects>
        <_>
          15 16 2 2 -1.</_>
        <_>
          15 17 2 1 2.</_></rects>
      <tilted>0</tilted></_>
    <_>
      <rects>
        <_>
          20 18 4 4 -1.</_>
        <_>
          22 18 2 4 2.</_></rects>
      <tilted>0</tilted></_>
    <_>
      <rects>
        <_>
          22 10 2 9 -1.</_>
        <_>
          22 13 2 3 3.</_></rects>
      <tilted>0</tilted></_>
    <_>
      <rects>
        <_>
          23 3 1 12 -1.</_>
        <_>
          23 9 1 6 2.</_></rects>
      <tilted>0</tilted></_>
    <_>
      <rects>
        <_>
          23 6 1 12 -1.</_>
        <_>
          23 10 1 4 3.</_></rects>
      <tilted>0</tilted></_>
    <_>
      <rects>
        <_>
          23 12 1 9 -1.</_>
        <_>
          23 15 1 3 3.</_></rects>
      <tilted>0</tilted></_></features></cascade>
</opencv_storage>
