<?xml version="1.0"?>
<opencv_storage>
<stage7>
  <maxWeakCount>13</maxWeakCount>
  <stageThreshold>-1.3943729400634766e+00</stageThreshold>
  <weakClassifiers>
    <_>
      <internalNodes>
        0 -1 86038 6.3153617084026337e-02</internalNodes>
      <leafValues>
        -6.8465906381607056e-01 -2.8301885724067688e-01</leafValues></_>
    <_>
      <internalNodes>
        0 -1 2139 2.0069079473614693e-03</internalNodes>
      <leafValues>
        4.6560212969779968e-02 -6.1332553625106812e-01</leafValues></_>
    <_>
      <internalNodes>
        0 -1 38227 6.0052759945392609e-03</internalNodes>
      <leafValues>
        1.1934579163789749e-01 -5.4894268512725830e-01</leafValues></_>
    <_>
      <internalNodes>
        0 -1 104408 -1.9302058499306440e-03</internalNodes>
      <leafValues>
        4.0756499767303467e-01 -1.9189161062240601e-01</leafValues></_>
    <_>
      <internalNodes>
        0 -1 157106 6.4532575197517872e-04</internalNodes>
      <leafValues>
        -1.3821843266487122e-01 5.0436115264892578e-01</leafValues></_>
    <_>
      <internalNodes>
        0 -1 9538 -6.0801757499575615e-03</internalNodes>
      <leafValues>
        -4.0159943699836731e-01 1.9359153509140015e-01</leafValues></_>
    <_>
      <internalNodes>
        0 -1 11938 -3.7289236206561327e-03</internalNodes>
      <leafValues>
        -6.1457395553588867e-01 1.4019489288330078e-01</leafValues></_>
    <_>
      <internalNodes>
        0 -1 125385 -2.8397426009178162e-02</internalNodes>
      <leafValues>
        2.1083179116249084e-01 -3.8538819551467896e-01</leafValues></_>
    <_>
      <internalNodes>
        0 -1 162287 -3.9744032546877861e-03</internalNodes>
      <leafValues>
        -6.0111016035079956e-01 1.3127554953098297e-01</leafValues></_>
    <_>
      <internalNodes>
        0 -1 38307 -1.1757127009332180e-02</internalNodes>
      <leafValues>
        -6.2806576490402222e-01 1.1713624000549316e-01</leafValues></_>
    <_>
      <internalNodes>
        0 -1 161635 -1.1640653014183044e-02</internalNodes>
      <leafValues>
        -6.4914667606353760e-01 1.1640316992998123e-01</leafValues></_>
    <_>
      <internalNodes>
        0 -1 126071 1.7549790209159255e-03</internalNodes>
      <leafValues>
        -1.8908134102821350e-01 4.7465413808822632e-01</leafValues></_>
    <_>
      <internalNodes>
        0 -1 120128 -7.5184192974120378e-04</internalNodes>
      <leafValues>
        4.4903692603111267e-01 -1.6671501100063324e-01</leafValues></_></weakClassifiers></stage7>
</opencv_storage>
