<?xml version="1.0"?>
<opencv_storage>
<stage19>
  <maxWeakCount>19</maxWeakCount>
  <stageThreshold>-1.1717882156372070e+00</stageThreshold>
  <weakClassifiers>
    <_>
      <internalNodes>
        0 -1 147241 9.6383430063724518e-03</internalNodes>
      <leafValues>
        -5.9875261783599854e-01 6.6666670143604279e-02</leafValues></_>
    <_>
      <internalNodes>
        0 -1 133728 -1.6879660543054342e-03</internalNodes>
      <leafValues>
        -5.1021498441696167e-01 1.8364975228905678e-02</leafValues></_>
    <_>
      <internalNodes>
        0 -1 143103 3.1329385819844902e-04</internalNodes>
      <leafValues>
        -1.5326771140098572e-01 2.8474524617195129e-01</leafValues></_>
    <_>
      <internalNodes>
        0 -1 111430 -3.2531423494219780e-03</internalNodes>
      <leafValues>
        -1. 9.0937554836273193e-02</leafValues></_>
    <_>
      <internalNodes>
        0 -1 145646 -3.9266990497708321e-03</internalNodes>
      <leafValues>
        3.0223992466926575e-01 -1.5987564623355865e-01</leafValues></_>
    <_>
      <internalNodes>
        0 -1 143542 -1.9973503425717354e-02</internalNodes>
      <leafValues>
        -7.7182716131210327e-01 9.2450641095638275e-02</leafValues></_>
    <_>
      <internalNodes>
        0 -1 127234 1.1935204267501831e-02</internalNodes>
      <leafValues>
        -1.0822056233882904e-01 5.4911071062088013e-01</leafValues></_>
    <_>
      <internalNodes>
        0 -1 79779 2.9250230640172958e-02</internalNodes>
      <leafValues>
        -1.5850831568241119e-01 2.4958857893943787e-01</leafValues></_>
    <_>
      <internalNodes>
        0 -1 37975 5.8208107948303223e-03</internalNodes>
      <leafValues>
        1.2571571767330170e-01 -4.4701993465423584e-01</leafValues></_>
    <_>
      <internalNodes>
        0 -1 114044 -3.4982111537829041e-04</internalNodes>
      <leafValues>
        -1.8324035406112671e-01 2.4995669722557068e-01</leafValues></_>
    <_>
      <internalNodes>
        0 -1 25732 -1.2099376181140542e-03</internalNodes>
      <leafValues>
        -3.1606426835060120e-01 1.5500329434871674e-01</leafValues></_>
    <_>
      <internalNodes>
        0 -1 53260 -3.7700182292610407e-03</internalNodes>
      <leafValues>
        3.0619609355926514e-01 -1.5657989680767059e-01</leafValues></_>
    <_>
      <internalNodes>
        0 -1 41201 1.4092966448515654e-03</internalNodes>
      <leafValues>
        -1.9313901662826538e-01 2.4504534900188446e-01</leafValues></_>
    <_>
      <internalNodes>
        0 -1 29110 6.6336855292320251e-02</internalNodes>
      <leafValues>
        -1.1208843439817429e-01 4.2816567420959473e-01</leafValues></_>
    <_>
      <internalNodes>
        0 -1 48204 5.1953946240246296e-04</internalNodes>
      <leafValues>
        1.8636460602283478e-01 -2.5107404589653015e-01</leafValues></_>
    <_>
      <internalNodes>
        0 -1 162115 5.3578028455376625e-03</internalNodes>
      <leafValues>
        1.0957687348127365e-01 -3.7851014733314514e-01</leafValues></_>
    <_>
      <internalNodes>
        0 -1 79683 -1.1133974418044090e-02</internalNodes>
      <leafValues>
        -6.8123835325241089e-01 5.5021930485963821e-02</leafValues></_>
    <_>
      <internalNodes>
        0 -1 97669 -1.3781550806015730e-03</internalNodes>
      <leafValues>
        -3.6873188614845276e-01 1.3444045186042786e-01</leafValues></_>
    <_>
      <internalNodes>
        0 -1 72321 4.1585191502235830e-04</internalNodes>
      <leafValues>
        -1.9608290493488312e-01 2.1932622790336609e-01</leafValues></_></weakClassifiers></stage19>
</opencv_storage>
