<?xml version="1.0"?>
<opencv_storage>
<stage6>
  <maxWeakCount>14</maxWeakCount>
  <stageThreshold>-1.2947220802307129e+00</stageThreshold>
  <weakClassifiers>
    <_>
      <internalNodes>
        0 -1 117048 2.3482300341129303e-02</internalNodes>
      <leafValues>
        -6.0534429550170898e-01 3.4693878889083862e-01</leafValues></_>
    <_>
      <internalNodes>
        0 -1 2425 4.4028442353010178e-03</internalNodes>
      <leafValues>
        1.0911931097507477e-01 -5.5189919471740723e-01</leafValues></_>
    <_>
      <internalNodes>
        0 -1 81903 1.4264173805713654e-02</internalNodes>
      <leafValues>
        1.9328309595584869e-01 -5.2072405815124512e-01</leafValues></_>
    <_>
      <internalNodes>
        0 -1 152872 3.6107636988162994e-03</internalNodes>
      <leafValues>
        1.7454507946968079e-01 -5.5143547058105469e-01</leafValues></_>
    <_>
      <internalNodes>
        0 -1 45370 -1.6677156090736389e-01</internalNodes>
      <leafValues>
        -8.9432477951049805e-01 9.3851216137409210e-02</leafValues></_>
    <_>
      <internalNodes>
        0 -1 143198 -1.4864548575133085e-03</internalNodes>
      <leafValues>
        3.8049161434173584e-01 -2.3325067758560181e-01</leafValues></_>
    <_>
      <internalNodes>
        0 -1 60843 1.1338867247104645e-02</internalNodes>
      <leafValues>
        1.6809011995792389e-01 -5.3264468908309937e-01</leafValues></_>
    <_>
      <internalNodes>
        0 -1 162295 -3.6356230266392231e-03</internalNodes>
      <leafValues>
        -5.6649059057235718e-01 1.2654913961887360e-01</leafValues></_>
    <_>
      <internalNodes>
        0 -1 45331 1.2376889586448669e-01</internalNodes>
      <leafValues>
        1.0101260244846344e-01 -7.8908890485763550e-01</leafValues></_>
    <_>
      <internalNodes>
        0 -1 125823 -5.4658930748701096e-03</internalNodes>
      <leafValues>
        1.7271223664283752e-01 -4.7193700075149536e-01</leafValues></_>
    <_>
      <internalNodes>
        0 -1 25513 -5.3744362667202950e-03</internalNodes>
      <leafValues>
        -6.3736402988433838e-01 1.3379873335361481e-01</leafValues></_>
    <_>
      <internalNodes>
        0 -1 125092 -5.4564513266086578e-03</internalNodes>
      <leafValues>
        4.9404996633529663e-01 -1.7793498933315277e-01</leafValues></_>
    <_>
      <internalNodes>
        0 -1 162302 1.8608930986374617e-03</internalNodes>
      <leafValues>
        1.7096476256847382e-01 -5.2000105381011963e-01</leafValues></_>
    <_>
      <internalNodes>
        0 -1 120360 -5.3959432989358902e-04</internalNodes>
      <leafValues>
        3.5228618979454041e-01 -2.5022080540657043e-01</leafValues></_></weakClassifiers></stage6>
</opencv_storage>
