<?xml version="1.0"?>
<opencv_storage>
<cascade>
  <stageType>BOOST</stageType>
  <featureType>HAAR</featureType>
  <height>24</height>
  <width>24</width>
  <stageParams>
    <boostType>GAB</boostType>
    <minHitRate>9.9500000476837158e-01</minHitRate>
    <maxFalseAlarm>5.0000000000000000e-01</maxFalseAlarm>
    <weightTrimRate>9.4999998807907104e-01</weightTrimRate>
    <maxDepth>1</maxDepth>
    <maxWeakCount>100</maxWeakCount></stageParams>
  <featureParams>
    <maxCatCount>0</maxCatCount>
    <featSize>1</featSize>
    <mode>BASIC</mode></featureParams>
  <stageNum>18</stageNum>
  <stages>
    <!-- stage 0 -->
    <_>
      <maxWeakCount>3</maxWeakCount>
      <stageThreshold>-7.1386313438415527e-01</stageThreshold>
      <weakClassifiers>
        <_>
          <internalNodes>
            0 -1 26 9.1779053211212158e-02</internalNodes>
          <leafValues>
            -7.5135135650634766e-01 8.3333331346511841e-01</leafValues></_>
        <_>
          <internalNodes>
            0 -1 53 -8.7893381714820862e-03</internalNodes>
          <leafValues>
            9.6691673994064331e-01 -4.5368298888206482e-01</leafValues></_>
        <_>
          <internalNodes>
            0 -1 23 3.9948984049260616e-03</internalNodes>
          <leafValues>
            -8.3824127912521362e-01 4.9117118120193481e-01</leafValues></_></weakClassifiers></_>
    <!-- stage 1 -->
    <_>
      <maxWeakCount>3</maxWeakCount>
      <stageThreshold>-8.9745295047760010e-01</stageThreshold>
      <weakClassifiers>
        <_>
          <internalNodes>
            0 -1 52 -2.9260661453008652e-02</internalNodes>
          <leafValues>
            1. -7.6344084739685059e-01</leafValues></_>
        <_>
          <internalNodes>
            0 -1 44 -1.8267415463924408e-02</internalNodes>
          <leafValues>
            9.7526079416275024e-01 -6.0912072658538818e-01</leafValues></_>
        <_>
          <internalNodes>
            0 -1 24 9.5756240189075470e-03</internalNodes>
          <leafValues>
            4.7510862350463867e-01 -9.4894182682037354e-01</leafValues></_></weakClassifiers></_>
    <!-- stage 2 -->
    <_>
      <maxWeakCount>5</maxWeakCount>
      <stageThreshold>-8.8052725791931152e-01</stageThreshold>
      <weakClassifiers>
        <_>
          <internalNodes>
            0 -1 28 -7.9166693612933159e-03</internalNodes>
          <leafValues>
            1. -7.2631579637527466e-01</leafValues></_>
        <_>
          <internalNodes>
            0 -1 4 -7.1977958083152771e-02</internalNodes>
          <leafValues>
            4.6889793872833252e-01 -7.6753646135330200e-01</leafValues></_>
        <_>
          <internalNodes>
            0 -1 25 -2.6572174392640591e-03</internalNodes>
          <leafValues>
            -8.1777662038803101e-01 5.4130870103836060e-01</leafValues></_>
        <_>
          <internalNodes>
            0 -1 38 -6.2680132687091827e-03</internalNodes>
          <leafValues>
            9.3477427959442139e-01 -4.0699622035026550e-01</leafValues></_>
        <_>
          <internalNodes>
            0 -1 42 5.0526205450296402e-03</internalNodes>
          <leafValues>
            -6.7270815372467041e-01 6.0166341066360474e-01</leafValues></_></weakClassifiers></_>
    <!-- stage 3 -->
    <_>
      <maxWeakCount>3</maxWeakCount>
      <stageThreshold>-8.6337029933929443e-01</stageThreshold>
      <weakClassifiers>
        <_>
          <internalNodes>
            0 -1 39 -1.7358582699671388e-03</internalNodes>
          <leafValues>
            6.8000000715255737e-01 -7.3913043737411499e-01</leafValues></_>
        <_>
          <internalNodes>
            0 -1 46 -1.7285814974457026e-03</internalNodes>
          <leafValues>
            7.8103810548782349e-01 -5.1030468940734863e-01</leafValues></_>
        <_>
          <internalNodes>
            0 -1 55 3.3355657942593098e-03</internalNodes>
          <leafValues>
            4.5027598738670349e-01 -9.0527796745300293e-01</leafValues></_></weakClassifiers></_>
    <!-- stage 4 -->
    <_>
      <maxWeakCount>3</maxWeakCount>
      <stageThreshold>-8.2917469739913940e-01</stageThreshold>
      <weakClassifiers>
        <_>
          <internalNodes>
            0 -1 33 -3.1413510441780090e-03</internalNodes>
          <leafValues>
            8.8888889551162720e-01 -7.0680630207061768e-01</leafValues></_>
        <_>
          <internalNodes>
            0 -1 34 -4.4041303917765617e-03</internalNodes>
          <leafValues>
            7.2091084718704224e-01 -5.8274579048156738e-01</leafValues></_>
        <_>
          <internalNodes>
            0 -1 22 -3.3901189453899860e-03</internalNodes>
          <leafValues>
            -8.0742752552032471e-01 4.6037736535072327e-01</leafValues></_></weakClassifiers></_>
    <!-- stage 5 -->
    <_>
      <maxWeakCount>2</maxWeakCount>
      <stageThreshold>-5.5278879404067993e-01</stageThreshold>
      <weakClassifiers>
        <_>
          <internalNodes>
            0 -1 29 1.0161200165748596e-01</internalNodes>
          <leafValues>
            -7.3626375198364258e-01 5.5555558204650879e-01</leafValues></_>
        <_>
          <internalNodes>
            0 -1 57 8.7031312286853790e-03</internalNodes>
          <leafValues>
            1.8347491323947906e-01 -1.</leafValues></_></weakClassifiers></_>
    <!-- stage 6 -->
    <_>
      <maxWeakCount>5</maxWeakCount>
      <stageThreshold>-8.5015773773193359e-01</stageThreshold>
      <weakClassifiers>
        <_>
          <internalNodes>
            0 -1 17 3.4286901354789734e-01</internalNodes>
          <leafValues>
            -6.9948184490203857e-01 1.</leafValues></_>
        <_>
          <internalNodes>
            0 -1 59 -4.7451350837945938e-03</internalNodes>
          <leafValues>
            8.4794342517852783e-01 -4.7417414188385010e-01</leafValues></_>
        <_>
          <internalNodes>
            0 -1 2 -1.3972913846373558e-02</internalNodes>
          <leafValues>
            -1. 4.1824173927307129e-01</leafValues></_>
        <_>
          <internalNodes>
            0 -1 1 4.9621937796473503e-03</internalNodes>
          <leafValues>
            3.8277709484100342e-01 -8.5990679264068604e-01</leafValues></_>
        <_>
          <internalNodes>
            0 -1 43 -1.7649728804826736e-02</internalNodes>
          <leafValues>
            7.9815489053726196e-01 -4.7752055525779724e-01</leafValues></_></weakClassifiers></_>
    <!-- stage 7 -->
    <_>
      <maxWeakCount>5</maxWeakCount>
      <stageThreshold>-1.4141696691513062e+00</stageThreshold>
      <weakClassifiers>
        <_>
          <internalNodes>
            0 -1 30 9.2624604701995850e-02</internalNodes>
          <leafValues>
            -6.5656566619873047e-01 1.</leafValues></_>
        <_>
          <internalNodes>
            0 -1 27 -1.4156829565763474e-02</internalNodes>
          <leafValues>
            4.4038090109825134e-01 -6.5535968542098999e-01</leafValues></_>
        <_>
          <internalNodes>
            0 -1 0 4.2265001684427261e-03</internalNodes>
          <leafValues>
            3.3930388092994690e-01 -8.6446583271026611e-01</leafValues></_>
        <_>
          <internalNodes>
            0 -1 3 -3.8590542972087860e-03</internalNodes>
          <leafValues>
            3.7887078523635864e-01 -6.9836288690567017e-01</leafValues></_>
        <_>
          <internalNodes>
            0 -1 54 -5.5126915685832500e-03</internalNodes>
          <leafValues>
            -1. 2.5681468844413757e-01</leafValues></_></weakClassifiers></_>
    <!-- stage 8 -->
    <_>
      <maxWeakCount>4</maxWeakCount>
      <stageThreshold>-9.5988923311233521e-01</stageThreshold>
      <weakClassifiers>
        <_>
          <internalNodes>
            0 -1 49 -4.7549889422953129e-03</internalNodes>
          <leafValues>
            8.5714286565780640e-01 -6.7179489135742188e-01</leafValues></_>
        <_>
          <internalNodes>
            0 -1 56 6.3492904882878065e-04</internalNodes>
          <leafValues>
            -7.0914703607559204e-01 3.0592796206474304e-01</leafValues></_>
        <_>
          <internalNodes>
            0 -1 66 -1.4692144468426704e-02</internalNodes>
          <leafValues>
            -1. 2.7182710170745850e-01</leafValues></_>
        <_>
          <internalNodes>
            0 -1 6 -6.0583888553082943e-03</internalNodes>
          <leafValues>
            -8.6584943532943726e-01 2.7109742164611816e-01</leafValues></_></weakClassifiers></_>
    <!-- stage 9 -->
    <_>
      <maxWeakCount>4</maxWeakCount>
      <stageThreshold>-8.3635383844375610e-01</stageThreshold>
      <weakClassifiers>
        <_>
          <internalNodes>
            0 -1 14 -1.5564659610390663e-02</internalNodes>
          <leafValues>
            8.5714286565780640e-01 -6.7179489135742188e-01</leafValues></_>
        <_>
          <internalNodes>
            0 -1 9 3.7659017834812403e-03</internalNodes>
          <leafValues>
            1.9784700870513916e-01 -8.4400391578674316e-01</leafValues></_>
        <_>
          <internalNodes>
            0 -1 60 3.1833631510380656e-05</internalNodes>
          <leafValues>
            -6.8268692493438721e-01 3.7757110595703125e-01</leafValues></_>
        <_>
          <internalNodes>
            0 -1 20 -2.8921575285494328e-03</internalNodes>
          <leafValues>
            -8.6585760116577148e-01 3.2028093934059143e-01</leafValues></_></weakClassifiers></_>
    <!-- stage 10 -->
    <_>
      <maxWeakCount>2</maxWeakCount>
      <stageThreshold>-4.2266210913658142e-01</stageThreshold>
      <weakClassifiers>
        <_>
          <internalNodes>
            0 -1 41 -3.8194914814084768e-03</internalNodes>
          <leafValues>
            4.7826087474822998e-01 -6.9892472028732300e-01</leafValues></_>
        <_>
          <internalNodes>
            0 -1 64 6.6697616130113602e-03</internalNodes>
          <leafValues>
            2.7626261115074158e-01 -8.8763612508773804e-01</leafValues></_></weakClassifiers></_>
    <!-- stage 11 -->
    <_>
      <maxWeakCount>4</maxWeakCount>
      <stageThreshold>-7.5096464157104492e-01</stageThreshold>
      <weakClassifiers>
        <_>
          <internalNodes>
            0 -1 47 -3.4308577887713909e-03</internalNodes>
          <leafValues>
            3.3333334326744080e-01 -7.2067040205001831e-01</leafValues></_>
        <_>
          <internalNodes>
            0 -1 19 6.1814894434064627e-04</internalNodes>
          <leafValues>
            2.2107693552970886e-01 -8.2102352380752563e-01</leafValues></_>
        <_>
          <internalNodes>
            0 -1 51 -1.5204576775431633e-03</internalNodes>
          <leafValues>
            6.6456824541091919e-01 -4.5019537210464478e-01</leafValues></_>
        <_>
          <internalNodes>
            0 -1 40 3.9403780829161406e-04</internalNodes>
          <leafValues>
            3.1999143958091736e-01 -9.1593945026397705e-01</leafValues></_></weakClassifiers></_>
    <!-- stage 12 -->
    <_>
      <maxWeakCount>4</maxWeakCount>
      <stageThreshold>-9.9383431673049927e-01</stageThreshold>
      <weakClassifiers>
        <_>
          <internalNodes>
            0 -1 11 -4.8988826572895050e-02</internalNodes>
          <leafValues>
            5.6521737575531006e-01 -7.0967739820480347e-01</leafValues></_>
        <_>
          <internalNodes>
            0 -1 12 -4.1528195142745972e-03</internalNodes>
          <leafValues>
            -8.4998965263366699e-01 2.0035393536090851e-01</leafValues></_>
        <_>
          <internalNodes>
            0 -1 5 -7.4572081211954355e-04</internalNodes>
          <leafValues>
            -7.2322064638137817e-01 3.1751543283462524e-01</leafValues></_>
        <_>
          <internalNodes>
            0 -1 8 2.7943700551986694e-02</internalNodes>
          <leafValues>
            3.0798688530921936e-01 -8.0202627182006836e-01</leafValues></_></weakClassifiers></_>
    <!-- stage 13 -->
    <_>
      <maxWeakCount>4</maxWeakCount>
      <stageThreshold>-8.1101840734481812e-01</stageThreshold>
      <weakClassifiers>
        <_>
          <internalNodes>
            0 -1 7 1.0167820379137993e-02</internalNodes>
          <leafValues>
            -7.0329672098159790e-01 3.3333334326744080e-01</leafValues></_>
        <_>
          <internalNodes>
            0 -1 35 2.1775618661195040e-03</internalNodes>
          <leafValues>
            -6.7994129657745361e-01 2.7951869368553162e-01</leafValues></_>
        <_>
          <internalNodes>
            0 -1 62 1.0947964619845152e-03</internalNodes>
          <leafValues>
            3.2342287898063660e-01 -7.7796435356140137e-01</leafValues></_>
        <_>
          <internalNodes>
            0 -1 48 -3.8721732562407851e-04</internalNodes>
          <leafValues>
            3.9072391390800476e-01 -6.3565009832382202e-01</leafValues></_></weakClassifiers></_>
    <!-- stage 14 -->
    <_>
      <maxWeakCount>3</maxWeakCount>
      <stageThreshold>-3.9655494689941406e-01</stageThreshold>
      <weakClassifiers>
        <_>
          <internalNodes>
            0 -1 21 -1.6032864153385162e-01</internalNodes>
          <leafValues>
            2.9411765933036804e-01 -7.3714286088943481e-01</leafValues></_>
        <_>
          <internalNodes>
            0 -1 10 7.6753743924200535e-03</internalNodes>
          <leafValues>
            1.3043424487113953e-01 -9.6325808763504028e-01</leafValues></_>
        <_>
          <internalNodes>
            0 -1 58 -6.0966024175286293e-03</internalNodes>
          <leafValues>
            -7.9719418287277222e-01 2.7258551120758057e-01</leafValues></_></weakClassifiers></_>
    <!-- stage 15 -->
    <_>
      <maxWeakCount>3</maxWeakCount>
      <stageThreshold>-4.8542955517768860e-01</stageThreshold>
      <weakClassifiers>
        <_>
          <internalNodes>
            0 -1 50 -8.1463769078254700e-02</internalNodes>
          <leafValues>
            5.4545456171035767e-01 -7.0053476095199585e-01</leafValues></_>
        <_>
          <internalNodes>
            0 -1 45 -1.6001094132661819e-02</internalNodes>
          <leafValues>
            6.2735420465469360e-01 -4.5779684185981750e-01</leafValues></_>
        <_>
          <internalNodes>
            0 -1 15 6.4873113296926022e-03</internalNodes>
          <leafValues>
            -4.1224899888038635e-01 7.2411489486694336e-01</leafValues></_></weakClassifiers></_>
    <!-- stage 16 -->
    <_>
      <maxWeakCount>5</maxWeakCount>
      <stageThreshold>-9.3234103918075562e-01</stageThreshold>
      <weakClassifiers>
        <_>
          <internalNodes>
            0 -1 31 -4.3801236897706985e-03</internalNodes>
          <leafValues>
            3.5714286565780640e-01 -7.1270716190338135e-01</leafValues></_>
        <_>
          <internalNodes>
            0 -1 63 4.3684081174433231e-03</internalNodes>
          <leafValues>
            1.6085556149482727e-01 -9.6678209304809570e-01</leafValues></_>
        <_>
          <internalNodes>
            0 -1 13 2.5361846201121807e-03</internalNodes>
          <leafValues>
            2.6458778977394104e-01 -7.9212552309036255e-01</leafValues></_>
        <_>
          <internalNodes>
            0 -1 36 2.8914418071508408e-03</internalNodes>
          <leafValues>
            2.7740183472633362e-01 -8.7799441814422607e-01</leafValues></_>
        <_>
          <internalNodes>
            0 -1 61 -9.6351997926831245e-03</internalNodes>
          <leafValues>
            -9.6752005815505981e-01 2.3291718959808350e-01</leafValues></_></weakClassifiers></_>
    <!-- stage 17 -->
    <_>
      <maxWeakCount>5</maxWeakCount>
      <stageThreshold>-1.1679369211196899e+00</stageThreshold>
      <weakClassifiers>
        <_>
          <internalNodes>
            0 -1 18 7.1933688595890999e-03</internalNodes>
          <leafValues>
            -6.7875647544860840e-01 7.5000000000000000e-01</leafValues></_>
        <_>
          <internalNodes>
            0 -1 37 -6.7788027226924896e-03</internalNodes>
          <leafValues>
            5.4552692174911499e-01 -5.8031749725341797e-01</leafValues></_>
        <_>
          <internalNodes>
            0 -1 16 -7.5846896506845951e-03</internalNodes>
          <leafValues>
            -7.6081681251525879e-01 3.8826903700828552e-01</leafValues></_>
        <_>
          <internalNodes>
            0 -1 65 -8.4602666902355850e-05</internalNodes>
          <leafValues>
            4.4942373037338257e-01 -6.5417265892028809e-01</leafValues></_>
        <_>
          <internalNodes>
            0 -1 32 -1.6754112439230084e-03</internalNodes>
          <leafValues>
            -7.4655574560165405e-01 3.5996192693710327e-01</leafValues></_></weakClassifiers></_></stages>
  <features>
    <_>
      <rects>
        <_>
          0 0 1 24 -1.</_>
        <_>
          0 8 1 8 3.</_></rects>
      <tilted>0</tilted></_>
    <_>
      <rects>
        <_>
          0 4 2 14 -1.</_>
        <_>
          0 11 2 7 2.</_></rects>
      <tilted>0</tilted></_>
    <_>
      <rects>
        <_>
          0 5 3 18 -1.</_>
        <_>
          0 11 3 6 3.</_></rects>
      <tilted>0</tilted></_>
    <_>
      <rects>
        <_>
          0 7 8 7 -1.</_>
        <_>
          4 7 4 7 2.</_></rects>
      <tilted>0</tilted></_>
    <_>
      <rects>
        <_>
          0 7 12 13 -1.</_>
        <_>
          4 7 4 13 3.</_></rects>
      <tilted>0</tilted></_>
    <_>
      <rects>
        <_>
          0 20 15 4 -1.</_>
        <_>
          0 22 15 2 2.</_></rects>
      <tilted>0</tilted></_>
    <_>
      <rects>
        <_>
          1 0 18 1 -1.</_>
        <_>
          7 0 6 1 3.</_></rects>
      <tilted>0</tilted></_>
    <_>
      <rects>
        <_>
          1 3 19 3 -1.</_>
        <_>
          1 4 19 1 3.</_></rects>
      <tilted>0</tilted></_>
    <_>
      <rects>
        <_>
          1 13 22 10 -1.</_>
        <_>
          1 13 11 5 2.</_>
        <_>
          12 18 11 5 2.</_></rects>
      <tilted>0</tilted></_>
    <_>
      <rects>
        <_>
          1 20 16 2 -1.</_>
        <_>
          9 20 8 2 2.</_></rects>
      <tilted>0</tilted></_>
    <_>
      <rects>
        <_>
          2 0 12 2 -1.</_>
        <_>
          8 0 6 2 2.</_></rects>
      <tilted>0</tilted></_>
    <_>
      <rects>
        <_>
          2 8 9 5 -1.</_>
        <_>
          5 8 3 5 3.</_></rects>
      <tilted>0</tilted></_>
    <_>
      <rects>
        <_>
          2 10 5 10 -1.</_>
        <_>
          2 15 5 5 2.</_></rects>
      <tilted>0</tilted></_>
    <_>
      <rects>
        <_>
          3 0 3 12 -1.</_>
        <_>
          3 4 3 4 3.</_></rects>
      <tilted>0</tilted></_>
    <_>
      <rects>
        <_>
          3 10 3 11 -1.</_>
        <_>
          4 10 1 11 3.</_></rects>
      <tilted>0</tilted></_>
    <_>
      <rects>
        <_>
          3 19 14 4 -1.</_>
        <_>
          3 21 14 2 2.</_></rects>
      <tilted>0</tilted></_>
    <_>
      <rects>
        <_>
          4 0 18 1 -1.</_>
        <_>
          10 0 6 1 3.</_></rects>
      <tilted>0</tilted></_>
    <_>
      <rects>
        <_>
          4 1 15 18 -1.</_>
        <_>
          9 1 5 18 3.</_></rects>
      <tilted>0</tilted></_>
    <_>
      <rects>
        <_>
          4 11 3 10 -1.</_>
        <_>
          5 11 1 10 3.</_></rects>
      <tilted>0</tilted></_>
    <_>
      <rects>
        <_>
          4 20 18 4 -1.</_>
        <_>
          10 20 6 4 3.</_></rects>
      <tilted>0</tilted></_>
    <_>
      <rects>
        <_>
          4 22 12 1 -1.</_>
        <_>
          10 22 6 1 2.</_></rects>
      <tilted>0</tilted></_>
    <_>
      <rects>
        <_>
          5 0 14 18 -1.</_>
        <_>
          5 9 14 9 2.</_></rects>
      <tilted>0</tilted></_>
    <_>
      <rects>
        <_>
          6 1 18 1 -1.</_>
        <_>
          15 1 9 1 2.</_></rects>
      <tilted>0</tilted></_>
    <_>
      <rects>
        <_>
          6 11 9 5 -1.</_>
        <_>
          9 11 3 5 3.</_></rects>
      <tilted>0</tilted></_>
    <_>
      <rects>
        <_>
          6 20 18 4 -1.</_>
        <_>
          12 20 6 4 3.</_></rects>
      <tilted>0</tilted></_>
    <_>
      <rects>
        <_>
          6 23 18 1 -1.</_>
        <_>
          12 23 6 1 3.</_></rects>
      <tilted>0</tilted></_>
    <_>
      <rects>
        <_>
          7 5 9 13 -1.</_>
        <_>
          10 5 3 13 3.</_></rects>
      <tilted>0</tilted></_>
    <_>
      <rects>
        <_>
          7 18 9 6 -1.</_>
        <_>
          7 20 9 2 3.</_></rects>
      <tilted>0</tilted></_>
    <_>
      <rects>
        <_>
          8 0 7 3 -1.</_>
        <_>
          8 1 7 1 3.</_></rects>
      <tilted>0</tilted></_>
    <_>
      <rects>
        <_>
          8 1 9 14 -1.</_>
        <_>
          11 1 3 14 3.</_></rects>
      <tilted>0</tilted></_>
    <_>
      <rects>
        <_>
          8 2 9 6 -1.</_>
        <_>
          11 2 3 6 3.</_></rects>
      <tilted>0</tilted></_>
    <_>
      <rects>
        <_>
          8 13 3 5 -1.</_>
        <_>
          9 13 1 5 3.</_></rects>
      <tilted>0</tilted></_>
    <_>
      <rects>
        <_>
          8 14 6 3 -1.</_>
        <_>
          8 15 6 1 3.</_></rects>
      <tilted>0</tilted></_>
    <_>
      <rects>
        <_>
          8 17 3 2 -1.</_>
        <_>
          9 17 1 2 3.</_></rects>
      <tilted>0</tilted></_>
    <_>
      <rects>
        <_>
          8 18 6 1 -1.</_>
        <_>
          10 18 2 1 3.</_></rects>
      <tilted>0</tilted></_>
    <_>
      <rects>
        <_>
          8 19 16 2 -1.</_>
        <_>
          8 19 8 1 2.</_>
        <_>
          16 20 8 1 2.</_></rects>
      <tilted>0</tilted></_>
    <_>
      <rects>
        <_>
          9 5 10 2 -1.</_>
        <_>
          9 6 10 1 2.</_></rects>
      <tilted>0</tilted></_>
    <_>
      <rects>
        <_>
          9 9 1 15 -1.</_>
        <_>
          9 14 1 5 3.</_></rects>
      <tilted>0</tilted></_>
    <_>
      <rects>
        <_>
          9 14 3 5 -1.</_>
        <_>
          10 14 1 5 3.</_></rects>
      <tilted>0</tilted></_>
    <_>
      <rects>
        <_>
          9 19 3 1 -1.</_>
        <_>
          10 19 1 1 3.</_></rects>
      <tilted>0</tilted></_>
    <_>
      <rects>
        <_>
          10 7 1 2 -1.</_>
        <_>
          10 8 1 1 2.</_></rects>
      <tilted>0</tilted></_>
    <_>
      <rects>
        <_>
          10 20 3 3 -1.</_>
        <_>
          10 21 3 1 3.</_></rects>
      <tilted>0</tilted></_>
    <_>
      <rects>
        <_>
          11 1 4 22 -1.</_>
        <_>
          11 1 2 11 2.</_>
        <_>
          13 12 2 11 2.</_></rects>
      <tilted>0</tilted></_>
    <_>
      <rects>
        <_>
          11 6 6 4 -1.</_>
        <_>
          13 6 2 4 3.</_></rects>
      <tilted>0</tilted></_>
    <_>
      <rects>
        <_>
          11 8 6 4 -1.</_>
        <_>
          13 8 2 4 3.</_></rects>
      <tilted>0</tilted></_>
    <_>
      <rects>
        <_>
          11 9 6 3 -1.</_>
        <_>
          13 9 2 3 3.</_></rects>
      <tilted>0</tilted></_>
    <_>
      <rects>
        <_>
          11 18 3 1 -1.</_>
        <_>
          12 18 1 1 3.</_></rects>
      <tilted>0</tilted></_>
    <_>
      <rects>
        <_>
          11 18 3 2 -1.</_>
        <_>
          12 18 1 2 3.</_></rects>
      <tilted>0</tilted></_>
    <_>
      <rects>
        <_>
          12 8 6 2 -1.</_>
        <_>
          12 8 3 1 2.</_>
        <_>
          15 9 3 1 2.</_></rects>
      <tilted>0</tilted></_>
    <_>
      <rects>
        <_>
          12 17 3 2 -1.</_>
        <_>
          13 17 1 2 3.</_></rects>
      <tilted>0</tilted></_>
    <_>
      <rects>
        <_>
          13 4 6 16 -1.</_>
        <_>
          16 4 3 16 2.</_></rects>
      <tilted>0</tilted></_>
    <_>
      <rects>
        <_>
          13 18 3 2 -1.</_>
        <_>
          14 18 1 2 3.</_></rects>
      <tilted>0</tilted></_>
    <_>
      <rects>
        <_>
          14 7 6 10 -1.</_>
        <_>
          16 7 2 10 3.</_></rects>
      <tilted>0</tilted></_>
    <_>
      <rects>
        <_>
          14 16 3 8 -1.</_>
        <_>
          15 16 1 8 3.</_></rects>
      <tilted>0</tilted></_>
    <_>
      <rects>
        <_>
          14 21 10 3 -1.</_>
        <_>
          19 21 5 3 2.</_></rects>
      <tilted>0</tilted></_>
    <_>
      <rects>
        <_>
          16 9 6 14 -1.</_>
        <_>
          16 9 3 7 2.</_>
        <_>
          19 16 3 7 2.</_></rects>
      <tilted>0</tilted></_>
    <_>
      <rects>
        <_>
          16 16 3 8 -1.</_>
        <_>
          16 20 3 4 2.</_></rects>
      <tilted>0</tilted></_>
    <_>
      <rects>
        <_>
          17 5 6 6 -1.</_>
        <_>
          17 8 6 3 2.</_></rects>
      <tilted>0</tilted></_>
    <_>
      <rects>
        <_>
          17 13 4 9 -1.</_>
        <_>
          17 16 4 3 3.</_></rects>
      <tilted>0</tilted></_>
    <_>
      <rects>
        <_>
          17 16 3 3 -1.</_>
        <_>
          18 16 1 3 3.</_></rects>
      <tilted>0</tilted></_>
    <_>
      <rects>
        <_>
          17 19 1 2 -1.</_>
        <_>
          17 20 1 1 2.</_></rects>
      <tilted>0</tilted></_>
    <_>
      <rects>
        <_>
          18 9 5 9 -1.</_>
        <_>
          18 12 5 3 3.</_></rects>
      <tilted>0</tilted></_>
    <_>
      <rects>
        <_>
          19 19 5 4 -1.</_>
        <_>
          19 21 5 2 2.</_></rects>
      <tilted>0</tilted></_>
    <_>
      <rects>
        <_>
          20 2 4 6 -1.</_>
        <_>
          20 5 4 3 2.</_></rects>
      <tilted>0</tilted></_>
    <_>
      <rects>
        <_>
          20 7 4 15 -1.</_>
        <_>
          20 12 4 5 3.</_></rects>
      <tilted>0</tilted></_>
    <_>
      <rects>
        <_>
          20 20 1 4 -1.</_>
        <_>
          20 22 1 2 2.</_></rects>
      <tilted>0</tilted></_>
    <_>
      <rects>
        <_>
          22 3 2 21 -1.</_>
        <_>
          22 10 2 7 3.</_></rects>
      <tilted>0</tilted></_></features></cascade>
</opencv_storage>
