<?xml version="1.0"?>
<opencv_storage>
<cascade>
  <stageType>BOOST</stageType>
  <featureType>HAAR</featureType>
  <height>24</height>
  <width>24</width>
  <stageParams>
    <boostType>GAB</boostType>
    <minHitRate>9.9500000476837158e-01</minHitRate>
    <maxFalseAlarm>5.0000000000000000e-01</maxFalseAlarm>
    <weightTrimRate>9.4999998807907104e-01</weightTrimRate>
    <maxDepth>1</maxDepth>
    <maxWeakCount>100</maxWeakCount></stageParams>
  <featureParams>
    <maxCatCount>0</maxCatCount>
    <featSize>1</featSize>
    <mode>BASIC</mode></featureParams>
  <stageNum>17</stageNum>
  <stages>
    <!-- stage 0 -->
    <_>
      <maxWeakCount>2</maxWeakCount>
      <stageThreshold>-8.8473543524742126e-02</stageThreshold>
      <weakClassifiers>
        <_>
          <internalNodes>
            0 -1 22 1.9299551844596863e-01</internalNodes>
          <leafValues>
            -9.8290598392486572e-01 1.</leafValues></_>
        <_>
          <internalNodes>
            0 -1 14 1.1125977337360382e-01</internalNodes>
          <leafValues>
            -1. 8.9443242549896240e-01</leafValues></_></weakClassifiers></_>
    <!-- stage 1 -->
    <_>
      <maxWeakCount>2</maxWeakCount>
      <stageThreshold>-2.3264481127262115e-01</stageThreshold>
      <weakClassifiers>
        <_>
          <internalNodes>
            0 -1 16 2.9274681210517883e-01</internalNodes>
          <leafValues>
            -9.5555555820465088e-01 7.6923078298568726e-01</leafValues></_>
        <_>
          <internalNodes>
            0 -1 13 1.9344410300254822e-01</internalNodes>
          <leafValues>
            -8.2020252943038940e-01 7.2291076183319092e-01</leafValues></_></weakClassifiers></_>
    <!-- stage 2 -->
    <_>
      <maxWeakCount>2</maxWeakCount>
      <stageThreshold>-3.0177572369575500e-01</stageThreshold>
      <weakClassifiers>
        <_>
          <internalNodes>
            0 -1 33 7.2368979454040527e-03</internalNodes>
          <leafValues>
            -8.0876493453979492e-01 8.7179487943649292e-01</leafValues></_>
        <_>
          <internalNodes>
            0 -1 9 -7.4028130620718002e-04</internalNodes>
          <leafValues>
            -1. 5.0698924064636230e-01</leafValues></_></weakClassifiers></_>
    <!-- stage 3 -->
    <_>
      <maxWeakCount>2</maxWeakCount>
      <stageThreshold>-5.0837218761444092e-01</stageThreshold>
      <weakClassifiers>
        <_>
          <internalNodes>
            0 -1 30 -6.7758373916149139e-03</internalNodes>
          <leafValues>
            5.4954952001571655e-01 -8.9908254146575928e-01</leafValues></_>
        <_>
          <internalNodes>
            0 -1 0 -1.7072188202291727e-03</internalNodes>
          <leafValues>
            -1. 3.9071035385131836e-01</leafValues></_></weakClassifiers></_>
    <!-- stage 4 -->
    <_>
      <maxWeakCount>2</maxWeakCount>
      <stageThreshold>-5.1817131042480469e-01</stageThreshold>
      <weakClassifiers>
        <_>
          <internalNodes>
            0 -1 24 1.6436725854873657e-02</internalNodes>
          <leafValues>
            -8.6784142255783081e-01 6.0784316062927246e-01</leafValues></_>
        <_>
          <internalNodes>
            0 -1 15 -9.0561877004802227e-04</internalNodes>
          <leafValues>
            -1. 3.4967011213302612e-01</leafValues></_></weakClassifiers></_>
    <!-- stage 5 -->
    <_>
      <maxWeakCount>2</maxWeakCount>
      <stageThreshold>-5.0645595788955688e-01</stageThreshold>
      <weakClassifiers>
        <_>
          <internalNodes>
            0 -1 34 -8.2973772659897804e-03</internalNodes>
          <leafValues>
            4.6788990497589111e-01 -8.4545457363128662e-01</leafValues></_>
        <_>
          <internalNodes>
            0 -1 1 2.8846550732851028e-02</internalNodes>
          <leafValues>
            -9.7434586286544800e-01 4.0944650769233704e-01</leafValues></_></weakClassifiers></_>
    <!-- stage 6 -->
    <_>
      <maxWeakCount>3</maxWeakCount>
      <stageThreshold>-1.2189916372299194e+00</stageThreshold>
      <weakClassifiers>
        <_>
          <internalNodes>
            0 -1 27 -6.1546331271529198e-03</internalNodes>
          <leafValues>
            7.5757575035095215e-01 -7.0342206954956055e-01</leafValues></_>
        <_>
          <internalNodes>
            0 -1 21 -1.4405836118385196e-03</internalNodes>
          <leafValues>
            -8.7160253524780273e-01 4.3283987045288086e-01</leafValues></_>
        <_>
          <internalNodes>
            0 -1 6 -9.4088900368660688e-04</internalNodes>
          <leafValues>
            -1. 3.5603299736976624e-01</leafValues></_></weakClassifiers></_>
    <!-- stage 7 -->
    <_>
      <maxWeakCount>2</maxWeakCount>
      <stageThreshold>-6.7173588275909424e-01</stageThreshold>
      <weakClassifiers>
        <_>
          <internalNodes>
            0 -1 21 -9.6859456971287727e-04</internalNodes>
          <leafValues>
            -9.2432433366775513e-01 2.5000000000000000e-01</leafValues></_>
        <_>
          <internalNodes>
            0 -1 28 5.0389807671308517e-02</internalNodes>
          <leafValues>
            -9.2173588275909424e-01 3.0802991986274719e-01</leafValues></_></weakClassifiers></_>
    <!-- stage 8 -->
    <_>
      <maxWeakCount>3</maxWeakCount>
      <stageThreshold>-6.2842506170272827e-01</stageThreshold>
      <weakClassifiers>
        <_>
          <internalNodes>
            0 -1 11 -5.8080215239897370e-04</internalNodes>
          <leafValues>
            -9.8675495386123657e-01 7.8651688992977142e-02</leafValues></_>
        <_>
          <internalNodes>
            0 -1 8 -1.4224810911400709e-05</internalNodes>
          <leafValues>
            2.7046737074851990e-01 -9.4252479076385498e-01</leafValues></_>
        <_>
          <internalNodes>
            0 -1 38 -2.6868737768381834e-03</internalNodes>
          <leafValues>
            2.8593605756759644e-01 -9.7754406929016113e-01</leafValues></_></weakClassifiers></_>
    <!-- stage 9 -->
    <_>
      <maxWeakCount>4</maxWeakCount>
      <stageThreshold>-1.0871188640594482e+00</stageThreshold>
      <weakClassifiers>
        <_>
          <internalNodes>
            0 -1 19 6.9608874619007111e-03</internalNodes>
          <leafValues>
            -7.5732219219207764e-01 5.1111114025115967e-01</leafValues></_>
        <_>
          <internalNodes>
            0 -1 39 9.9834310822188854e-04</internalNodes>
          <leafValues>
            2.8213882446289063e-01 -9.4735318422317505e-01</leafValues></_>
        <_>
          <internalNodes>
            0 -1 10 -3.2619901001453400e-02</internalNodes>
          <leafValues>
            3.3984339237213135e-01 -9.1475063562393188e-01</leafValues></_>
        <_>
          <internalNodes>
            0 -1 7 1.2940170709043741e-03</internalNodes>
          <leafValues>
            3.5382071137428284e-01 -9.5177888870239258e-01</leafValues></_></weakClassifiers></_>
    <!-- stage 10 -->
    <_>
      <maxWeakCount>3</maxWeakCount>
      <stageThreshold>-1.2217034101486206e+00</stageThreshold>
      <weakClassifiers>
        <_>
          <internalNodes>
            0 -1 2 1.0258641093969345e-02</internalNodes>
          <leafValues>
            -6.1870503425598145e-01 7.2549021244049072e-01</leafValues></_>
        <_>
          <internalNodes>
            0 -1 18 1.1514788493514061e-02</internalNodes>
          <leafValues>
            -9.3034988641738892e-01 3.4150019288063049e-01</leafValues></_>
        <_>
          <internalNodes>
            0 -1 36 -1.4831469343334902e-05</internalNodes>
          <leafValues>
            3.2735157012939453e-01 -9.6938753128051758e-01</leafValues></_></weakClassifiers></_>
    <!-- stage 11 -->
    <_>
      <maxWeakCount>4</maxWeakCount>
      <stageThreshold>-1.1667222976684570e+00</stageThreshold>
      <weakClassifiers>
        <_>
          <internalNodes>
            0 -1 37 -2.7167371008545160e-03</internalNodes>
          <leafValues>
            -9.6449702978134155e-01 1.7499999701976776e-01</leafValues></_>
        <_>
          <internalNodes>
            0 -1 17 6.7425461020320654e-04</internalNodes>
          <leafValues>
            -7.9286873340606689e-01 3.1229978799819946e-01</leafValues></_>
        <_>
          <internalNodes>
            0 -1 23 -1.7971418797969818e-02</internalNodes>
          <leafValues>
            3.0093142390251160e-01 -9.7863554954528809e-01</leafValues></_>
        <_>
          <internalNodes>
            0 -1 25 -6.0874491464346647e-04</internalNodes>
          <leafValues>
            -9.3870699405670166e-01 2.8971210122108459e-01</leafValues></_></weakClassifiers></_>
    <!-- stage 12 -->
    <_>
      <maxWeakCount>3</maxWeakCount>
      <stageThreshold>-1.5892199277877808e+00</stageThreshold>
      <weakClassifiers>
        <_>
          <internalNodes>
            0 -1 20 9.0508611174300313e-04</internalNodes>
          <leafValues>
            9.0909093618392944e-02 -9.8692810535430908e-01</leafValues></_>
        <_>
          <internalNodes>
            0 -1 3 -6.9867368438281119e-05</internalNodes>
          <leafValues>
            2.1418076753616333e-01 -9.4052219390869141e-01</leafValues></_>
        <_>
          <internalNodes>
            0 -1 29 -7.5897179543972015e-02</internalNodes>
          <leafValues>
            3.3823031187057495e-01 -9.5681679248809814e-01</leafValues></_></weakClassifiers></_>
    <!-- stage 13 -->
    <_>
      <maxWeakCount>3</maxWeakCount>
      <stageThreshold>-5.7796126604080200e-01</stageThreshold>
      <weakClassifiers>
        <_>
          <internalNodes>
            0 -1 31 -6.6262402106076479e-04</internalNodes>
          <leafValues>
            -9.8742139339447021e-01 1.2941177189350128e-01</leafValues></_>
        <_>
          <internalNodes>
            0 -1 35 2.6770997792482376e-03</internalNodes>
          <leafValues>
            2.0830142498016357e-01 -9.4169998168945313e-01</leafValues></_>
        <_>
          <internalNodes>
            0 -1 5 -2.8942365315742791e-04</internalNodes>
          <leafValues>
            -1. 2.3432694375514984e-01</leafValues></_></weakClassifiers></_>
    <!-- stage 14 -->
    <_>
      <maxWeakCount>2</maxWeakCount>
      <stageThreshold>-7.9523885250091553e-01</stageThreshold>
      <weakClassifiers>
        <_>
          <internalNodes>
            0 -1 4 5.1543174777179956e-04</internalNodes>
          <leafValues>
            1.0843373835086823e-01 -9.3865031003952026e-01</leafValues></_>
        <_>
          <internalNodes>
            0 -1 12 -4.7836015000939369e-03</internalNodes>
          <leafValues>
            -1. 1.4341147243976593e-01</leafValues></_></weakClassifiers></_>
    <!-- stage 15 -->
    <_>
      <maxWeakCount>1</maxWeakCount>
      <stageThreshold>-8.4905661642551422e-02</stageThreshold>
      <weakClassifiers>
        <_>
          <internalNodes>
            0 -1 32 -5.7681123726069927e-03</internalNodes>
          <leafValues>
            -8.4905661642551422e-02 -1.</leafValues></_></weakClassifiers></_>
    <!-- stage 16 -->
    <_>
      <maxWeakCount>2</maxWeakCount>
      <stageThreshold>-6.4884132146835327e-01</stageThreshold>
      <weakClassifiers>
        <_>
          <internalNodes>
            0 -1 26 -3.2868932932615280e-02</internalNodes>
          <leafValues>
            -8.8832485675811768e-01 3.0303031206130981e-01</leafValues></_>
        <_>
          <internalNodes>
            0 -1 4 6.4542639302089810e-04</internalNodes>
          <leafValues>
            2.8553691506385803e-01 -9.5187157392501831e-01</leafValues></_></weakClassifiers></_></stages>
  <features>
    <_>
      <rects>
        <_>
          0 0 9 2 -1.</_>
        <_>
          3 0 3 2 3.</_></rects>
      <tilted>0</tilted></_>
    <_>
      <rects>
        <_>
          0 2 15 22 -1.</_>
        <_>
          5 2 5 22 3.</_></rects>
      <tilted>0</tilted></_>
    <_>
      <rects>
        <_>
          0 7 2 10 -1.</_>
        <_>
          1 7 1 10 2.</_></rects>
      <tilted>0</tilted></_>
    <_>
      <rects>
        <_>
          0 12 2 12 -1.</_>
        <_>
          0 18 2 6 2.</_></rects>
      <tilted>0</tilted></_>
    <_>
      <rects>
        <_>
          0 22 4 2 -1.</_>
        <_>
          2 22 2 2 2.</_></rects>
      <tilted>0</tilted></_>
    <_>
      <rects>
        <_>
          0 23 4 1 -1.</_>
        <_>
          2 23 2 1 2.</_></rects>
      <tilted>0</tilted></_>
    <_>
      <rects>
        <_>
          1 0 4 6 -1.</_>
        <_>
          1 0 2 3 2.</_>
        <_>
          3 3 2 3 2.</_></rects>
      <tilted>0</tilted></_>
    <_>
      <rects>
        <_>
          2 6 6 2 -1.</_>
        <_>
          5 6 3 2 2.</_></rects>
      <tilted>0</tilted></_>
    <_>
      <rects>
        <_>
          2 22 19 2 -1.</_>
        <_>
          2 23 19 1 2.</_></rects>
      <tilted>0</tilted></_>
    <_>
      <rects>
        <_>
          3 0 15 1 -1.</_>
        <_>
          8 0 5 1 3.</_></rects>
      <tilted>0</tilted></_>
    <_>
      <rects>
        <_>
          3 7 18 12 -1.</_>
        <_>
          12 7 9 12 2.</_></rects>
      <tilted>0</tilted></_>
    <_>
      <rects>
        <_>
          3 23 18 1 -1.</_>
        <_>
          9 23 6 1 3.</_></rects>
      <tilted>0</tilted></_>
    <_>
      <rects>
        <_>
          3 23 18 1 -1.</_>
        <_>
          12 23 9 1 2.</_></rects>
      <tilted>0</tilted></_>
    <_>
      <rects>
        <_>
          4 0 9 20 -1.</_>
        <_>
          4 10 9 10 2.</_></rects>
      <tilted>0</tilted></_>
    <_>
      <rects>
        <_>
          6 3 8 21 -1.</_>
        <_>
          6 10 8 7 3.</_></rects>
      <tilted>0</tilted></_>
    <_>
      <rects>
        <_>
          9 0 15 1 -1.</_>
        <_>
          14 0 5 1 3.</_></rects>
      <tilted>0</tilted></_>
    <_>
      <rects>
        <_>
          9 0 6 24 -1.</_>
        <_>
          9 8 6 8 3.</_></rects>
      <tilted>0</tilted></_>
    <_>
      <rects>
        <_>
          9 0 10 4 -1.</_>
        <_>
          9 2 10 2 2.</_></rects>
      <tilted>0</tilted></_>
    <_>
      <rects>
        <_>
          9 3 9 13 -1.</_>
        <_>
          12 3 3 13 3.</_></rects>
      <tilted>0</tilted></_>
    <_>
      <rects>
        <_>
          9 10 1 6 -1.</_>
        <_>
          9 12 1 2 3.</_></rects>
      <tilted>0</tilted></_>
    <_>
      <rects>
        <_>
          9 23 12 1 -1.</_>
        <_>
          13 23 4 1 3.</_></rects>
      <tilted>0</tilted></_>
    <_>
      <rects>
        <_>
          10 0 1 9 -1.</_>
        <_>
          10 3 1 3 3.</_></rects>
      <tilted>0</tilted></_>
    <_>
      <rects>
        <_>
          10 0 4 24 -1.</_>
        <_>
          10 8 4 8 3.</_></rects>
      <tilted>0</tilted></_>
    <_>
      <rects>
        <_>
          10 1 8 21 -1.</_>
        <_>
          14 1 4 21 2.</_></rects>
      <tilted>0</tilted></_>
    <_>
      <rects>
        <_>
          10 6 1 8 -1.</_>
        <_>
          10 10 1 4 2.</_></rects>
      <tilted>0</tilted></_>
    <_>
      <rects>
        <_>
          10 23 9 1 -1.</_>
        <_>
          13 23 3 1 3.</_></rects>
      <tilted>0</tilted></_>
    <_>
      <rects>
        <_>
          11 2 6 15 -1.</_>
        <_>
          14 2 3 15 2.</_></rects>
      <tilted>0</tilted></_>
    <_>
      <rects>
        <_>
          11 6 1 6 -1.</_>
        <_>
          11 8 1 2 3.</_></rects>
      <tilted>0</tilted></_>
    <_>
      <rects>
        <_>
          12 2 1 21 -1.</_>
        <_>
          12 9 1 7 3.</_></rects>
      <tilted>0</tilted></_>
    <_>
      <rects>
        <_>
          12 8 4 16 -1.</_>
        <_>
          12 16 4 8 2.</_></rects>
      <tilted>0</tilted></_>
    <_>
      <rects>
        <_>
          12 12 1 9 -1.</_>
        <_>
          12 15 1 3 3.</_></rects>
      <tilted>0</tilted></_>
    <_>
      <rects>
        <_>
          12 23 12 1 -1.</_>
        <_>
          16 23 4 1 3.</_></rects>
      <tilted>0</tilted></_>
    <_>
      <rects>
        <_>
          13 0 4 18 -1.</_>
        <_>
          15 0 2 18 2.</_></rects>
      <tilted>0</tilted></_>
    <_>
      <rects>
        <_>
          13 9 1 6 -1.</_>
        <_>
          13 11 1 2 3.</_></rects>
      <tilted>0</tilted></_>
    <_>
      <rects>
        <_>
          13 11 2 9 -1.</_>
        <_>
          13 14 2 3 3.</_></rects>
      <tilted>0</tilted></_>
    <_>
      <rects>
        <_>
          13 15 6 6 -1.</_>
        <_>
          13 15 3 3 2.</_>
        <_>
          16 18 3 3 2.</_></rects>
      <tilted>0</tilted></_>
    <_>
      <rects>
        <_>
          13 19 5 4 -1.</_>
        <_>
          13 21 5 2 2.</_></rects>
      <tilted>0</tilted></_>
    <_>
      <rects>
        <_>
          13 19 6 4 -1.</_>
        <_>
          13 21 6 2 2.</_></rects>
      <tilted>0</tilted></_>
    <_>
      <rects>
        <_>
          18 3 6 14 -1.</_>
        <_>
          21 3 3 14 2.</_></rects>
      <tilted>0</tilted></_>
    <_>
      <rects>
        <_>
          23 9 1 12 -1.</_>
        <_>
          23 15 1 6 2.</_></rects>
      <tilted>0</tilted></_></features></cascade>
</opencv_storage>
