<?xml version="1.0"?>
<opencv_storage>
<stage9>
  <maxWeakCount>7</maxWeakCount>
  <stageThreshold>-1.2172089815139771e+00</stageThreshold>
  <weakClassifiers>
    <_>
      <internalNodes>
        0 -1 18124 2.2222630679607391e-02</internalNodes>
      <leafValues>
        -6.2570464611053467e-01 2.8089886903762817e-01</leafValues></_>
    <_>
      <internalNodes>
        0 -1 120449 1.5945134218782187e-03</internalNodes>
      <leafValues>
        -4.9319937825202942e-01 2.9926219582557678e-01</leafValues></_>
    <_>
      <internalNodes>
        0 -1 140845 -6.3223149627447128e-03</internalNodes>
      <leafValues>
        -7.1748608350753784e-01 1.9596573710441589e-01</leafValues></_>
    <_>
      <internalNodes>
        0 -1 134100 -7.2820641100406647e-02</internalNodes>
      <leafValues>
        2.8030091524124146e-01 -7.5627475976943970e-01</leafValues></_>
    <_>
      <internalNodes>
        0 -1 160171 -6.6002919338643551e-03</internalNodes>
      <leafValues>
        -9.5034426450729370e-01 1.4398691058158875e-01</leafValues></_>
    <_>
      <internalNodes>
        0 -1 159589 -3.4041914623230696e-03</internalNodes>
      <leafValues>
        -8.3075481653213501e-01 1.3875323534011841e-01</leafValues></_>
    <_>
      <internalNodes>
        0 -1 127535 3.1091957353055477e-03</internalNodes>
      <leafValues>
        2.3318657279014587e-01 -6.1084914207458496e-01</leafValues></_></weakClassifiers></stage9>
</opencv_storage>
